<?xml version="1.0"?>
<opencv_storage>
<opencv_ml_svm>
  <format>3</format>
  <svmType>C_SVC</svmType>
  <kernel>
    <type>RBF</type>
    <gamma>1.0000000000000000e-08</gamma></kernel>
  <C>1.</C>
  <term_criteria><epsilon>1.1920928955078125e-07</epsilon>
    <iterations>1000</iterations></term_criteria>
  <var_count>256</var_count>
  <class_count>2</class_count>
  <class_labels type_id="opencv-matrix">
    <rows>2</rows>
    <cols>1</cols>
    <dt>i</dt>
    <data>
      -1 1</data></class_labels>
  <sv_total>2000</sv_total>
  <support_vectors>
    <_>
      82. 34. 16. 18. 28. 6. 22. 18. 6. 2. 0. 6. 8. 4. 12. 24. 44. 8. 4.
      0. 4. 0. 14. 0. 14. 0. 0. 0. 16. 2. 28. 10. 8. 0. 0. 0. 2. 2. 8.
      4. 2. 0. 0. 0. 4. 0. 0. 6. 18. 2. 6. 6. 6. 0. 4. 0. 8. 2. 2. 2.
      22. 2. 14. 14. 26. 2. 0. 2. 6. 0. 0. 2. 4. 0. 0. 0. 2. 0. 2. 6. 0.
      0. 0. 2. 0. 0. 0. 0. 8. 0. 2. 0. 2. 0. 0. 0. 8. 4. 6. 4. 2. 0. 6.
      2. 2. 0. 0. 0. 0. 6. 0. 0. 14. 0. 0. 2. 2. 0. 0. 2. 24. 0. 14. 0.
      10. 0. 16. 12. 12. 10. 0. 16. 6. 8. 4. 28. 4. 6. 0. 2. 0. 0. 0.
      12. 0. 4. 0. 0. 0. 0. 0. 2. 4. 0. 0. 0. 2. 6. 8. 20. 0. 2. 0. 0.
      2. 0. 0. 4. 2. 2. 0. 0. 0. 2. 0. 2. 2. 0. 0. 0. 6. 0. 2. 12. 0. 2.
      0. 4. 10. 8. 0. 22. 22. 18. 4. 8. 0. 0. 0. 12. 2. 0. 0. 14. 0. 2.
      0. 14. 6. 0. 0. 0. 0. 0. 0. 0. 4. 4. 0. 6. 0. 4. 4. 16. 8. 12. 2.
      14. 0. 0. 4. 16. 0. 0. 4. 6. 2. 4. 6. 28. 34. 12. 2. 12. 2. 2. 8.
      10. 6. 14. 6. 22. 20. 12. 30. 116.</_>
    <_>
      68. 20. 12. 8. 32. 4. 2. 32. 10. 6. 0. 0. 10. 10. 16. 34. 22. 16.
      6. 2. 2. 0. 4. 10. 10. 0. 2. 2. 6. 6. 34. 20. 6. 2. 2. 0. 6. 0. 2.
      6. 0. 0. 0. 0. 0. 0. 0. 8. 2. 0. 2. 0. 4. 0. 2. 0. 18. 0. 2. 6.
      14. 4. 14. 6. 40. 2. 4. 6. 4. 0. 0. 0. 2. 0. 0. 2. 0. 0. 0. 2. 8.
      0. 0. 0. 0. 0. 0. 0. 6. 0. 2. 0. 4. 0. 0. 0. 2. 4. 0. 6. 4. 2. 0.
      0. 0. 0. 0. 2. 0. 0. 2. 4. 20. 4. 4. 0. 0. 0. 2. 4. 4. 2. 4. 4.
      14. 0. 6. 24. 10. 12. 0. 16. 4. 6. 0. 32. 4. 0. 0. 0. 4. 0. 2. 18.
      2. 8. 0. 0. 0. 4. 0. 2. 0. 6. 0. 0. 2. 2. 6. 8. 0. 2. 0. 6. 0. 2.
      0. 4. 0. 0. 0. 2. 0. 2. 0. 0. 2. 4. 0. 0. 2. 0. 0. 10. 0. 2. 0. 4.
      0. 4. 0. 26. 8. 8. 2. 16. 8. 0. 0. 10. 2. 2. 0. 4. 2. 0. 2. 8. 10.
      0. 0. 4. 0. 0. 0. 4. 4. 0. 0. 8. 0. 0. 2. 26. 10. 30. 2. 18. 4. 2.
      2. 16. 0. 6. 0. 2. 0. 8. 6. 48. 20. 18. 8. 14. 0. 0. 8. 16. 14.
      12. 4. 24. 8. 6. 16. 184.</_>
    <_>
      76. 14. 14. 4. 14. 2. 14. 24. 14. 4. 2. 4. 6. 2. 2. 8. 18. 2. 6.
      0. 4. 0. 8. 2. 24. 0. 0. 0. 12. 2. 10. 14. 16. 0. 2. 2. 2. 2. 4.
      2. 4. 2. 4. 0. 2. 2. 2. 12. 20. 4. 2. 0. 4. 2. 2. 2. 8. 0. 2. 0.
      26. 0. 20. 4. 14. 4. 4. 2. 2. 4. 0. 2. 2. 0. 0. 4. 0. 0. 0. 0. 2.
      0. 0. 0. 0. 0. 0. 0. 4. 0. 0. 0. 2. 0. 2. 2. 12. 4. 4. 0. 0. 2. 0.
      8. 0. 0. 2. 0. 2. 2. 0. 6. 16. 0. 4. 4. 2. 2. 4. 14. 24. 0. 6. 2.
      12. 2. 12. 26. 14. 16. 2. 12. 4. 2. 2. 26. 2. 2. 0. 2. 4. 0. 2.
      16. 4. 2. 0. 0. 0. 2. 2. 0. 4. 2. 0. 0. 8. 0. 2. 2. 0. 2. 6. 4. 0.
      0. 0. 6. 0. 2. 0. 2. 0. 4. 2. 8. 4. 4. 0. 4. 0. 0. 2. 0. 2. 4. 0.
      2. 12. 6. 16. 8. 14. 10. 6. 14. 0. 2. 2. 10. 8. 2. 0. 14. 2. 8. 2.
      12. 8. 6. 2. 2. 2. 2. 0. 2. 0. 6. 0. 4. 8. 20. 2. 30. 8. 8. 4. 14.
      2. 4. 0. 8. 6. 4. 0. 4. 0. 6. 4. 10. 22. 0. 10. 12. 4. 2. 10. 24.
      30. 6. 10. 24. 8. 40. 22. 146.</_>
    <_>
      64. 32. 10. 12. 24. 0. 18. 28. 2. 2. 0. 2. 12. 4. 32. 50. 26. 30.
      0. 0. 2. 0. 2. 8. 6. 2. 0. 8. 18. 2. 30. 62. 6. 4. 0. 0. 4. 0. 0.
      0. 2. 0. 0. 0. 0. 0. 0. 0. 8. 8. 0. 0. 4. 0. 0. 0. 10. 4. 0. 4.
      14. 2. 8. 8. 12. 6. 2. 2. 6. 0. 2. 6. 2. 0. 0. 0. 0. 2. 4. 0. 2.
      4. 0. 0. 2. 0. 0. 0. 0. 0. 2. 0. 2. 0. 2. 4. 16. 2. 2. 0. 0. 0. 0.
      4. 0. 0. 0. 0. 0. 0. 2. 0. 16. 4. 0. 2. 0. 2. 0. 2. 38. 0. 6. 4.
      10. 2. 6. 0. 4. 10. 0. 10. 2. 2. 10. 16. 2. 0. 0. 0. 2. 0. 0. 10.
      0. 12. 0. 4. 0. 0. 0. 0. 0. 2. 0. 4. 2. 0. 2. 14. 2. 2. 0. 2. 0.
      2. 0. 4. 0. 0. 2. 2. 0. 0. 0. 4. 2. 0. 0. 0. 0. 0. 0. 8. 2. 2. 2.
      4. 2. 0. 2. 38. 8. 20. 2. 24. 2. 2. 0. 10. 2. 0. 0. 8. 2. 0. 0.
      16. 6. 6. 0. 0. 0. 0. 0. 2. 0. 0. 0. 2. 0. 4. 0. 10. 22. 26. 0.
      10. 4. 2. 4. 6. 2. 0. 0. 4. 8. 0. 16. 32. 24. 28. 2. 10. 2. 6. 4.
      18. 12. 4. 4. 24. 8. 22. 26. 168.</_>
    <_>
      98. 32. 10. 10. 12. 0. 4. 14. 10. 2. 6. 2. 18. 0. 8. 20. 30. 4. 2.
      2. 4. 0. 4. 4. 12. 6. 4. 2. 10. 0. 24. 26. 4. 4. 0. 0. 12. 0. 2.
      4. 2. 0. 0. 0. 0. 0. 2. 4. 8. 2. 2. 2. 8. 0. 0. 4. 2. 4. 2. 4. 34.
      2. 4. 8. 12. 2. 8. 18. 10. 0. 4. 4. 0. 0. 0. 0. 0. 0. 8. 2. 2. 0.
      0. 0. 0. 0. 2. 2. 12. 0. 0. 0. 2. 0. 8. 4. 6. 8. 2. 4. 4. 0. 0. 0.
      4. 0. 2. 2. 0. 0. 2. 8. 12. 0. 2. 2. 0. 0. 0. 4. 10. 4. 6. 10. 12.
      12. 8. 18. 16. 12. 0. 8. 18. 12. 6. 26. 0. 0. 0. 0. 2. 4. 0. 2. 2.
      2. 0. 0. 0. 2. 0. 0. 2. 0. 0. 2. 2. 2. 2. 16. 0. 2. 0. 2. 0. 2. 0.
      12. 2. 0. 0. 0. 0. 0. 0. 2. 2. 2. 0. 4. 2. 0. 0. 6. 0. 0. 4. 6.
      10. 4. 2. 28. 10. 8. 2. 6. 0. 0. 2. 12. 2. 2. 2. 8. 0. 0. 0. 14.
      2. 4. 0. 4. 0. 0. 2. 0. 4. 0. 2. 10. 0. 0. 0. 26. 6. 18. 4. 6. 0.
      0. 4. 2. 2. 4. 2. 8. 0. 4. 6. 24. 0. 10. 2. 14. 6. 2. 8. 18. 2.
      14. 2. 20. 4. 22. 22. 238.</_>
    <_>
      68. 6. 16. 8. 14. 4. 8. 10. 16. 2. 6. 0. 12. 0. 18. 12. 20. 4. 4.
      0. 8. 2. 6. 4. 18. 4. 2. 4. 38. 2. 32. 16. 0. 0. 6. 2. 2. 0. 4. 4.
      4. 0. 4. 0. 0. 2. 2. 4. 16. 2. 2. 2. 0. 0. 0. 2. 26. 0. 0. 2. 36.
      4. 34. 10. 6. 4. 4. 0. 2. 2. 2. 2. 0. 0. 0. 0. 0. 0. 2. 0. 10. 2.
      0. 0. 0. 2. 4. 0. 2. 0. 0. 2. 2. 6. 8. 2. 14. 0. 0. 0. 0. 2. 0. 4.
      4. 2. 0. 2. 2. 0. 2. 0. 26. 2. 2. 2. 4. 6. 4. 16. 14. 2. 4. 0. 18.
      4. 16. 34. 18. 12. 6. 2. 0. 2. 2. 4. 0. 0. 2. 6. 0. 2. 2. 20. 2.
      2. 0. 0. 2. 0. 0. 2. 0. 0. 0. 0. 0. 0. 2. 8. 0. 2. 0. 0. 0. 2. 0.
      2. 2. 2. 0. 2. 0. 4. 2. 8. 4. 0. 0. 2. 2. 0. 0. 4. 10. 0. 0. 2. 8.
      2. 10. 18. 10. 10. 4. 16. 2. 0. 0. 6. 2. 8. 0. 8. 0. 4. 2. 6. 0.
      6. 0. 6. 0. 0. 0. 2. 2. 2. 0. 4. 0. 18. 2. 18. 8. 12. 2. 26. 0. 4.
      4. 6. 6. 4. 6. 4. 4. 0. 6. 6. 32. 20. 6. 10. 0. 2. 0. 22. 24. 16.
      20. 12. 10. 36. 30. 124.</_>
    <_>
      86. 20. 18. 18. 38. 2. 10. 8. 14. 8. 0. 0. 4. 4. 12. 20. 30. 2. 2.
      2. 4. 0. 2. 8. 12. 8. 4. 4. 4. 4. 16. 18. 4. 0. 2. 2. 8. 0. 4. 0.
      0. 0. 0. 0. 0. 4. 4. 8. 14. 0. 4. 0. 8. 0. 4. 2. 8. 4. 2. 2. 34.
      4. 14. 12. 20. 0. 6. 10. 2. 0. 2. 2. 6. 0. 0. 4. 2. 0. 2. 8. 4. 0.
      0. 0. 0. 0. 2. 2. 12. 0. 4. 0. 0. 0. 4. 22. 6. 2. 4. 0. 6. 0. 2.
      2. 4. 0. 2. 2. 4. 0. 0. 2. 12. 2. 0. 0. 2. 2. 2. 2. 8. 0. 0. 6. 2.
      4. 8. 20. 12. 12. 0. 2. 10. 16. 6. 30. 6. 0. 2. 0. 4. 0. 0. 6. 2.
      2. 0. 2. 0. 2. 0. 2. 2. 2. 0. 0. 0. 4. 2. 10. 2. 2. 0. 0. 0. 0. 0.
      8. 0. 0. 0. 0. 0. 0. 2. 2. 0. 2. 0. 4. 0. 0. 0. 4. 0. 0. 0. 8. 6.
      2. 4. 40. 4. 6. 2. 14. 0. 4. 0. 8. 6. 0. 0. 4. 2. 0. 2. 14. 0. 6.
      0. 0. 0. 0. 0. 2. 2. 0. 2. 2. 0. 0. 4. 24. 2. 26. 2. 6. 0. 2. 2.
      10. 0. 0. 2. 2. 4. 2. 20. 18. 2. 14. 4. 8. 2. 4. 2. 14. 16. 6. 6.
      20. 14. 28. 12. 238.</_>
    <_>
      44. 24. 2. 6. 20. 0. 4. 4. 2. 0. 0. 0. 2. 2. 8. 24. 14. 2. 0. 0.
      0. 2. 4. 2. 6. 2. 0. 0. 10. 0. 20. 4. 0. 2. 0. 2. 0. 0. 2. 4. 0.
      0. 0. 0. 0. 0. 0. 6. 8. 4. 2. 2. 0. 0. 0. 0. 2. 0. 0. 2. 14. 0.
      14. 2. 18. 2. 4. 2. 2. 0. 0. 0. 4. 0. 0. 0. 0. 0. 2. 0. 4. 0. 0.
      0. 2. 0. 0. 0. 0. 0. 0. 0. 0. 0. 0. 0. 16. 4. 4. 0. 0. 0. 0. 0. 4.
      0. 0. 0. 0. 0. 0. 2. 34. 2. 2. 0. 0. 0. 0. 2. 36. 0. 0. 2. 8. 0.
      0. 2. 8. 4. 0. 8. 2. 0. 2. 14. 0. 0. 0. 4. 0. 2. 0. 6. 8. 4. 0. 0.
      0. 0. 0. 0. 2. 0. 0. 0. 0. 2. 2. 2. 0. 6. 0. 0. 0. 2. 0. 4. 0. 0.
      0. 0. 0. 0. 0. 0. 2. 0. 0. 0. 0. 0. 0. 2. 0. 0. 0. 4. 0. 6. 2. 12.
      28. 38. 0. 40. 0. 0. 0. 14. 0. 4. 0. 2. 0. 0. 0. 0. 8. 10. 0. 4.
      0. 0. 2. 0. 2. 2. 2. 0. 6. 2. 6. 4. 58. 184. 2. 50. 0. 6. 0. 4. 4.
      10. 0. 2. 2. 4. 0. 16. 142. 100. 2. 28. 4. 4. 8. 20. 18. 16. 2.
      28. 8. 16. 24. 90.</_>
    <_>
      78. 12. 18. 6. 18. 2. 4. 12. 16. 4. 2. 4. 0. 2. 4. 36. 16. 6. 2.
      0. 0. 0. 10. 8. 6. 2. 4. 0. 12. 0. 2. 10. 14. 6. 18. 2. 2. 0. 0.
      8. 6. 0. 0. 0. 0. 2. 0. 0. 6. 0. 0. 2. 2. 0. 4. 0. 10. 0. 4. 0.
      36. 2. 18. 2. 10. 2. 10. 8. 2. 2. 0. 2. 2. 0. 2. 0. 2. 4. 0. 2. 8.
      4. 0. 0. 0. 0. 0. 2. 6. 2. 2. 0. 2. 0. 0. 2. 6. 8. 4. 8. 2. 4. 0.
      0. 2. 0. 2. 0. 2. 2. 2. 4. 14. 0. 4. 2. 8. 4. 0. 10. 12. 0. 6. 0.
      12. 8. 6. 24. 22. 14. 0. 6. 2. 6. 2. 10. 6. 4. 0. 4. 4. 2. 0. 20.
      4. 4. 6. 2. 0. 0. 0. 6. 4. 0. 4. 2. 2. 4. 4. 6. 2. 6. 2. 0. 2. 0.
      2. 0. 2. 0. 0. 2. 0. 2. 2. 10. 2. 6. 2. 4. 0. 0. 0. 6. 2. 6. 2. 6.
      6. 2. 8. 8. 14. 12. 4. 38. 0. 0. 0. 4. 4. 2. 0. 2. 0. 4. 2. 14. 6.
      6. 4. 2. 2. 0. 0. 2. 16. 0. 2. 0. 2. 2. 4. 20. 12. 12. 2. 14. 2.
      4. 4. 16. 0. 12. 0. 2. 6. 8. 2. 24. 36. 14. 6. 12. 4. 4. 4. 30.
      12. 10. 12. 24. 6. 22. 10. 160.</_>
    <_>
      42. 12. 4. 4. 18. 4. 6. 18. 14. 0. 0. 2. 10. 0. 6. 22. 6. 6. 0. 2.
      4. 0. 2. 0. 10. 4. 0. 0. 10. 2. 12. 16. 2. 0. 2. 0. 0. 0. 2. 2. 2.
      0. 0. 0. 4. 0. 0. 0. 16. 0. 0. 0. 2. 0. 0. 0. 6. 0. 0. 4. 6. 2.
      14. 14. 20. 0. 2. 2. 2. 0. 0. 0. 4. 0. 0. 0. 0. 0. 0. 2. 2. 0. 0.
      0. 0. 0. 0. 2. 6. 0. 0. 0. 6. 0. 2. 0. 20. 2. 2. 2. 2. 0. 0. 0. 4.
      4. 2. 0. 0. 0. 0. 6. 38. 0. 8. 2. 0. 0. 8. 0. 34. 4. 8. 2. 16. 2.
      14. 10. 30. 16. 0. 16. 2. 10. 0. 32. 4. 2. 0. 0. 0. 6. 0. 22. 0.
      0. 0. 2. 0. 0. 0. 0. 2. 0. 0. 2. 0. 2. 0. 8. 4. 2. 0. 6. 0. 2. 0.
      8. 0. 0. 0. 0. 0. 0. 0. 6. 0. 4. 0. 4. 0. 0. 0. 4. 2. 2. 0. 2. 0.
      0. 2. 20. 22. 42. 2. 48. 0. 8. 2. 22. 2. 2. 0. 0. 0. 4. 0. 20. 8.
      4. 0. 2. 0. 0. 0. 2. 6. 0. 2. 2. 0. 2. 0. 0. 30. 34. 0. 46. 2. 4.
      2. 34. 2. 4. 0. 0. 0. 0. 0. 10. 68. 54. 4. 36. 2. 4. 2. 22. 58.
      28. 0. 18. 16. 12. 6. 90.</_>
    <_>
      96. 8. 20. 10. 24. 4. 8. 8. 18. 4. 2. 2. 18. 8. 0. 16. 10. 0. 2.
      2. 4. 0. 0. 2. 8. 0. 0. 2. 8. 2. 0. 10. 20. 10. 0. 0. 2. 0. 2. 2.
      6. 0. 0. 2. 2. 2. 0. 6. 14. 2. 2. 2. 2. 2. 2. 4. 14. 4. 2. 2. 40.
      2. 2. 6. 20. 6. 10. 4. 6. 0. 2. 6. 6. 0. 2. 0. 0. 0. 0. 0. 4. 0.
      2. 2. 4. 0. 0. 2. 4. 2. 0. 2. 2. 0. 2. 4. 8. 2. 2. 2. 2. 2. 2. 4.
      2. 2. 2. 0. 0. 0. 2. 2. 20. 2. 0. 2. 6. 0. 6. 6. 34. 2. 8. 12. 14.
      0. 8. 18. 6. 8. 12. 12. 2. 8. 4. 46. 4. 2. 4. 2. 2. 2. 0. 14. 0.
      4. 0. 0. 2. 0. 0. 2. 4. 0. 0. 0. 4. 4. 4. 4. 6. 4. 2. 2. 0. 2. 2.
      6. 2. 0. 0. 2. 2. 2. 2. 2. 4. 2. 0. 2. 0. 2. 0. 10. 0. 2. 0. 4. 4.
      6. 2. 18. 18. 16. 6. 22. 4. 0. 2. 16. 2. 0. 4. 12. 0. 4. 2. 10. 6.
      4. 0. 2. 2. 2. 0. 4. 6. 0. 0. 8. 2. 4. 0. 14. 6. 2. 2. 4. 0. 2. 4.
      4. 0. 10. 0. 4. 2. 2. 0. 20. 24. 4. 6. 16. 10. 14. 4. 26. 8. 8. 6.
      38. 10. 14. 14. 168.</_>
    <_>
      118. 28. 28. 10. 16. 2. 18. 14. 10. 8. 2. 4. 2. 0. 8. 10. 32. 4.
      6. 2. 6. 0. 2. 2. 4. 0. 0. 2. 8. 2. 12. 4. 10. 6. 0. 2. 8. 2. 0.
      0. 0. 0. 4. 0. 0. 0. 4. 6. 12. 2. 0. 0. 6. 2. 0. 2. 4. 2. 6. 4.
      42. 2. 10. 12. 12. 0. 10. 6. 6. 0. 2. 2. 6. 4. 2. 6. 6. 2. 0. 8.
      8. 2. 0. 0. 0. 0. 4. 8. 2. 0. 0. 2. 0. 4. 4. 6. 10. 2. 0. 6. 0. 0.
      2. 0. 0. 2. 0. 0. 2. 0. 0. 4. 14. 2. 2. 0. 0. 0. 4. 0. 14. 2. 4.
      4. 14. 4. 8. 24. 16. 12. 2. 12. 4. 16. 2. 38. 0. 0. 0. 6. 0. 2. 2.
      4. 0. 4. 2. 2. 0. 0. 0. 0. 0. 0. 0. 2. 4. 2. 2. 26. 2. 2. 2. 2. 2.
      2. 0. 16. 0. 2. 0. 4. 0. 0. 0. 4. 6. 0. 2. 0. 2. 0. 2. 12. 0. 0.
      2. 4. 8. 10. 12. 28. 10. 16. 4. 12. 6. 2. 0. 2. 2. 4. 2. 4. 2. 0.
      6. 16. 6. 0. 0. 2. 0. 4. 0. 6. 6. 0. 0. 4. 2. 4. 8. 26. 16. 14. 4.
      8. 2. 4. 4. 10. 0. 4. 4. 6. 4. 6. 2. 32. 16. 6. 0. 6. 0. 2. 6. 12.
      10. 8. 0. 18. 10. 12. 12. 140.</_>
    <_>
      56. 32. 4. 6. 24. 2. 10. 24. 4. 0. 2. 0. 12. 2. 50. 40. 26. 22. 2.
      2. 2. 0. 2. 4. 10. 0. 0. 6. 26. 2. 54. 88. 8. 2. 2. 2. 8. 0. 0. 0.
      0. 0. 0. 0. 4. 0. 0. 4. 8. 0. 2. 0. 2. 0. 0. 2. 8. 0. 0. 6. 22. 0.
      6. 8. 8. 2. 6. 10. 2. 2. 0. 0. 4. 0. 0. 0. 2. 0. 2. 6. 0. 0. 0. 0.
      0. 0. 0. 2. 2. 2. 0. 0. 2. 2. 2. 4. 14. 6. 0. 2. 2. 0. 2. 0. 0. 0.
      0. 0. 2. 0. 4. 0. 6. 2. 0. 2. 6. 2. 2. 2. 54. 6. 4. 4. 18. 2. 6.
      10. 4. 10. 4. 4. 8. 6. 0. 24. 0. 2. 0. 0. 0. 0. 0. 4. 0. 2. 0. 0.
      0. 2. 0. 0. 0. 4. 0. 2. 0. 4. 0. 10. 0. 0. 0. 0. 2. 0. 0. 6. 0. 0.
      0. 0. 0. 0. 0. 0. 2. 0. 0. 0. 0. 0. 0. 2. 0. 0. 2. 12. 2. 0. 0.
      40. 8. 10. 0. 38. 4. 0. 2. 14. 2. 4. 0. 6. 2. 2. 2. 12. 0. 2. 0.
      4. 0. 0. 0. 0. 0. 0. 0. 0. 0. 4. 0. 14. 8. 12. 0. 8. 0. 4. 2. 20.
      4. 2. 0. 2. 4. 0. 16. 28. 18. 26. 0. 8. 6. 0. 0. 12. 14. 6. 0. 28.
      10. 12. 30. 174.</_>
    <_>
      94. 24. 6. 6. 14. 4. 10. 20. 12. 2. 0. 2. 12. 6. 20. 10. 16. 8. 0.
      2. 4. 0. 6. 2. 14. 0. 2. 0. 14. 0. 36. 22. 14. 0. 2. 4. 6. 0. 0.
      10. 4. 0. 0. 0. 4. 0. 0. 0. 12. 4. 4. 2. 6. 0. 0. 2. 18. 2. 2. 0.
      28. 0. 12. 6. 20. 0. 4. 4. 10. 2. 2. 8. 12. 2. 0. 2. 2. 0. 2. 2.
      4. 2. 0. 2. 0. 0. 0. 0. 4. 0. 0. 0. 6. 0. 0. 2. 12. 2. 2. 0. 0. 0.
      2. 2. 4. 0. 0. 0. 2. 0. 0. 2. 18. 4. 8. 4. 2. 0. 0. 4. 56. 0. 14.
      8. 12. 4. 10. 18. 6. 6. 0. 6. 2. 18. 4. 20. 2. 2. 0. 0. 2. 4. 0.
      10. 2. 4. 0. 4. 0. 2. 0. 6. 0. 0. 0. 2. 6. 2. 2. 6. 2. 0. 0. 0. 0.
      0. 0. 10. 0. 0. 0. 4. 0. 0. 0. 10. 2. 0. 0. 0. 0. 0. 0. 16. 8. 0.
      0. 2. 14. 6. 0. 20. 8. 10. 0. 48. 4. 4. 2. 6. 4. 2. 0. 12. 0. 0.
      0. 12. 0. 0. 2. 0. 0. 0. 0. 0. 0. 8. 0. 8. 4. 8. 0. 14. 18. 24. 2.
      14. 0. 0. 0. 8. 0. 2. 0. 2. 0. 2. 4. 18. 4. 30. 2. 4. 4. 0. 4. 8.
      26. 10. 8. 28. 18. 18. 28. 122.</_>
    <_>
      36. 8. 12. 2. 22. 0. 10. 18. 8. 4. 0. 2. 4. 2. 10. 16. 14. 2. 0.
      4. 0. 0. 0. 4. 4. 0. 0. 2. 12. 2. 18. 22. 6. 0. 4. 0. 6. 0. 2. 0.
      6. 0. 0. 0. 2. 0. 2. 2. 2. 4. 2. 0. 0. 2. 0. 2. 8. 0. 0. 0. 10. 0.
      6. 12. 24. 2. 4. 8. 10. 2. 6. 12. 2. 0. 0. 2. 0. 2. 2. 4. 2. 2. 0.
      0. 0. 0. 0. 0. 2. 2. 0. 0. 6. 0. 4. 6. 2. 0. 2. 2. 0. 0. 2. 2. 2.
      0. 0. 0. 0. 0. 4. 0. 20. 0. 0. 0. 4. 2. 0. 4. 14. 0. 6. 4. 36. 8.
      20. 24. 14. 4. 0. 8. 2. 2. 2. 24. 2. 2. 2. 2. 0. 2. 0. 16. 0. 0.
      0. 2. 0. 0. 0. 0. 0. 0. 0. 0. 2. 0. 2. 12. 0. 0. 0. 2. 0. 0. 0. 2.
      0. 0. 0. 0. 0. 0. 4. 2. 2. 0. 0. 0. 0. 0. 0. 2. 2. 2. 0. 6. 6. 4.
      4. 24. 0. 20. 0. 14. 0. 0. 2. 50. 0. 2. 0. 2. 0. 4. 0. 16. 0. 0.
      2. 2. 2. 0. 0. 6. 0. 0. 2. 2. 2. 2. 2. 32. 12. 18. 0. 10. 2. 0. 0.
      16. 0. 0. 0. 0. 2. 2. 4. 14. 14. 16. 0. 12. 0. 4. 0. 24. 4. 16. 4.
      24. 20. 24. 14. 408.</_>
    <_>
      88. 4. 8. 4. 18. 4. 8. 4. 14. 4. 4. 0. 10. 2. 6. 6. 10. 6. 2. 2.
      0. 2. 0. 0. 14. 4. 4. 2. 12. 2. 20. 40. 26. 2. 4. 0. 8. 2. 0. 4.
      2. 2. 0. 2. 2. 2. 2. 2. 16. 0. 4. 0. 8. 0. 0. 0. 10. 2. 2. 2. 22.
      2. 4. 8. 18. 4. 12. 12. 4. 0. 0. 2. 10. 0. 0. 0. 6. 2. 0. 6. 6. 4.
      0. 0. 0. 0. 0. 0. 6. 0. 2. 2. 0. 6. 6. 6. 12. 0. 0. 6. 4. 0. 2. 6.
      4. 0. 0. 0. 0. 4. 4. 2. 16. 6. 0. 0. 6. 2. 2. 2. 34. 2. 8. 4. 0.
      2. 10. 24. 12. 20. 0. 6. 0. 8. 6. 36. 2. 2. 0. 2. 0. 2. 0. 6. 2.
      4. 0. 4. 2. 2. 0. 0. 2. 4. 0. 4. 0. 0. 2. 22. 4. 4. 2. 6. 2. 0. 0.
      4. 0. 0. 0. 2. 0. 2. 0. 10. 2. 2. 2. 0. 0. 2. 0. 6. 0. 2. 2. 2. 8.
      2. 4. 16. 26. 12. 4. 38. 0. 4. 2. 2. 4. 2. 2. 8. 0. 0. 0. 8. 6. 4.
      0. 0. 0. 2. 0. 2. 0. 4. 2. 2. 0. 4. 0. 10. 8. 8. 2. 8. 0. 2. 0.
      12. 2. 2. 2. 4. 2. 0. 4. 20. 8. 6. 2. 10. 8. 6. 4. 28. 10. 14. 16.
      28. 10. 30. 22. 186.</_>
    <_>
      98. 22. 10. 14. 20. 4. 10. 8. 6. 4. 2. 4. 6. 6. 12. 26. 16. 14. 2.
      2. 2. 0. 4. 2. 2. 0. 2. 0. 14. 4. 12. 8. 14. 4. 2. 0. 2. 0. 0. 0.
      0. 0. 0. 0. 0. 0. 2. 4. 6. 0. 0. 0. 8. 0. 2. 2. 10. 0. 0. 4. 12.
      2. 6. 6. 36. 6. 4. 4. 18. 0. 6. 0. 6. 2. 0. 0. 0. 0. 4. 0. 4. 0.
      0. 2. 2. 0. 0. 0. 2. 0. 0. 0. 2. 0. 2. 2. 4. 2. 0. 6. 0. 2. 4. 2.
      0. 0. 2. 0. 0. 0. 2. 0. 8. 2. 0. 2. 0. 0. 0. 2. 24. 2. 2. 2. 6. 4.
      10. 12. 20. 10. 4. 12. 6. 4. 2. 40. 0. 2. 0. 4. 2. 0. 2. 10. 12.
      0. 2. 4. 2. 0. 0. 8. 0. 0. 0. 2. 0. 0. 2. 8. 2. 0. 0. 0. 0. 2. 0.
      6. 0. 2. 0. 2. 0. 0. 0. 2. 0. 2. 0. 4. 0. 0. 0. 2. 0. 0. 0. 18. 0.
      2. 4. 24. 10. 12. 4. 26. 6. 0. 0. 26. 0. 0. 0. 14. 2. 2. 4. 14. 8.
      4. 0. 6. 0. 0. 2. 4. 0. 0. 0. 2. 2. 4. 4. 26. 14. 34. 2. 24. 6.
      10. 0. 14. 0. 0. 0. 4. 2. 6. 2. 36. 12. 28. 4. 14. 0. 6. 2. 26.
      14. 18. 4. 46. 8. 4. 20. 172.</_>
    <_>
      68. 16. 8. 8. 16. 2. 8. 12. 18. 0. 2. 0. 6. 4. 6. 10. 26. 8. 4. 2.
      8. 2. 0. 2. 2. 0. 0. 2. 16. 0. 14. 22. 22. 4. 8. 0. 0. 4. 0. 6. 6.
      2. 0. 0. 2. 0. 0. 0. 12. 0. 2. 0. 4. 0. 2. 4. 14. 4. 6. 2. 8. 0.
      12. 6. 20. 0. 2. 8. 6. 2. 0. 0. 2. 0. 2. 0. 0. 0. 0. 0. 6. 0. 0.
      0. 0. 0. 0. 2. 6. 0. 0. 0. 0. 2. 2. 0. 18. 8. 2. 4. 2. 4. 0. 0. 4.
      2. 0. 2. 0. 2. 2. 6. 14. 8. 8. 2. 2. 6. 2. 10. 22. 4. 6. 6. 14. 4.
      8. 28. 12. 12. 4. 14. 4. 8. 2. 10. 4. 0. 2. 2. 2. 8. 2. 6. 4. 4.
      0. 4. 0. 0. 0. 0. 2. 0. 0. 0. 0. 2. 4. 4. 2. 2. 0. 6. 0. 2. 0. 4.
      2. 0. 0. 0. 0. 0. 2. 14. 2. 0. 2. 2. 0. 6. 4. 6. 8. 0. 6. 8. 4. 4.
      18. 14. 6. 14. 6. 8. 4. 4. 0. 4. 2. 4. 0. 10. 6. 4. 2. 10. 6. 2.
      0. 0. 2. 2. 0. 4. 4. 0. 2. 2. 0. 16. 2. 10. 14. 6. 0. 20. 0. 4. 0.
      18. 4. 4. 2. 6. 0. 0. 10. 24. 28. 14. 0. 6. 0. 8. 2. 22. 32. 18.
      6. 24. 8. 52. 24. 160.</_>
    <_>
      74. 14. 6. 6. 6. 2. 2. 4. 4. 2. 0. 0. 2. 0. 0. 0. 6. 0. 0. 2. 0.
      0. 0. 2. 6. 0. 0. 2. 6. 0. 0. 0. 8. 2. 2. 2. 10. 2. 2. 2. 0. 0. 0.
      0. 0. 2. 0. 0. 8. 2. 0. 4. 6. 0. 2. 0. 2. 4. 0. 0. 38. 2. 8. 4.
      16. 2. 6. 6. 0. 0. 4. 2. 10. 0. 0. 8. 0. 0. 0. 2. 2. 0. 0. 0. 0.
      0. 0. 2. 6. 0. 2. 0. 0. 0. 0. 0. 20. 12. 2. 4. 4. 0. 0. 0. 0. 0.
      0. 0. 0. 0. 2. 2. 4. 0. 2. 2. 0. 0. 2. 0. 10. 0. 4. 0. 4. 0. 8. 8.
      30. 24. 4. 18. 0. 16. 2. 48. 0. 0. 0. 0. 0. 2. 0. 6. 4. 6. 2. 2.
      2. 0. 2. 0. 0. 4. 0. 2. 0. 0. 0. 8. 2. 2. 0. 4. 0. 0. 0. 10. 2. 2.
      0. 0. 0. 2. 0. 4. 0. 0. 0. 0. 0. 0. 0. 2. 0. 4. 0. 0. 6. 10. 2.
      10. 14. 46. 0. 14. 2. 0. 0. 26. 0. 2. 0. 2. 0. 2. 2. 14. 8. 6. 2.
      2. 2. 2. 0. 6. 4. 2. 2. 2. 0. 0. 0. 12. 16. 140. 4. 40. 2. 6. 6.
      40. 2. 8. 0. 8. 2. 6. 4. 26. 4. 36. 6. 48. 4. 12. 2. 44. 6. 10. 4.
      40. 16. 18. 6. 168.</_>
    <_>
      72. 26. 14. 4. 18. 6. 10. 8. 8. 2. 2. 2. 4. 2. 10. 8. 10. 6. 0. 2.
      4. 2. 4. 0. 10. 2. 0. 2. 0. 4. 6. 0. 20. 2. 2. 2. 0. 0. 4. 2. 0.
      0. 0. 0. 0. 2. 0. 2. 8. 4. 0. 0. 8. 2. 2. 2. 4. 2. 0. 6. 6. 4. 6.
      6. 24. 4. 6. 2. 14. 0. 4. 4. 4. 0. 0. 2. 0. 0. 2. 0. 8. 0. 0. 2.
      4. 0. 0. 2. 2. 2. 0. 0. 2. 0. 0. 2. 14. 6. 2. 4. 4. 0. 0. 4. 2. 2.
      0. 0. 4. 0. 0. 6. 18. 0. 0. 2. 6. 0. 2. 4. 34. 0. 0. 6. 8. 2. 8.
      12. 16. 14. 4. 14. 6. 2. 0. 26. 2. 2. 0. 0. 0. 6. 2. 16. 4. 4. 0.
      0. 0. 0. 0. 8. 4. 0. 0. 0. 0. 6. 0. 8. 4. 2. 0. 4. 2. 0. 0. 2. 0.
      0. 0. 0. 2. 2. 0. 4. 2. 2. 0. 2. 0. 0. 0. 12. 8. 2. 0. 6. 4. 2. 6.
      16. 8. 26. 0. 28. 4. 2. 4. 16. 2. 0. 0. 4. 2. 6. 2. 12. 4. 12. 4.
      2. 0. 0. 0. 2. 0. 2. 0. 2. 0. 0. 4. 16. 22. 20. 2. 48. 4. 0. 2.
      28. 4. 2. 2. 2. 4. 2. 2. 26. 24. 30. 4. 16. 6. 4. 8. 30. 12. 16.
      4. 40. 8. 10. 6. 204.</_>
    <_>
      76. 20. 6. 6. 16. 2. 2. 6. 10. 4. 2. 0. 6. 4. 10. 4. 26. 16. 4. 4.
      0. 2. 2. 4. 2. 0. 2. 0. 12. 2. 20. 28. 18. 2. 2. 0. 16. 2. 2. 0.
      4. 0. 0. 0. 2. 2. 2. 0. 12. 2. 4. 0. 6. 0. 4. 2. 10. 4. 6. 2. 6.
      0. 12. 10. 20. 2. 6. 6. 0. 0. 4. 0. 6. 2. 0. 0. 2. 0. 2. 0. 4. 2.
      0. 0. 2. 0. 0. 0. 8. 0. 0. 0. 2. 0. 2. 4. 6. 2. 0. 2. 4. 0. 0. 2.
      2. 0. 0. 2. 2. 0. 4. 0. 8. 2. 4. 2. 2. 0. 4. 4. 58. 4. 8. 10. 6.
      2. 8. 20. 18. 14. 2. 6. 8. 2. 2. 2. 0. 0. 0. 0. 4. 2. 4. 6. 0. 2.
      0. 4. 0. 2. 0. 2. 0. 0. 0. 0. 4. 2. 0. 6. 2. 6. 2. 2. 4. 4. 4. 2.
      4. 0. 0. 0. 0. 0. 2. 2. 6. 0. 0. 6. 6. 6. 2. 0. 0. 2. 4. 4. 8. 6.
      0. 12. 10. 0. 4. 52. 2. 4. 0. 16. 2. 2. 0. 14. 2. 2. 0. 4. 0. 4.
      0. 2. 2. 2. 2. 4. 2. 0. 0. 12. 4. 0. 4. 10. 10. 10. 4. 14. 2. 0.
      0. 18. 2. 6. 4. 2. 2. 2. 14. 16. 4. 10. 0. 2. 4. 8. 2. 24. 8. 14.
      2. 26. 14. 40. 16. 266.</_>
    <_>
      54. 12. 4. 12. 12. 4. 8. 42. 8. 0. 4. 4. 14. 6. 8. 22. 16. 0. 2.
      2. 2. 2. 0. 0. 14. 2. 0. 2. 26. 0. 12. 8. 8. 2. 0. 0. 0. 0. 0. 2.
      0. 0. 0. 2. 2. 0. 4. 2. 16. 0. 0. 2. 0. 0. 6. 0. 28. 2. 0. 2. 48.
      6. 22. 14. 20. 4. 0. 0. 2. 2. 0. 2. 0. 0. 0. 0. 2. 0. 2. 2. 4. 2.
      0. 0. 0. 0. 0. 0. 0. 0. 0. 0. 0. 0. 2. 0. 18. 2. 2. 2. 0. 0. 2. 4.
      2. 0. 0. 0. 0. 0. 0. 4. 44. 0. 0. 2. 2. 0. 0. 0. 60. 2. 4. 0. 44.
      0. 16. 16. 6. 10. 0. 40. 2. 0. 0. 32. 0. 2. 0. 0. 4. 2. 6. 26. 0.
      0. 0. 0. 0. 0. 0. 2. 2. 4. 0. 0. 0. 2. 0. 6. 0. 2. 0. 2. 0. 0. 0.
      0. 0. 0. 0. 0. 0. 0. 0. 6. 4. 0. 0. 6. 0. 0. 0. 0. 0. 0. 0. 2. 2.
      0. 4. 14. 12. 24. 0. 40. 4. 0. 4. 54. 2. 4. 0. 6. 0. 4. 0. 18. 2.
      4. 0. 0. 0. 0. 0. 2. 4. 6. 0. 0. 4. 0. 2. 8. 24. 20. 0. 32. 2. 0.
      0. 20. 0. 0. 0. 6. 2. 2. 8. 20. 30. 18. 0. 26. 0. 0. 2. 14. 22.
      30. 8. 4. 24. 12. 16. 94.</_>
    <_>
      74. 8. 16. 2. 14. 4. 4. 20. 6. 6. 0. 0. 2. 6. 16. 6. 16. 6. 2. 2.
      6. 2. 0. 2. 6. 4. 4. 0. 6. 0. 12. 8. 14. 4. 0. 2. 4. 0. 2. 0. 6.
      2. 0. 0. 2. 0. 0. 0. 14. 2. 2. 0. 4. 2. 0. 2. 8. 4. 0. 4. 4. 2. 4.
      12. 28. 8. 8. 2. 22. 2. 0. 0. 10. 0. 0. 2. 0. 2. 0. 0. 8. 0. 2. 4.
      0. 0. 0. 2. 2. 2. 0. 0. 0. 2. 2. 6. 12. 6. 0. 0. 0. 0. 2. 2. 0. 2.
      0. 0. 0. 2. 0. 0. 16. 0. 0. 4. 6. 2. 2. 2. 24. 0. 4. 8. 14. 2. 10.
      8. 16. 4. 2. 10. 6. 4. 0. 34. 2. 0. 0. 2. 2. 2. 2. 14. 4. 2. 0. 0.
      0. 2. 2. 2. 0. 0. 0. 2. 2. 4. 0. 4. 8. 2. 2. 6. 2. 2. 0. 2. 0. 2.
      0. 4. 0. 0. 2. 2. 2. 4. 0. 0. 0. 2. 0. 4. 0. 0. 2. 8. 6. 2. 2. 16.
      12. 28. 2. 40. 8. 4. 2. 12. 2. 0. 0. 6. 0. 0. 2. 8. 0. 2. 0. 2. 2.
      4. 0. 2. 2. 6. 2. 4. 0. 6. 2. 14. 8. 34. 2. 34. 4. 4. 2. 24. 2. 2.
      0. 8. 2. 0. 4. 36. 28. 22. 2. 24. 2. 2. 2. 48. 16. 16. 4. 38. 10.
      22. 18. 166.</_>
    <_>
      72. 2. 0. 6. 24. 2. 0. 8. 14. 0. 0. 0. 6. 4. 8. 28. 10. 2. 6. 0.
      2. 0. 2. 4. 12. 2. 2. 0. 18. 0. 8. 6. 14. 6. 4. 0. 2. 0. 0. 4. 2.
      0. 0. 0. 4. 0. 2. 6. 2. 0. 2. 2. 10. 0. 0. 6. 28. 2. 0. 0. 32. 4.
      10. 12. 22. 0. 2. 6. 14. 0. 2. 0. 4. 0. 0. 0. 0. 0. 4. 0. 4. 0. 0.
      4. 2. 0. 0. 0. 4. 0. 0. 0. 4. 0. 0. 4. 4. 6. 2. 4. 2. 0. 0. 0. 0.
      0. 0. 0. 10. 0. 0. 0. 28. 0. 4. 0. 2. 2. 0. 6. 28. 2. 4. 2. 32. 8.
      18. 30. 16. 10. 0. 20. 2. 2. 0. 22. 4. 8. 0. 0. 0. 2. 0. 14. 4. 0.
      0. 0. 0. 0. 0. 0. 4. 2. 2. 0. 0. 2. 0. 6. 0. 0. 0. 2. 2. 0. 0. 0.
      2. 2. 0. 0. 0. 0. 0. 4. 2. 0. 4. 0. 0. 2. 0. 0. 4. 2. 0. 8. 4. 8.
      4. 26. 8. 6. 2. 16. 8. 2. 0. 20. 0. 0. 0. 2. 0. 4. 0. 2. 10. 2. 0.
      2. 0. 2. 0. 4. 10. 0. 0. 4. 0. 2. 0. 22. 4. 10. 2. 14. 0. 0. 0.
      10. 0. 2. 0. 2. 0. 0. 6. 26. 12. 8. 6. 8. 2. 2. 4. 16. 18. 6. 8.
      24. 12. 20. 20. 330.</_>
    <_>
      56. 24. 16. 30. 2. 0. 10. 26. 6. 4. 4. 6. 6. 2. 24. 38. 26. 10. 6.
      0. 0. 0. 6. 4. 6. 2. 2. 0. 18. 0. 32. 14. 8. 0. 0. 4. 0. 0. 0. 6.
      0. 0. 2. 0. 0. 0. 2. 16. 10. 0. 0. 0. 2. 0. 6. 4. 2. 0. 2. 0. 14.
      2. 24. 6. 8. 4. 0. 2. 0. 0. 0. 0. 0. 0. 0. 0. 0. 2. 4. 2. 0. 0. 2.
      0. 2. 2. 0. 0. 2. 0. 0. 0. 2. 0. 2. 0. 4. 2. 0. 8. 0. 0. 2. 2. 0.
      0. 0. 0. 4. 0. 0. 8. 14. 8. 4. 2. 0. 0. 4. 12. 6. 0. 2. 0. 2. 4.
      8. 12. 12. 22. 6. 18. 0. 2. 4. 32. 0. 4. 0. 4. 0. 6. 6. 30. 8. 2.
      0. 2. 2. 0. 0. 2. 0. 2. 0. 0. 8. 0. 4. 16. 4. 2. 2. 0. 0. 0. 0. 4.
      0. 2. 0. 0. 2. 0. 2. 14. 0. 2. 0. 4. 0. 0. 6. 0. 2. 0. 2. 0. 4. 2.
      10. 8. 8. 18. 0. 34. 0. 4. 0. 18. 2. 2. 0. 6. 0. 0. 8. 14. 12. 0.
      0. 2. 2. 0. 0. 8. 2. 2. 0. 0. 0. 16. 4. 28. 14. 34. 4. 18. 2. 0.
      2. 16. 0. 4. 2. 6. 4. 2. 2. 18. 30. 18. 10. 14. 0. 8. 4. 24. 28.
      12. 12. 12. 10. 18. 18. 136.</_>
    <_>
      66. 18. 10. 2. 14. 4. 6. 10. 12. 2. 4. 0. 0. 2. 8. 8. 16. 6. 6. 0.
      6. 2. 0. 0. 4. 2. 2. 0. 8. 2. 8. 6. 14. 4. 0. 0. 2. 2. 6. 0. 2. 0.
      0. 0. 2. 0. 0. 2. 8. 2. 0. 0. 6. 0. 2. 0. 10. 0. 2. 4. 10. 2. 4.
      10. 32. 4. 4. 6. 20. 0. 0. 4. 8. 0. 0. 0. 0. 0. 2. 2. 2. 0. 0. 2.
      2. 0. 0. 4. 4. 0. 0. 0. 4. 2. 0. 8. 4. 8. 8. 2. 0. 0. 6. 0. 2. 0.
      0. 0. 2. 0. 0. 2. 22. 2. 2. 4. 2. 2. 2. 2. 22. 2. 4. 6. 6. 2. 6.
      10. 14. 12. 2. 14. 6. 0. 0. 18. 0. 4. 0. 4. 0. 6. 2. 8. 6. 0. 0.
      4. 0. 0. 0. 2. 0. 2. 0. 0. 0. 4. 10. 4. 6. 0. 0. 6. 2. 0. 2. 4. 0.
      2. 0. 0. 0. 2. 0. 10. 2. 2. 2. 2. 4. 2. 0. 4. 0. 4. 2. 10. 0. 6.
      4. 24. 10. 14. 2. 30. 2. 4. 2. 30. 2. 0. 0. 0. 0. 0. 0. 10. 6. 10.
      0. 4. 0. 2. 0. 6. 0. 2. 2. 2. 4. 2. 0. 20. 24. 40. 0. 26. 0. 2. 2.
      16. 6. 4. 0. 2. 6. 2. 4. 32. 36. 24. 6. 14. 2. 2. 4. 44. 26. 12.
      2. 38. 4. 20. 14. 196.</_>
    <_>
      58. 26. 8. 8. 34. 0. 16. 18. 10. 2. 0. 0. 12. 4. 14. 26. 32. 2. 2.
      0. 2. 2. 2. 4. 12. 6. 2. 0. 16. 4. 30. 10. 6. 0. 2. 2. 0. 0. 2.
      10. 0. 0. 0. 0. 2. 0. 0. 2. 14. 2. 0. 2. 4. 0. 4. 2. 8. 2. 6. 2.
      14. 4. 8. 14. 30. 2. 0. 4. 4. 0. 0. 0. 2. 0. 0. 2. 4. 2. 0. 6. 6.
      0. 0. 0. 0. 0. 0. 0. 2. 2. 0. 0. 6. 0. 0. 0. 18. 6. 6. 0. 0. 2. 2.
      2. 2. 0. 0. 0. 0. 2. 0. 6. 12. 4. 2. 6. 2. 0. 4. 0. 30. 2. 10. 0.
      18. 4. 16. 12. 8. 16. 0. 6. 4. 8. 0. 24. 0. 4. 0. 0. 2. 8. 6. 16.
      2. 2. 0. 0. 0. 0. 0. 2. 0. 6. 0. 2. 2. 0. 8. 16. 2. 0. 0. 4. 0. 0.
      0. 6. 0. 0. 0. 0. 0. 0. 0. 6. 0. 4. 0. 0. 0. 0. 0. 6. 2. 2. 0. 4.
      6. 0. 4. 32. 10. 12. 0. 16. 0. 4. 2. 12. 6. 4. 0. 10. 4. 4. 0. 6.
      4. 0. 0. 0. 2. 2. 0. 0. 6. 4. 0. 8. 0. 0. 2. 16. 16. 32. 2. 8. 0.
      0. 0. 10. 0. 2. 0. 4. 0. 4. 2. 30. 38. 34. 6. 24. 4. 0. 6. 20. 26.
      8. 6. 24. 14. 8. 18. 154.</_>
    <_>
      82. 12. 4. 6. 30. 8. 14. 10. 10. 2. 0. 2. 8. 0. 8. 26. 26. 12. 2.
      2. 2. 2. 0. 0. 10. 8. 0. 0. 8. 2. 26. 12. 12. 6. 8. 2. 4. 0. 4. 4.
      2. 0. 0. 0. 2. 0. 2. 4. 16. 0. 4. 0. 4. 0. 4. 2. 20. 0. 0. 2. 40.
      4. 8. 10. 42. 6. 2. 8. 18. 0. 4. 2. 0. 0. 0. 2. 2. 0. 0. 0. 6. 0.
      2. 0. 0. 0. 0. 0. 6. 0. 0. 0. 0. 2. 0. 2. 8. 10. 2. 4. 2. 0. 0. 0.
      4. 0. 0. 0. 2. 4. 2. 2. 20. 0. 2. 4. 4. 0. 0. 2. 38. 0. 4. 2. 18.
      0. 6. 10. 14. 14. 0. 18. 6. 4. 2. 28. 4. 0. 0. 0. 2. 2. 0. 24. 2.
      0. 2. 6. 0. 0. 0. 0. 0. 2. 0. 6. 4. 0. 0. 4. 0. 0. 0. 2. 0. 0. 0.
      2. 0. 0. 0. 0. 0. 0. 0. 2. 2. 0. 0. 4. 0. 0. 0. 4. 2. 2. 0. 6. 8.
      6. 10. 38. 16. 16. 2. 36. 0. 0. 2. 24. 0. 4. 0. 8. 2. 2. 0. 16. 4.
      2. 0. 2. 0. 2. 0. 4. 4. 0. 0. 4. 4. 0. 4. 16. 12. 22. 2. 28. 0. 6.
      2. 2. 0. 8. 0. 2. 2. 2. 4. 22. 36. 8. 6. 8. 2. 2. 2. 18. 6. 14. 6.
      26. 12. 18. 20. 112.</_>
    <_>
      60. 42. 12. 6. 4. 2. 6. 10. 6. 2. 2. 2. 0. 4. 20. 32. 86. 48. 8.
      4. 2. 0. 0. 2. 12. 2. 0. 0. 14. 2. 66. 46. 4. 4. 0. 0. 0. 0. 2. 0.
      2. 0. 0. 0. 0. 0. 2. 0. 4. 2. 0. 0. 2. 0. 4. 0. 8. 4. 0. 0. 20. 2.
      20. 14. 10. 2. 2. 2. 8. 0. 0. 0. 0. 4. 0. 0. 0. 0. 2. 0. 0. 2. 0.
      0. 0. 2. 2. 0. 4. 0. 0. 0. 2. 2. 2. 2. 2. 2. 2. 4. 0. 0. 0. 2. 0.
      0. 0. 2. 2. 0. 2. 6. 18. 2. 0. 2. 2. 0. 0. 0. 24. 0. 2. 2. 12. 0.
      18. 20. 10. 4. 0. 12. 2. 4. 0. 12. 2. 0. 0. 0. 0. 6. 6. 20. 0. 0.
      0. 4. 0. 0. 2. 0. 2. 0. 0. 0. 2. 0. 4. 14. 2. 4. 0. 0. 0. 0. 0. 4.
      0. 0. 0. 0. 0. 0. 0. 2. 0. 2. 0. 2. 2. 0. 0. 0. 0. 0. 0. 4. 0. 0.
      2. 16. 2. 10. 0. 22. 2. 0. 2. 26. 2. 2. 0. 4. 0. 0. 0. 10. 4. 2.
      0. 2. 0. 0. 0. 2. 0. 0. 0. 2. 2. 0. 2. 14. 28. 30. 2. 14. 2. 0. 2.
      10. 4. 4. 0. 4. 0. 6. 6. 40. 34. 38. 6. 12. 0. 0. 8. 16. 18. 2. 6.
      18. 12. 18. 62. 138.</_>
    <_>
      76. 24. 12. 10. 16. 4. 6. 26. 6. 6. 0. 2. 8. 4. 4. 20. 34. 8. 6.
      0. 4. 2. 8. 2. 2. 0. 0. 0. 8. 0. 6. 0. 4. 14. 2. 2. 4. 0. 0. 2. 4.
      0. 0. 0. 4. 0. 2. 6. 6. 0. 2. 0. 6. 0. 4. 0. 20. 0. 2. 2. 24. 0.
      8. 12. 34. 2. 2. 8. 6. 0. 2. 2. 2. 0. 0. 0. 4. 0. 4. 0. 4. 0. 0.
      0. 0. 0. 0. 0. 4. 0. 0. 0. 2. 0. 6. 0. 4. 2. 2. 2. 0. 0. 0. 2. 4.
      2. 0. 0. 0. 2. 0. 8. 24. 4. 2. 0. 0. 0. 2. 2. 18. 6. 2. 0. 14. 6.
      8. 20. 16. 10. 0. 12. 4. 4. 2. 36. 2. 4. 0. 0. 0. 4. 4. 10. 4. 2.
      0. 0. 0. 0. 0. 4. 0. 0. 0. 4. 2. 4. 4. 6. 0. 0. 0. 2. 0. 0. 0. 4.
      0. 0. 0. 0. 0. 0. 4. 4. 2. 0. 2. 0. 0. 0. 0. 2. 2. 2. 2. 4. 0. 0.
      4. 26. 16. 12. 0. 28. 4. 0. 0. 16. 0. 0. 0. 0. 0. 2. 0. 10. 12. 6.
      2. 0. 0. 0. 0. 6. 2. 0. 0. 2. 2. 0. 6. 22. 22. 26. 0. 16. 2. 4. 0.
      10. 0. 2. 0. 10. 2. 4. 2. 20. 40. 32. 6. 8. 2. 6. 8. 24. 22. 18.
      4. 22. 14. 32. 42. 170.</_>
    <_>
      104. 10. 8. 8. 26. 4. 6. 8. 8. 2. 0. 2. 6. 2. 6. 8. 10. 2. 2. 2.
      0. 0. 2. 0. 12. 0. 4. 0. 12. 2. 24. 32. 6. 2. 0. 2. 4. 0. 2. 6. 4.
      2. 2. 0. 2. 0. 0. 0. 10. 6. 2. 2. 6. 0. 2. 0. 6. 2. 4. 6. 20. 2.
      8. 14. 34. 8. 12. 4. 2. 0. 0. 0. 6. 2. 0. 0. 6. 4. 2. 4. 8. 4. 0.
      2. 4. 0. 0. 2. 4. 6. 4. 0. 2. 0. 4. 8. 0. 0. 2. 2. 2. 0. 0. 0. 0.
      2. 0. 0. 0. 0. 2. 4. 8. 6. 6. 2. 0. 0. 2. 4. 48. 0. 6. 12. 6. 8.
      2. 32. 18. 14. 0. 6. 4. 8. 4. 24. 4. 0. 0. 0. 2. 0. 0. 14. 4. 4.
      2. 0. 0. 4. 0. 2. 4. 2. 2. 0. 4. 2. 2. 0. 6. 8. 0. 4. 0. 0. 0. 10.
      2. 0. 0. 0. 2. 0. 0. 6. 4. 6. 4. 0. 0. 0. 0. 2. 2. 4. 0. 4. 8. 6.
      2. 18. 10. 4. 0. 42. 6. 0. 0. 4. 2. 0. 0. 10. 0. 2. 2. 10. 2. 4.
      0. 0. 2. 0. 0. 2. 0. 6. 0. 6. 0. 4. 2. 6. 14. 10. 4. 6. 2. 2. 2.
      20. 2. 2. 0. 2. 2. 0. 12. 12. 10. 20. 6. 12. 2. 8. 0. 24. 6. 10.
      16. 24. 20. 28. 26. 188.</_>
    <_>
      66. 22. 24. 4. 24. 2. 4. 22. 6. 10. 0. 0. 12. 6. 20. 42. 26. 2. 8.
      2. 2. 2. 10. 2. 10. 2. 2. 0. 6. 4. 24. 28. 2. 2. 0. 0. 6. 0. 2. 2.
      0. 0. 0. 0. 0. 0. 2. 4. 2. 0. 0. 2. 4. 0. 0. 2. 6. 2. 0. 0. 10. 0.
      16. 6. 38. 6. 2. 10. 12. 0. 4. 2. 0. 2. 0. 0. 2. 0. 0. 2. 4. 0. 0.
      2. 0. 0. 0. 0. 6. 0. 0. 0. 4. 0. 8. 2. 4. 4. 0. 0. 0. 0. 0. 2. 0.
      0. 0. 2. 0. 0. 0. 8. 6. 0. 6. 4. 0. 0. 0. 8. 18. 2. 4. 4. 4. 0. 6.
      16. 12. 12. 2. 16. 4. 2. 0. 30. 4. 0. 0. 0. 4. 4. 0. 18. 4. 2. 0.
      0. 0. 2. 0. 4. 0. 0. 0. 2. 0. 2. 4. 22. 2. 0. 0. 2. 0. 0. 0. 8. 0.
      0. 0. 0. 0. 0. 2. 2. 0. 2. 0. 4. 0. 0. 0. 8. 0. 0. 2. 6. 4. 4. 2.
      22. 2. 18. 0. 26. 2. 2. 2. 16. 2. 2. 0. 4. 0. 2. 0. 18. 8. 4. 0.
      2. 0. 0. 2. 2. 2. 0. 2. 4. 4. 0. 2. 28. 12. 38. 0. 10. 0. 4. 2.
      26. 2. 4. 0. 2. 6. 0. 4. 32. 30. 22. 8. 22. 0. 4. 8. 10. 6. 2. 6.
      28. 14. 12. 14. 196.</_>
    <_>
      36. 38. 8. 8. 10. 2. 2. 6. 4. 2. 0. 0. 4. 2. 16. 32. 54. 30. 4. 4.
      2. 0. 4. 4. 16. 8. 0. 2. 32. 6. 70. 28. 8. 2. 2. 0. 0. 0. 0. 0. 0.
      0. 0. 0. 0. 0. 2. 4. 14. 2. 4. 0. 0. 0. 4. 2. 6. 0. 2. 0. 22. 4.
      20. 8. 16. 2. 0. 0. 0. 0. 4. 0. 2. 0. 0. 2. 0. 0. 0. 2. 0. 2. 0.
      0. 0. 0. 0. 0. 2. 0. 0. 0. 2. 0. 4. 2. 8. 4. 0. 2. 0. 0. 0. 0. 0.
      0. 0. 0. 4. 0. 2. 0. 20. 0. 2. 0. 4. 0. 0. 2. 30. 0. 2. 2. 8. 2.
      20. 20. 6. 6. 0. 4. 0. 0. 0. 6. 0. 2. 0. 0. 0. 4. 0. 4. 0. 0. 0.
      0. 0. 0. 0. 0. 0. 0. 0. 0. 0. 0. 0. 12. 0. 2. 0. 0. 2. 2. 0. 6. 0.
      0. 0. 0. 0. 0. 0. 2. 2. 2. 0. 0. 0. 0. 0. 0. 0. 2. 0. 0. 0. 0. 0.
      18. 8. 22. 0. 28. 2. 0. 2. 6. 0. 2. 0. 0. 0. 0. 0. 8. 0. 2. 0. 0.
      0. 0. 2. 2. 2. 0. 0. 0. 0. 4. 2. 18. 48. 80. 0. 16. 2. 2. 4. 10.
      0. 4. 0. 2. 2. 4. 10. 18. 56. 74. 2. 22. 0. 4. 0. 10. 18. 16. 4.
      26. 24. 22. 34. 150.</_>
    <_>
      130. 34. 22. 14. 28. 6. 10. 4. 4. 6. 0. 2. 6. 2. 10. 6. 16. 10. 2.
      0. 2. 0. 2. 0. 6. 2. 0. 0. 14. 0. 8. 6. 12. 2. 2. 2. 0. 2. 0. 2.
      0. 2. 0. 0. 4. 2. 0. 0. 20. 0. 0. 2. 6. 2. 4. 2. 6. 2. 4. 2. 26.
      6. 10. 14. 14. 8. 14. 6. 6. 0. 2. 6. 12. 0. 0. 0. 2. 0. 4. 10. 2.
      2. 0. 0. 2. 0. 0. 0. 6. 0. 8. 2. 4. 0. 0. 10. 16. 2. 2. 6. 4. 0.
      2. 0. 4. 0. 0. 0. 2. 0. 6. 6. 10. 4. 2. 2. 2. 0. 0. 0. 12. 0. 4.
      10. 4. 0. 10. 18. 8. 10. 2. 6. 20. 10. 4. 36. 4. 0. 0. 4. 2. 2. 0.
      10. 6. 0. 0. 0. 0. 0. 0. 4. 0. 2. 4. 0. 4. 2. 2. 16. 2. 0. 8. 0.
      0. 2. 2. 10. 0. 0. 0. 2. 0. 0. 0. 4. 6. 6. 2. 4. 2. 0. 4. 4. 4. 0.
      0. 4. 14. 12. 10. 40. 8. 10. 2. 6. 2. 0. 0. 10. 8. 2. 0. 8. 4. 0.
      0. 4. 4. 2. 0. 6. 2. 4. 0. 2. 4. 0. 0. 4. 4. 4. 0. 24. 6. 14. 2.
      14. 10. 4. 2. 4. 0. 0. 2. 10. 2. 4. 8. 36. 16. 10. 4. 6. 4. 4. 0.
      14. 4. 8. 2. 26. 8. 22. 12. 150.</_>
    <_>
      56. 22. 14. 0. 16. 2. 2. 10. 16. 8. 8. 4. 2. 12. 10. 18. 20. 2. 4.
      0. 4. 0. 12. 0. 6. 2. 2. 0. 10. 2. 28. 26. 4. 6. 4. 4. 8. 0. 2. 8.
      0. 0. 2. 0. 0. 0. 4. 6. 2. 0. 0. 0. 6. 0. 6. 0. 6. 2. 0. 2. 28. 8.
      12. 16. 18. 0. 2. 12. 10. 0. 4. 6. 2. 0. 0. 0. 8. 0. 6. 6. 4. 2.
      0. 0. 2. 0. 2. 8. 6. 2. 0. 2. 4. 0. 0. 6. 10. 4. 2. 6. 2. 0. 2. 0.
      0. 2. 0. 0. 0. 0. 2. 2. 10. 0. 4. 2. 0. 2. 8. 2. 30. 2. 4. 2. 28.
      4. 6. 18. 12. 6. 2. 12. 10. 8. 2. 16. 2. 2. 4. 6. 0. 2. 0. 14. 8.
      2. 2. 2. 2. 0. 2. 0. 4. 2. 2. 0. 6. 2. 0. 20. 2. 0. 0. 0. 0. 0. 0.
      6. 2. 0. 0. 0. 0. 0. 2. 2. 4. 0. 4. 2. 0. 0. 0. 12. 6. 0. 0. 6. 0.
      2. 4. 32. 12. 14. 0. 16. 6. 4. 0. 28. 0. 0. 2. 0. 0. 0. 0. 10. 6.
      4. 2. 2. 0. 2. 0. 2. 2. 0. 4. 4. 2. 4. 2. 28. 12. 26. 2. 12. 0. 4.
      0. 6. 4. 0. 0. 2. 0. 6. 6. 30. 12. 16. 4. 14. 4. 6. 2. 20. 12. 16.
      8. 16. 6. 18. 36. 154.</_>
    <_>
      84. 32. 6. 12. 38. 2. 22. 12. 14. 0. 0. 0. 12. 2. 2. 24. 18. 8. 4.
      4. 4. 0. 4. 0. 12. 2. 0. 0. 4. 2. 16. 18. 8. 0. 0. 0. 14. 0. 0. 2.
      0. 0. 0. 2. 2. 0. 4. 0. 10. 2. 0. 0. 10. 0. 2. 0. 16. 0. 0. 0. 42.
      2. 8. 4. 36. 4. 14. 10. 14. 0. 2. 2. 8. 0. 0. 2. 0. 0. 4. 6. 8. 2.
      0. 0. 0. 0. 0. 0. 8. 0. 2. 0. 6. 0. 0. 0. 10. 0. 4. 2. 2. 0. 2. 2.
      2. 0. 0. 0. 0. 0. 0. 0. 10. 0. 0. 2. 2. 0. 2. 2. 22. 0. 12. 8. 24.
      0. 8. 16. 16. 6. 0. 20. 10. 18. 0. 42. 0. 2. 2. 0. 0. 0. 0. 16. 2.
      0. 0. 2. 0. 2. 2. 2. 0. 0. 0. 4. 2. 4. 2. 12. 2. 4. 2. 2. 0. 0. 2.
      12. 0. 2. 0. 0. 0. 0. 0. 2. 0. 2. 0. 2. 0. 0. 0. 6. 0. 2. 0. 4. 4.
      0. 4. 56. 10. 10. 0. 32. 4. 0. 0. 26. 2. 4. 0. 10. 2. 0. 0. 24. 2.
      0. 0. 2. 0. 0. 0. 6. 0. 6. 0. 6. 0. 0. 0. 18. 10. 12. 0. 12. 2. 0.
      4. 24. 0. 2. 0. 6. 0. 0. 4. 26. 10. 18. 2. 14. 2. 4. 0. 16. 14.
      10. 0. 36. 14. 12. 24. 106.</_>
    <_>
      60. 18. 8. 4. 22. 10. 6. 8. 8. 0. 0. 0. 6. 10. 14. 10. 22. 10. 4.
      2. 2. 0. 0. 2. 16. 2. 0. 0. 24. 4. 32. 22. 14. 0. 2. 0. 4. 0. 2.
      2. 2. 0. 0. 0. 0. 0. 2. 0. 14. 4. 2. 0. 8. 0. 2. 0. 20. 2. 4. 4.
      28. 0. 10. 8. 30. 10. 4. 8. 20. 0. 4. 2. 2. 0. 0. 2. 4. 0. 2. 2.
      6. 2. 0. 0. 0. 0. 0. 0. 2. 0. 0. 0. 0. 0. 0. 0. 10. 2. 4. 2. 0. 0.
      4. 0. 0. 0. 0. 0. 4. 0. 0. 0. 34. 0. 2. 0. 0. 0. 0. 0. 62. 0. 6.
      4. 32. 0. 14. 16. 16. 2. 2. 12. 2. 0. 0. 18. 6. 0. 0. 4. 0. 2. 2.
      16. 0. 0. 0. 2. 0. 2. 0. 4. 2. 0. 0. 2. 2. 0. 2. 6. 4. 2. 0. 6. 0.
      0. 2. 2. 0. 0. 0. 0. 0. 0. 2. 4. 2. 4. 0. 2. 0. 0. 0. 4. 2. 0. 2.
      8. 2. 4. 4. 38. 8. 18. 0. 32. 6. 6. 0. 10. 0. 0. 0. 4. 0. 0. 0.
      16. 8. 2. 0. 0. 0. 2. 0. 0. 2. 0. 0. 2. 0. 2. 0. 14. 30. 30. 2.
      28. 0. 2. 2. 26. 0. 0. 0. 4. 4. 4. 2. 16. 34. 22. 2. 20. 0. 4. 4.
      12. 20. 18. 4. 34. 6. 10. 28. 114.</_>
    <_>
      62. 10. 12. 4. 18. 2. 6. 6. 12. 8. 0. 0. 2. 2. 16. 16. 14. 0. 0.
      2. 2. 0. 6. 2. 2. 0. 2. 2. 8. 2. 10. 56. 18. 6. 4. 2. 6. 0. 0. 4.
      0. 0. 0. 0. 0. 0. 0. 0. 4. 0. 2. 0. 4. 2. 4. 2. 10. 0. 0. 4. 20.
      4. 12. 10. 26. 2. 8. 4. 2. 0. 2. 0. 2. 0. 0. 0. 4. 2. 0. 2. 8. 0.
      4. 0. 2. 0. 0. 0. 4. 0. 2. 0. 2. 0. 0. 2. 18. 4. 0. 4. 2. 0. 2. 0.
      4. 0. 0. 0. 2. 0. 2. 4. 12. 2. 0. 2. 4. 0. 0. 0. 22. 10. 4. 6. 16.
      6. 24. 22. 6. 4. 2. 18. 8. 8. 4. 12. 2. 2. 0. 0. 0. 2. 0. 6. 2. 2.
      0. 2. 2. 0. 0. 0. 0. 4. 0. 2. 0. 0. 0. 10. 0. 2. 0. 2. 2. 0. 2. 2.
      0. 0. 0. 2. 2. 0. 0. 4. 2. 2. 0. 4. 2. 0. 0. 2. 4. 2. 4. 6. 2. 4.
      0. 14. 4. 24. 12. 36. 2. 4. 0. 16. 0. 0. 0. 2. 0. 0. 0. 14. 6. 2.
      0. 0. 4. 4. 0. 0. 0. 0. 0. 4. 0. 2. 2. 10. 20. 38. 0. 26. 2. 6. 0.
      14. 2. 6. 2. 8. 4. 6. 2. 16. 50. 44. 8. 12. 2. 8. 4. 20. 16. 26.
      2. 42. 14. 40. 18. 146.</_>
    <_>
      74. 30. 12. 8. 16. 6. 4. 24. 14. 6. 0. 2. 10. 6. 8. 46. 24. 2. 2.
      0. 0. 0. 4. 0. 14. 0. 4. 2. 20. 2. 14. 12. 16. 6. 0. 4. 4. 0. 2.
      2. 0. 0. 0. 0. 0. 0. 4. 6. 4. 0. 0. 0. 0. 0. 2. 0. 8. 0. 0. 4. 18.
      6. 28. 12. 20. 6. 4. 0. 6. 0. 0. 0. 4. 0. 0. 0. 6. 0. 0. 6. 8. 0.
      2. 0. 0. 0. 2. 4. 4. 2. 0. 0. 0. 0. 0. 2. 6. 10. 4. 8. 4. 0. 4. 0.
      0. 0. 2. 0. 2. 0. 2. 0. 18. 2. 0. 4. 0. 0. 0. 0. 24. 2. 0. 4. 12.
      4. 20. 16. 26. 14. 4. 10. 2. 2. 0. 22. 2. 0. 0. 0. 4. 2. 4. 18. 6.
      2. 2. 2. 0. 0. 2. 2. 0. 0. 0. 2. 4. 0. 0. 8. 0. 6. 2. 2. 2. 0. 0.
      10. 2. 0. 0. 0. 0. 2. 0. 2. 2. 0. 0. 0. 0. 0. 0. 2. 4. 2. 0. 8. 2.
      0. 4. 24. 6. 8. 0. 32. 2. 8. 2. 12. 0. 2. 2. 0. 0. 4. 2. 10. 16.
      2. 0. 6. 0. 0. 0. 4. 4. 2. 0. 6. 0. 0. 0. 10. 20. 22. 0. 16. 2. 2.
      2. 10. 6. 2. 0. 6. 2. 2. 4. 16. 82. 26. 8. 14. 2. 0. 8. 22. 24.
      10. 10. 24. 12. 22. 26. 94.</_>
    <_>
      106. 10. 18. 6. 6. 10. 2. 6. 14. 0. 0. 2. 2. 0. 4. 0. 12. 2. 4. 0.
      6. 2. 2. 4. 4. 2. 2. 2. 4. 2. 2. 2. 14. 14. 2. 4. 2. 0. 4. 2. 2.
      2. 2. 2. 0. 0. 6. 4. 4. 2. 2. 6. 4. 0. 4. 2. 8. 2. 0. 0. 4. 2. 10.
      2. 12. 8. 4. 2. 2. 0. 2. 4. 0. 2. 0. 0. 2. 4. 0. 2. 8. 2. 2. 0. 0.
      0. 0. 2. 2. 0. 0. 2. 4. 8. 0. 2. 8. 8. 2. 10. 0. 4. 0. 2. 2. 0. 6.
      2. 0. 4. 4. 2. 10. 4. 0. 2. 6. 4. 2. 20. 6. 2. 2. 0. 4. 2. 6. 14.
      16. 16. 6. 6. 4. 2. 4. 8. 4. 0. 6. 6. 4. 4. 0. 20. 6. 6. 4. 0. 6.
      2. 0. 2. 0. 2. 0. 2. 2. 2. 4. 8. 6. 8. 6. 2. 4. 0. 4. 6. 6. 2. 2.
      0. 2. 4. 4. 6. 4. 2. 4. 0. 2. 0. 4. 4. 6. 0. 0. 4. 0. 6. 2. 24.
      14. 26. 4. 20. 0. 0. 0. 18. 4. 8. 0. 6. 0. 6. 2. 12. 4. 4. 2. 4.
      6. 0. 4. 10. 0. 8. 0. 6. 6. 6. 0. 26. 8. 22. 4. 32. 2. 4. 4. 30.
      6. 4. 2. 8. 2. 6. 2. 20. 14. 4. 8. 14. 2. 8. 4. 38. 16. 4. 4. 30.
      6. 36. 12. 166.</_>
    <_>
      44. 18. 8. 8. 4. 2. 10. 14. 12. 0. 0. 0. 6. 2. 20. 28. 20. 10. 4.
      2. 0. 0. 2. 6. 14. 2. 2. 0. 14. 4. 38. 30. 6. 4. 0. 0. 2. 0. 2. 0.
      6. 2. 0. 0. 0. 0. 0. 4. 10. 2. 2. 0. 2. 0. 0. 2. 22. 2. 0. 2. 16.
      0. 4. 10. 8. 0. 2. 0. 8. 0. 0. 8. 2. 0. 0. 0. 0. 0. 0. 2. 0. 0. 0.
      0. 0. 2. 0. 2. 0. 0. 0. 0. 2. 0. 0. 0. 4. 2. 0. 4. 2. 2. 0. 2. 2.
      0. 0. 0. 0. 0. 4. 0. 18. 0. 2. 0. 2. 0. 2. 0. 42. 8. 2. 0. 56. 8.
      26. 16. 6. 14. 4. 20. 0. 0. 0. 14. 2. 0. 0. 0. 0. 0. 0. 34. 4. 0.
      0. 0. 0. 0. 0. 2. 0. 0. 0. 0. 4. 0. 0. 10. 0. 2. 0. 2. 0. 0. 0. 0.
      0. 0. 0. 2. 0. 0. 0. 0. 0. 0. 0. 0. 0. 0. 0. 2. 4. 0. 0. 8. 4. 0.
      0. 30. 2. 14. 2. 24. 4. 0. 0. 46. 0. 2. 0. 2. 0. 0. 4. 20. 4. 0.
      0. 2. 0. 0. 0. 6. 0. 0. 0. 0. 0. 4. 2. 22. 10. 16. 0. 10. 0. 0. 2.
      20. 0. 0. 0. 4. 2. 2. 8. 28. 28. 8. 0. 12. 0. 2. 6. 26. 6. 14. 4.
      18. 18. 24. 32. 276.</_>
    <_>
      86. 16. 12. 8. 26. 2. 6. 8. 14. 4. 2. 0. 12. 4. 6. 12. 10. 2. 4.
      6. 6. 2. 2. 2. 10. 6. 0. 4. 8. 4. 4. 12. 16. 0. 0. 2. 12. 2. 2. 0.
      2. 0. 0. 0. 0. 2. 2. 0. 24. 2. 2. 2. 4. 0. 4. 0. 20. 0. 4. 0. 30.
      0. 10. 8. 26. 6. 10. 12. 2. 0. 0. 0. 2. 0. 0. 2. 2. 2. 2. 2. 2. 0.
      0. 0. 0. 0. 0. 2. 8. 0. 0. 0. 4. 0. 4. 2. 12. 0. 2. 0. 4. 0. 0. 2.
      6. 2. 0. 0. 8. 0. 0. 4. 22. 4. 2. 4. 4. 0. 2. 0. 42. 0. 6. 8. 14.
      4. 10. 16. 14. 10. 0. 10. 10. 8. 6. 30. 0. 6. 2. 2. 4. 0. 0. 10.
      6. 2. 0. 4. 0. 0. 2. 2. 2. 2. 0. 0. 0. 2. 2. 4. 0. 10. 0. 0. 0. 0.
      2. 6. 2. 2. 0. 2. 0. 2. 0. 2. 2. 0. 2. 10. 4. 0. 2. 6. 4. 2. 2. 4.
      4. 0. 0. 20. 14. 16. 2. 34. 2. 0. 0. 10. 0. 4. 2. 4. 0. 0. 2. 2.
      6. 8. 0. 2. 0. 0. 0. 2. 2. 10. 2. 2. 6. 4. 0. 18. 6. 14. 0. 4. 2.
      4. 0. 8. 2. 0. 2. 4. 2. 2. 2. 20. 16. 32. 0. 14. 0. 6. 4. 26. 12.
      14. 6. 24. 10. 28. 20. 182.</_>
    <_>
      70. 60. 10. 20. 10. 6. 24. 32. 8. 6. 2. 6. 6. 0. 14. 14. 26. 8. 0.
      2. 2. 2. 8. 2. 12. 2. 2. 4. 26. 0. 36. 26. 20. 6. 2. 0. 0. 0. 2.
      2. 0. 0. 0. 0. 2. 0. 0. 0. 18. 2. 2. 2. 10. 0. 4. 2. 4. 0. 4. 0.
      40. 2. 30. 8. 6. 6. 2. 6. 0. 0. 0. 0. 0. 0. 0. 2. 0. 2. 0. 0. 4.
      0. 0. 0. 0. 0. 0. 0. 0. 0. 0. 0. 0. 0. 2. 0. 12. 6. 4. 2. 4. 0. 0.
      0. 2. 0. 0. 0. 2. 0. 8. 4. 16. 0. 0. 4. 2. 0. 2. 0. 0. 2. 0. 6.
      10. 0. 8. 10. 4. 16. 0. 18. 0. 0. 2. 32. 2. 0. 0. 0. 2. 0. 0. 30.
      4. 2. 0. 0. 4. 0. 2. 0. 6. 0. 2. 0. 2. 4. 6. 8. 0. 0. 2. 2. 0. 0.
      0. 4. 0. 0. 0. 0. 0. 0. 0. 6. 0. 2. 0. 2. 2. 0. 2. 0. 0. 2. 0. 0.
      6. 6. 0. 12. 6. 24. 4. 16. 0. 0. 0. 10. 0. 6. 0. 10. 0. 10. 4. 12.
      0. 2. 0. 2. 0. 0. 0. 0. 2. 2. 0. 2. 4. 4. 6. 24. 28. 56. 0. 12. 0.
      0. 6. 14. 4. 8. 0. 2. 0. 14. 12. 58. 40. 24. 4. 12. 0. 0. 2. 12.
      4. 8. 2. 10. 12. 14. 16. 108.</_>
    <_>
      78. 24. 14. 4. 10. 8. 8. 14. 10. 4. 0. 2. 6. 6. 12. 20. 30. 8. 14.
      2. 0. 4. 8. 2. 6. 0. 0. 2. 14. 4. 40. 18. 16. 2. 6. 4. 10. 2. 0.
      4. 2. 0. 0. 0. 0. 0. 2. 0. 4. 6. 2. 2. 10. 0. 0. 0. 4. 0. 4. 2.
      18. 2. 20. 12. 18. 8. 8. 6. 10. 0. 0. 0. 2. 0. 0. 0. 0. 0. 2. 0.
      2. 2. 0. 0. 2. 0. 4. 0. 6. 0. 2. 0. 2. 0. 0. 4. 12. 8. 0. 8. 2. 0.
      0. 2. 0. 2. 0. 0. 0. 0. 0. 6. 10. 0. 0. 4. 4. 0. 0. 2. 36. 4. 4.
      6. 8. 4. 4. 14. 12. 2. 0. 14. 8. 6. 0. 28. 6. 0. 0. 4. 2. 0. 4. 8.
      2. 2. 0. 0. 4. 0. 0. 8. 4. 0. 0. 0. 0. 2. 4. 6. 2. 0. 2. 0. 0. 0.
      0. 6. 0. 2. 0. 4. 0. 0. 0. 6. 6. 0. 2. 2. 0. 0. 2. 2. 4. 2. 2. 2.
      4. 4. 2. 10. 12. 18. 2. 16. 0. 2. 2. 8. 2. 2. 0. 0. 0. 0. 4. 8. 6.
      2. 0. 2. 0. 2. 0. 2. 0. 2. 0. 2. 0. 6. 8. 10. 14. 32. 2. 14. 0. 0.
      0. 6. 4. 8. 0. 10. 4. 6. 2. 44. 48. 32. 2. 2. 4. 0. 8. 16. 18. 12.
      2. 18. 12. 16. 24. 174.</_>
    <_>
      78. 14. 14. 8. 18. 2. 4. 16. 6. 4. 6. 2. 8. 0. 14. 16. 14. 2. 0.
      0. 8. 2. 0. 0. 8. 2. 2. 0. 16. 4. 12. 8. 8. 0. 4. 6. 4. 0. 2. 4.
      2. 0. 0. 0. 4. 0. 0. 8. 8. 2. 0. 0. 6. 2. 6. 2. 18. 0. 4. 0. 26.
      2. 12. 10. 10. 2. 4. 0. 2. 0. 0. 2. 2. 0. 2. 0. 0. 0. 0. 0. 8. 0.
      0. 2. 0. 0. 0. 2. 2. 0. 0. 0. 6. 0. 4. 4. 18. 4. 2. 10. 2. 2. 0.
      4. 4. 0. 0. 0. 2. 0. 2. 2. 16. 0. 6. 2. 2. 0. 8. 16. 16. 2. 4. 4.
      12. 0. 14. 18. 14. 16. 0. 20. 4. 0. 0. 22. 0. 4. 0. 0. 2. 4. 2.
      18. 4. 4. 0. 4. 0. 0. 2. 0. 2. 2. 2. 2. 12. 0. 6. 6. 0. 2. 0. 2.
      0. 0. 2. 10. 0. 2. 0. 0. 0. 0. 2. 10. 6. 0. 0. 6. 0. 2. 2. 0. 4.
      0. 0. 2. 10. 2. 10. 28. 12. 20. 2. 14. 2. 4. 0. 12. 2. 6. 0. 14.
      0. 4. 2. 8. 6. 0. 2. 4. 2. 0. 2. 4. 4. 10. 0. 6. 6. 22. 0. 10. 12.
      10. 4. 12. 0. 0. 4. 12. 0. 4. 0. 14. 0. 12. 0. 20. 30. 12. 4. 18.
      2. 4. 6. 26. 22. 10. 16. 26. 8. 28. 10. 156.</_>
    <_>
      104. 10. 12. 6. 18. 2. 6. 4. 16. 2. 6. 2. 8. 4. 6. 10. 10. 10. 2.
      0. 8. 0. 2. 6. 10. 2. 0. 6. 2. 4. 6. 2. 14. 0. 4. 0. 6. 0. 4. 4.
      10. 0. 0. 0. 0. 0. 0. 0. 16. 0. 2. 0. 16. 2. 0. 2. 6. 0. 2. 2. 32.
      2. 4. 10. 56. 6. 20. 12. 2. 0. 6. 0. 6. 2. 0. 0. 2. 0. 0. 0. 2. 0.
      2. 4. 2. 0. 0. 0. 6. 4. 0. 4. 6. 2. 0. 2. 6. 2. 2. 2. 2. 2. 2. 2.
      4. 0. 2. 0. 0. 0. 2. 2. 6. 6. 2. 2. 0. 4. 0. 2. 20. 0. 8. 0. 10.
      2. 8. 8. 26. 14. 0. 6. 6. 8. 2. 32. 0. 0. 0. 0. 2. 2. 2. 4. 4. 4.
      0. 0. 2. 0. 0. 4. 2. 4. 0. 2. 0. 6. 0. 4. 2. 0. 0. 6. 2. 2. 0. 6.
      0. 4. 0. 0. 2. 2. 0. 8. 2. 0. 2. 0. 0. 2. 0. 2. 6. 4. 0. 4. 4. 4.
      2. 20. 6. 8. 6. 30. 0. 6. 4. 10. 0. 4. 0. 4. 2. 2. 2. 10. 6. 2. 0.
      8. 0. 0. 0. 4. 2. 2. 0. 4. 2. 0. 2. 22. 6. 32. 0. 14. 2. 4. 2. 2.
      0. 2. 4. 10. 0. 0. 8. 32. 28. 24. 2. 18. 2. 6. 6. 28. 8. 10. 10.
      38. 6. 18. 6. 192.</_>
    <_>
      82. 18. 2. 10. 14. 0. 0. 10. 6. 6. 0. 0. 4. 4. 14. 26. 6. 10. 4.
      0. 4. 0. 4. 4. 0. 2. 0. 4. 6. 4. 12. 64. 20. 4. 4. 4. 4. 0. 0. 6.
      2. 0. 0. 0. 0. 0. 0. 8. 6. 0. 0. 2. 4. 0. 0. 0. 6. 2. 2. 2. 6. 2.
      10. 12. 10. 2. 6. 4. 4. 0. 0. 2. 8. 0. 0. 0. 2. 0. 8. 0. 2. 0. 0.
      0. 0. 0. 0. 0. 4. 0. 0. 0. 0. 0. 0. 4. 10. 6. 0. 2. 4. 0. 2. 2. 2.
      0. 0. 0. 0. 0. 0. 2. 14. 2. 4. 2. 4. 0. 0. 0. 36. 2. 2. 0. 6. 6.
      10. 8. 8. 12. 0. 6. 8. 10. 2. 18. 0. 0. 0. 0. 2. 8. 0. 14. 4. 8.
      0. 0. 0. 0. 0. 0. 2. 0. 2. 0. 2. 2. 0. 6. 2. 0. 0. 2. 2. 0. 0. 4.
      0. 0. 0. 0. 0. 0. 0. 0. 2. 4. 2. 0. 0. 2. 0. 8. 2. 2. 0. 8. 6. 0.
      4. 18. 14. 20. 4. 22. 0. 4. 0. 8. 2. 4. 0. 4. 0. 2. 0. 12. 4. 6.
      0. 4. 6. 0. 0. 2. 2. 0. 2. 0. 0. 2. 2. 12. 20. 48. 0. 36. 6. 10.
      2. 28. 0. 6. 2. 2. 2. 4. 4. 8. 34. 54. 6. 28. 0. 12. 2. 26. 16.
      14. 2. 36. 16. 22. 22. 172.</_>
    <_>
      104. 24. 4. 10. 28. 4. 8. 14. 10. 0. 4. 2. 12. 0. 16. 36. 26. 6.
      2. 2. 2. 2. 0. 2. 18. 2. 4. 2. 22. 2. 24. 16. 12. 4. 6. 0. 2. 0.
      0. 0. 2. 2. 0. 0. 2. 2. 0. 4. 16. 2. 0. 0. 12. 2. 2. 6. 8. 0. 0.
      2. 44. 4. 10. 4. 8. 6. 10. 4. 2. 0. 0. 0. 10. 2. 0. 4. 0. 0. 2. 4.
      2. 0. 2. 2. 0. 0. 4. 0. 6. 0. 0. 2. 2. 0. 10. 0. 8. 0. 4. 0. 0. 0.
      0. 2. 2. 4. 0. 0. 0. 0. 4. 0. 14. 0. 0. 0. 2. 0. 4. 2. 22. 6. 24.
      4. 12. 2. 14. 26. 12. 16. 4. 2. 8. 16. 0. 40. 0. 0. 0. 2. 4. 4. 2.
      6. 4. 4. 0. 2. 0. 0. 0. 2. 0. 4. 0. 2. 4. 4. 6. 8. 2. 2. 0. 0. 2.
      0. 0. 4. 0. 0. 0. 0. 0. 0. 2. 6. 0. 2. 0. 0. 0. 0. 2. 6. 0. 2. 0.
      4. 12. 10. 4. 24. 10. 12. 8. 22. 2. 2. 2. 8. 2. 2. 0. 10. 0. 0. 0.
      8. 4. 0. 0. 4. 0. 0. 0. 2. 2. 4. 0. 2. 0. 2. 4. 10. 8. 22. 2. 16.
      0. 0. 4. 10. 0. 0. 2. 0. 0. 0. 8. 38. 36. 6. 8. 12. 4. 0. 0. 14.
      6. 12. 0. 18. 10. 8. 38. 130.</_>
    <_>
      108. 14. 0. 12. 20. 6. 8. 20. 6. 2. 2. 0. 6. 4. 4. 8. 6. 8. 2. 0.
      8. 2. 0. 2. 10. 0. 0. 0. 12. 0. 4. 10. 6. 0. 0. 0. 8. 0. 2. 0. 0.
      0. 0. 0. 2. 0. 0. 0. 4. 4. 0. 0. 14. 0. 0. 0. 16. 4. 0. 2. 24. 0.
      8. 10. 30. 2. 12. 10. 8. 0. 0. 2. 4. 2. 0. 2. 0. 0. 0. 4. 0. 2. 0.
      0. 2. 0. 0. 0. 4. 0. 4. 0. 2. 0. 2. 2. 18. 2. 6. 0. 2. 0. 0. 0. 2.
      0. 0. 0. 2. 0. 2. 0. 26. 2. 2. 0. 6. 0. 2. 6. 30. 0. 16. 4. 20. 0.
      2. 4. 20. 18. 2. 18. 4. 12. 0. 40. 0. 0. 0. 0. 2. 0. 0. 10. 4. 2.
      0. 0. 2. 0. 0. 2. 0. 4. 0. 0. 2. 2. 0. 16. 0. 2. 0. 4. 2. 0. 2.
      22. 0. 0. 0. 0. 4. 2. 0. 2. 6. 2. 0. 4. 0. 0. 0. 18. 0. 4. 0. 8.
      10. 12. 0. 18. 16. 22. 2. 46. 2. 8. 4. 28. 6. 2. 0. 6. 2. 2. 0. 6.
      0. 2. 0. 4. 0. 0. 0. 0. 2. 2. 0. 2. 2. 0. 0. 14. 22. 42. 2. 6. 0.
      4. 2. 12. 0. 4. 0. 4. 2. 4. 2. 32. 16. 16. 6. 14. 2. 0. 0. 22. 18.
      18. 2. 48. 4. 18. 18. 130.</_>
    <_>
      100. 28. 4. 14. 8. 4. 6. 4. 4. 0. 0. 0. 4. 2. 20. 10. 24. 12. 0.
      0. 4. 0. 0. 4. 16. 0. 0. 0. 2. 4. 14. 22. 6. 2. 0. 4. 10. 2. 2. 2.
      0. 0. 0. 0. 0. 2. 0. 4. 6. 6. 2. 0. 12. 0. 0. 2. 4. 0. 2. 2. 4. 2.
      12. 8. 24. 2. 12. 6. 0. 0. 0. 0. 4. 0. 0. 0. 2. 0. 2. 0. 0. 2. 0.
      0. 0. 0. 0. 0. 8. 0. 0. 2. 4. 0. 0. 4. 16. 4. 0. 0. 2. 0. 0. 2. 0.
      0. 0. 0. 0. 2. 0. 2. 20. 2. 2. 0. 0. 2. 0. 0. 66. 0. 8. 6. 18. 2.
      4. 12. 12. 2. 2. 10. 14. 2. 0. 6. 0. 2. 2. 0. 0. 0. 2. 0. 0. 4. 2.
      0. 0. 2. 0. 0. 4. 0. 0. 0. 0. 2. 6. 10. 6. 2. 2. 0. 2. 4. 0. 6. 0.
      0. 0. 0. 0. 0. 4. 4. 0. 2. 0. 2. 2. 2. 2. 2. 0. 2. 2. 2. 0. 8. 2.
      6. 8. 28. 0. 46. 0. 2. 0. 6. 4. 0. 0. 14. 0. 2. 0. 10. 2. 4. 0. 4.
      2. 2. 0. 2. 6. 4. 0. 6. 0. 0. 4. 2. 22. 16. 2. 14. 6. 6. 2. 16. 4.
      2. 0. 8. 2. 6. 10. 16. 24. 18. 0. 30. 6. 10. 8. 26. 30. 20. 6. 40.
      12. 38. 18. 196.</_>
    <_>
      56. 28. 2. 8. 24. 2. 2. 18. 4. 0. 0. 0. 0. 2. 16. 44. 32. 36. 0.
      0. 2. 0. 4. 4. 6. 4. 0. 0. 10. 2. 70. 60. 4. 2. 4. 0. 4. 0. 0. 2.
      0. 0. 0. 0. 0. 2. 0. 6. 12. 4. 0. 2. 2. 0. 2. 0. 14. 2. 0. 0. 18.
      0. 22. 2. 18. 0. 6. 2. 2. 0. 0. 0. 2. 0. 0. 0. 2. 0. 0. 0. 4. 0.
      0. 0. 0. 0. 0. 0. 2. 0. 0. 0. 0. 0. 0. 0. 2. 6. 0. 0. 2. 0. 0. 0.
      0. 2. 0. 0. 0. 2. 0. 6. 20. 2. 4. 0. 0. 0. 0. 2. 16. 0. 2. 0. 4.
      0. 4. 6. 4. 18. 0. 24. 4. 6. 0. 32. 4. 0. 0. 0. 0. 0. 2. 18. 0. 2.
      2. 0. 0. 0. 0. 2. 2. 0. 0. 4. 0. 0. 4. 0. 0. 0. 0. 0. 0. 0. 0. 4.
      0. 0. 0. 0. 0. 0. 0. 2. 2. 0. 0. 0. 2. 0. 2. 2. 0. 0. 0. 6. 4. 0.
      2. 12. 4. 10. 0. 20. 0. 0. 0. 6. 0. 0. 0. 2. 0. 2. 0. 4. 4. 0. 0.
      0. 0. 0. 0. 0. 4. 2. 0. 0. 0. 2. 4. 10. 48. 88. 0. 16. 0. 0. 0.
      12. 2. 6. 2. 4. 0. 6. 8. 50. 96. 74. 4. 10. 0. 2. 4. 10. 12. 6. 0.
      24. 12. 14. 58. 102.</_>
    <_>
      74. 18. 10. 12. 22. 4. 6. 14. 16. 0. 2. 4. 4. 6. 12. 40. 18. 8. 0.
      4. 6. 0. 6. 0. 6. 0. 4. 2. 16. 0. 24. 32. 10. 4. 4. 0. 0. 0. 0. 0.
      2. 0. 0. 0. 4. 0. 0. 12. 2. 4. 0. 0. 2. 0. 6. 0. 10. 0. 0. 2. 18.
      0. 2. 18. 18. 0. 2. 0. 40. 0. 6. 2. 0. 0. 0. 0. 0. 0. 2. 2. 2. 0.
      0. 0. 0. 0. 0. 0. 6. 0. 0. 0. 0. 0. 0. 2. 2. 2. 0. 0. 0. 0. 0. 2.
      0. 0. 0. 0. 2. 0. 0. 0. 14. 2. 0. 0. 4. 0. 6. 4. 14. 0. 4. 0. 20.
      4. 4. 22. 12. 8. 2. 10. 2. 14. 0. 26. 8. 0. 0. 2. 0. 6. 0. 18. 4.
      0. 0. 2. 0. 0. 0. 2. 4. 0. 0. 0. 2. 0. 2. 4. 0. 0. 0. 2. 0. 0. 0.
      4. 0. 0. 0. 0. 2. 0. 0. 8. 0. 4. 0. 0. 0. 0. 0. 0. 2. 4. 0. 12. 6.
      4. 4. 36. 10. 26. 2. 20. 0. 0. 0. 40. 2. 4. 0. 2. 0. 2. 0. 10. 2.
      0. 0. 8. 0. 0. 0. 0. 4. 2. 0. 4. 6. 6. 2. 12. 16. 24. 2. 22. 0. 2.
      2. 8. 0. 2. 2. 2. 0. 0. 4. 16. 14. 8. 2. 12. 2. 4. 0. 26. 14. 10.
      6. 20. 6. 8. 24. 272.</_>
    <_>
      72. 6. 6. 2. 20. 2. 10. 26. 6. 6. 2. 0. 10. 2. 12. 36. 16. 12. 0.
      0. 2. 0. 6. 0. 8. 2. 0. 0. 12. 2. 48. 16. 8. 4. 8. 4. 4. 0. 6. 0.
      2. 0. 0. 0. 0. 0. 0. 2. 8. 6. 0. 2. 2. 2. 0. 0. 12. 0. 0. 0. 26.
      0. 14. 8. 30. 2. 0. 6. 2. 0. 2. 4. 6. 0. 0. 0. 0. 0. 0. 2. 2. 0.
      0. 0. 0. 0. 2. 2. 2. 0. 0. 0. 0. 0. 0. 0. 14. 0. 2. 4. 0. 2. 4. 2.
      4. 0. 0. 0. 0. 2. 0. 0. 26. 4. 2. 0. 2. 2. 2. 2. 48. 2. 2. 2. 12.
      0. 8. 6. 10. 20. 0. 14. 8. 6. 2. 30. 4. 0. 0. 4. 2. 2. 0. 14. 4.
      0. 2. 0. 0. 0. 2. 2. 2. 2. 0. 0. 0. 0. 2. 8. 2. 0. 0. 0. 0. 2. 0.
      0. 2. 0. 0. 0. 0. 0. 0. 4. 2. 0. 0. 0. 2. 0. 4. 6. 4. 0. 2. 2. 0.
      0. 2. 10. 8. 28. 4. 14. 4. 4. 0. 16. 4. 2. 0. 4. 0. 2. 2. 4. 8. 0.
      2. 0. 0. 0. 0. 2. 2. 4. 0. 6. 0. 2. 6. 18. 18. 46. 2. 20. 0. 4. 4.
      22. 2. 2. 0. 4. 0. 4. 4. 24. 24. 32. 8. 18. 4. 2. 4. 24. 30. 16.
      4. 46. 10. 26. 26. 132.</_>
    <_>
      12. 4. 2. 4. 12. 0. 4. 2. 6. 0. 0. 2. 6. 0. 4. 2. 4. 4. 0. 0. 0.
      0. 0. 0. 2. 0. 0. 4. 8. 2. 6. 8. 4. 0. 2. 0. 2. 0. 0. 0. 0. 0. 0.
      0. 0. 0. 0. 0. 6. 0. 0. 0. 2. 0. 2. 0. 8. 2. 0. 0. 20. 2. 4. 14.
      4. 2. 0. 0. 4. 0. 2. 0. 0. 0. 0. 0. 2. 0. 4. 0. 0. 0. 0. 2. 0. 0.
      0. 2. 0. 0. 0. 0. 2. 0. 0. 0. 0. 0. 0. 0. 0. 0. 0. 0. 2. 0. 0. 0.
      0. 0. 0. 0. 20. 0. 2. 0. 0. 0. 0. 0. 52. 2. 4. 2. 50. 0. 10. 8. 0.
      4. 0. 10. 2. 0. 0. 14. 0. 0. 0. 0. 0. 0. 0. 6. 0. 0. 0. 0. 0. 0.
      0. 0. 0. 0. 0. 0. 0. 0. 0. 2. 0. 0. 0. 0. 0. 2. 0. 2. 0. 0. 0. 0.
      0. 0. 0. 4. 0. 2. 2. 0. 2. 0. 0. 2. 0. 0. 0. 2. 4. 4. 0. 22. 6.
      20. 0. 76. 0. 2. 0. 40. 0. 2. 0. 6. 0. 0. 0. 6. 0. 0. 0. 0. 0. 0.
      0. 0. 0. 0. 0. 0. 0. 2. 2. 8. 2. 10. 0. 22. 0. 2. 2. 16. 0. 0. 0.
      4. 0. 0. 2. 4. 10. 14. 0. 6. 0. 0. 0. 18. 18. 14. 0. 18. 18. 20.
      10. 760.</_>
    <_>
      78. 32. 6. 16. 14. 4. 8. 20. 6. 2. 2. 2. 8. 8. 10. 58. 28. 0. 2.
      0. 2. 0. 2. 0. 10. 6. 0. 0. 6. 2. 18. 16. 2. 6. 0. 0. 2. 0. 2. 2.
      4. 0. 0. 0. 0. 0. 0. 8. 12. 0. 0. 0. 0. 0. 2. 2. 8. 0. 0. 0. 22.
      0. 8. 10. 16. 4. 4. 4. 6. 0. 4. 2. 6. 0. 0. 2. 0. 0. 0. 4. 6. 2.
      0. 0. 2. 0. 2. 0. 6. 0. 0. 0. 0. 0. 0. 4. 12. 4. 0. 4. 4. 0. 0. 2.
      0. 0. 0. 0. 0. 0. 2. 10. 28. 2. 2. 0. 0. 0. 0. 8. 30. 0. 2. 2. 16.
      0. 12. 16. 8. 20. 4. 16. 4. 4. 0. 44. 4. 2. 0. 4. 0. 4. 2. 20. 10.
      0. 0. 4. 0. 0. 0. 0. 2. 2. 2. 2. 2. 0. 0. 10. 2. 2. 0. 6. 0. 0. 0.
      2. 0. 0. 0. 0. 0. 0. 0. 8. 0. 0. 0. 0. 0. 0. 0. 4. 0. 2. 4. 8. 2.
      2. 2. 16. 14. 22. 4. 26. 6. 0. 2. 24. 0. 0. 0. 4. 0. 0. 4. 20. 8.
      0. 0. 2. 0. 0. 0. 0. 0. 0. 0. 4. 0. 0. 2. 20. 14. 14. 8. 18. 2. 0.
      0. 6. 0. 4. 0. 4. 4. 0. 6. 16. 88. 16. 8. 18. 4. 4. 4. 14. 36. 16.
      12. 22. 6. 14. 34. 98.</_>
    <_>
      104. 32. 8. 8. 24. 2. 10. 12. 12. 4. 6. 2. 2. 4. 22. 16. 34. 12.
      0. 4. 2. 4. 6. 2. 12. 6. 2. 4. 20. 8. 14. 24. 2. 0. 0. 0. 18. 0.
      0. 0. 2. 0. 0. 0. 2. 0. 0. 6. 8. 4. 4. 0. 6. 0. 0. 0. 8. 0. 6. 0.
      24. 2. 12. 18. 14. 2. 8. 12. 2. 0. 2. 4. 4. 0. 0. 0. 2. 2. 8. 4.
      6. 2. 0. 0. 0. 0. 2. 2. 8. 2. 2. 0. 2. 0. 2. 2. 2. 10. 0. 0. 0. 2.
      4. 2. 0. 0. 2. 2. 0. 0. 4. 2. 12. 0. 2. 0. 2. 2. 2. 2. 6. 6. 4. 8.
      8. 2. 6. 22. 10. 8. 2. 2. 8. 14. 4. 36. 2. 4. 0. 2. 0. 4. 2. 6. 0.
      4. 0. 0. 0. 0. 0. 0. 0. 0. 2. 0. 0. 0. 4. 10. 0. 4. 0. 0. 0. 0. 2.
      6. 0. 0. 0. 4. 0. 2. 4. 2. 2. 4. 0. 0. 0. 8. 0. 8. 0. 0. 0. 0. 4.
      4. 2. 32. 4. 10. 0. 2. 0. 0. 0. 12. 4. 0. 0. 10. 2. 0. 2. 14. 0.
      0. 0. 4. 2. 2. 2. 0. 2. 4. 0. 6. 2. 0. 4. 16. 14. 22. 2. 6. 2. 4.
      2. 10. 2. 4. 2. 2. 0. 0. 8. 28. 6. 8. 0. 12. 2. 2. 8. 16. 8. 8. 8.
      22. 10. 18. 34. 230.</_>
    <_>
      32. 30. 10. 4. 8. 2. 4. 22. 10. 4. 0. 0. 12. 4. 40. 92. 22. 16. 2.
      2. 0. 0. 4. 4. 12. 0. 0. 0. 20. 0. 124. 88. 4. 2. 0. 0. 0. 0. 0.
      2. 0. 0. 0. 2. 0. 0. 0. 4. 2. 2. 0. 4. 2. 0. 0. 0. 4. 0. 0. 0. 10.
      0. 32. 18. 8. 2. 2. 6. 0. 0. 0. 0. 2. 0. 0. 0. 0. 0. 0. 0. 2. 0.
      0. 0. 0. 0. 0. 0. 6. 0. 0. 0. 0. 0. 0. 0. 14. 8. 0. 4. 0. 0. 0. 0.
      2. 0. 0. 0. 0. 0. 0. 0. 20. 0. 0. 0. 0. 0. 2. 0. 16. 0. 0. 0. 4.
      0. 14. 6. 8. 16. 0. 10. 0. 4. 0. 22. 0. 2. 0. 0. 0. 0. 2. 22. 0.
      0. 2. 0. 0. 0. 0. 0. 0. 0. 0. 0. 0. 0. 4. 14. 2. 0. 0. 0. 0. 0. 0.
      0. 0. 0. 0. 0. 0. 0. 2. 0. 0. 0. 0. 4. 0. 0. 0. 2. 0. 2. 0. 0. 2.
      0. 2. 4. 10. 34. 0. 46. 0. 0. 0. 28. 0. 0. 0. 0. 0. 2. 4. 18. 8.
      6. 0. 0. 0. 0. 0. 0. 0. 0. 0. 2. 0. 0. 6. 10. 10. 38. 0. 32. 2. 0.
      0. 10. 0. 4. 0. 0. 2. 2. 12. 54. 46. 56. 2. 10. 0. 0. 0. 6. 12.
      10. 2. 10. 10. 2. 38. 124.</_>
    <_>
      128. 24. 10. 14. 28. 0. 16. 8. 4. 4. 8. 2. 8. 2. 2. 20. 12. 18. 4.
      0. 0. 2. 0. 0. 12. 2. 0. 2. 8. 0. 10. 12. 8. 4. 0. 4. 8. 0. 2. 4.
      2. 0. 0. 2. 2. 0. 4. 4. 12. 0. 4. 0. 10. 0. 0. 2. 8. 2. 0. 0. 32.
      6. 8. 6. 36. 8. 10. 10. 2. 0. 0. 2. 16. 2. 0. 2. 0. 2. 0. 6. 4. 0.
      0. 2. 0. 0. 0. 2. 10. 2. 0. 4. 0. 0. 4. 2. 8. 2. 0. 2. 2. 0. 2. 2.
      0. 0. 2. 2. 4. 0. 0. 0. 8. 8. 0. 2. 2. 0. 0. 0. 34. 4. 10. 8. 4.
      4. 6. 12. 4. 14. 10. 12. 10. 12. 0. 50. 8. 2. 0. 0. 0. 0. 2. 6. 2.
      0. 0. 6. 0. 2. 0. 12. 0. 0. 0. 2. 2. 0. 2. 8. 4. 0. 2. 2. 0. 4. 0.
      20. 0. 2. 0. 2. 0. 0. 0. 10. 0. 0. 0. 0. 0. 0. 0. 6. 0. 2. 0. 4.
      2. 2. 10. 24. 8. 6. 4. 16. 4. 2. 4. 12. 2. 2. 2. 12. 0. 4. 2. 14.
      0. 2. 2. 0. 2. 0. 2. 6. 0. 0. 0. 6. 6. 2. 2. 14. 16. 6. 0. 12. 4.
      2. 4. 4. 4. 0. 0. 0. 4. 6. 16. 18. 24. 16. 2. 12. 0. 6. 2. 24. 12.
      2. 4. 34. 12. 10. 28. 136.</_>
    <_>
      58. 24. 10. 12. 22. 6. 2. 10. 8. 2. 0. 0. 4. 4. 16. 24. 22. 20. 6.
      4. 4. 0. 0. 0. 8. 0. 0. 0. 10. 0. 36. 26. 8. 0. 6. 2. 2. 0. 0. 0.
      0. 0. 0. 0. 4. 2. 0. 2. 12. 0. 0. 0. 6. 2. 4. 2. 22. 0. 2. 0. 36.
      0. 22. 8. 18. 4. 2. 2. 14. 2. 2. 2. 6. 0. 0. 0. 0. 0. 0. 0. 4. 0.
      0. 0. 0. 0. 0. 0. 2. 0. 0. 0. 2. 0. 2. 0. 6. 2. 2. 4. 0. 0. 0. 0.
      0. 0. 0. 2. 0. 2. 0. 2. 30. 4. 4. 2. 0. 0. 0. 2. 24. 2. 2. 0. 20.
      4. 10. 16. 10. 14. 0. 18. 4. 6. 0. 24. 2. 0. 0. 0. 2. 0. 0. 14. 0.
      2. 0. 0. 0. 0. 2. 0. 2. 0. 0. 0. 4. 4. 6. 8. 0. 0. 0. 2. 0. 0. 2.
      0. 2. 0. 0. 0. 0. 0. 2. 2. 0. 0. 0. 0. 0. 0. 0. 6. 0. 2. 2. 4. 4.
      2. 4. 24. 4. 14. 2. 14. 2. 4. 0. 18. 0. 2. 0. 2. 0. 0. 2. 4. 2. 2.
      0. 0. 0. 0. 2. 0. 2. 4. 2. 6. 0. 0. 0. 22. 36. 58. 2. 10. 0. 2. 0.
      14. 2. 8. 0. 2. 0. 10. 4. 34. 44. 42. 2. 20. 4. 2. 2. 20. 26. 20.
      6. 14. 20. 22. 34. 136.</_>
    <_>
      44. 4. 8. 4. 6. 4. 0. 16. 8. 6. 4. 2. 4. 2. 12. 20. 8. 2. 2. 0. 8.
      0. 2. 2. 14. 0. 0. 2. 28. 2. 20. 34. 28. 2. 12. 0. 10. 0. 2. 2. 6.
      2. 2. 2. 4. 0. 2. 4. 10. 0. 0. 0. 6. 0. 4. 0. 18. 2. 0. 2. 20. 6.
      36. 2. 12. 4. 0. 4. 2. 0. 0. 0. 4. 0. 0. 0. 6. 0. 0. 0. 0. 0. 0.
      0. 2. 0. 2. 0. 6. 0. 2. 0. 2. 2. 0. 6. 20. 6. 0. 10. 0. 0. 0. 0.
      4. 0. 0. 0. 2. 0. 0. 2. 18. 2. 0. 0. 6. 0. 0. 2. 22. 2. 0. 2. 30.
      22. 20. 22. 14. 2. 6. 8. 0. 2. 0. 8. 4. 4. 0. 2. 2. 8. 0. 6. 4. 0.
      0. 2. 0. 2. 2. 0. 2. 0. 0. 0. 4. 0. 0. 8. 4. 0. 0. 2. 0. 0. 0. 6.
      6. 0. 0. 0. 0. 2. 0. 4. 2. 4. 0. 0. 2. 2. 0. 0. 4. 4. 4. 8. 4. 4.
      8. 16. 6. 16. 2. 4. 0. 0. 0. 32. 0. 2. 0. 0. 0. 4. 2. 16. 6. 4. 2.
      0. 0. 4. 2. 6. 10. 0. 0. 0. 0. 2. 2. 10. 6. 26. 2. 44. 0. 0. 2.
      18. 0. 2. 0. 8. 2. 2. 6. 8. 36. 22. 0. 12. 2. 8. 0. 34. 18. 18. 4.
      28. 24. 26. 22. 182.</_>
    <_>
      80. 18. 10. 2. 20. 6. 8. 6. 14. 6. 4. 0. 10. 8. 20. 46. 22. 10.
      14. 0. 6. 0. 6. 0. 12. 4. 0. 2. 10. 4. 44. 26. 12. 4. 4. 2. 8. 0.
      4. 4. 2. 0. 0. 0. 2. 0. 4. 4. 8. 0. 0. 0. 6. 0. 4. 6. 6. 2. 0. 4.
      40. 2. 10. 18. 24. 2. 2. 10. 4. 0. 0. 2. 4. 0. 2. 0. 0. 0. 2. 0.
      0. 2. 0. 0. 0. 0. 0. 0. 8. 0. 2. 0. 0. 0. 4. 8. 4. 10. 0. 4. 2. 0.
      0. 0. 0. 0. 2. 2. 2. 0. 0. 12. 16. 0. 4. 0. 0. 2. 2. 2. 28. 2. 4.
      8. 8. 8. 8. 8. 14. 4. 2. 4. 10. 6. 0. 22. 6. 0. 0. 2. 0. 6. 2. 14.
      4. 4. 0. 2. 0. 0. 0. 8. 0. 4. 0. 2. 6. 0. 2. 18. 2. 0. 0. 0. 0. 0.
      0. 6. 0. 0. 0. 0. 0. 0. 0. 2. 0. 0. 0. 2. 0. 0. 2. 0. 0. 0. 0. 4.
      0. 0. 6. 22. 6. 10. 2. 24. 2. 2. 0. 10. 0. 6. 2. 0. 0. 0. 2. 14.
      8. 2. 0. 2. 2. 0. 0. 4. 2. 0. 0. 0. 2. 0. 0. 16. 8. 58. 6. 6. 0.
      2. 2. 4. 2. 4. 0. 4. 2. 2. 16. 38. 32. 30. 0. 6. 4. 4. 0. 12. 10.
      18. 6. 24. 2. 14. 32. 126.</_>
    <_>
      30. 22. 6. 2. 16. 0. 2. 4. 6. 2. 2. 2. 4. 6. 22. 46. 38. 14. 2. 0.
      2. 0. 0. 4. 6. 0. 0. 0. 8. 2. 48. 70. 8. 2. 4. 0. 0. 0. 0. 2. 0.
      0. 0. 2. 0. 0. 0. 6. 4. 0. 0. 2. 0. 0. 2. 0. 14. 2. 0. 0. 22. 2.
      6. 4. 26. 4. 2. 6. 4. 0. 0. 0. 2. 0. 0. 0. 0. 0. 0. 0. 4. 0. 0. 0.
      0. 0. 0. 0. 4. 0. 0. 0. 0. 0. 0. 0. 4. 6. 0. 2. 2. 0. 0. 4. 0. 0.
      0. 0. 0. 0. 2. 2. 30. 0. 6. 2. 2. 0. 0. 0. 20. 2. 4. 4. 8. 0. 8.
      4. 12. 12. 0. 6. 2. 4. 0. 16. 0. 0. 0. 0. 0. 2. 0. 8. 4. 0. 0. 4.
      0. 0. 0. 0. 0. 0. 0. 0. 0. 2. 4. 6. 2. 0. 0. 0. 0. 0. 0. 2. 0. 0.
      0. 2. 0. 0. 0. 4. 0. 0. 0. 6. 0. 2. 0. 4. 4. 0. 0. 2. 6. 2. 4. 6.
      10. 14. 0. 30. 0. 0. 0. 4. 0. 0. 0. 4. 0. 0. 0. 8. 6. 0. 0. 2. 0.
      0. 0. 2. 2. 0. 0. 0. 4. 2. 2. 10. 58. 124. 0. 20. 2. 4. 0. 10. 2.
      8. 0. 6. 2. 8. 4. 26. 114. 84. 4. 12. 4. 2. 2. 20. 38. 16. 0. 10.
      6. 22. 28. 92.</_>
    <_>
      112. 30. 2. 14. 8. 0. 14. 28. 4. 4. 0. 2. 4. 4. 4. 8. 16. 6. 4. 4.
      4. 0. 4. 2. 8. 0. 4. 2. 12. 6. 6. 4. 6. 4. 0. 2. 4. 0. 2. 2. 0. 0.
      0. 0. 0. 0. 0. 0. 12. 0. 0. 0. 2. 0. 2. 0. 8. 4. 0. 2. 48. 8. 12.
      4. 40. 0. 4. 2. 16. 2. 2. 2. 2. 2. 0. 0. 2. 0. 2. 2. 4. 0. 0. 0.
      2. 0. 0. 2. 0. 0. 2. 0. 2. 0. 4. 0. 12. 2. 0. 0. 2. 2. 0. 0. 4. 0.
      0. 0. 2. 0. 6. 2. 14. 6. 0. 0. 4. 0. 4. 2. 18. 4. 10. 6. 14. 2.
      16. 4. 2. 24. 2. 30. 4. 4. 4. 62. 0. 2. 0. 2. 4. 0. 0. 14. 0. 0.
      0. 0. 0. 2. 0. 6. 0. 0. 0. 6. 2. 0. 2. 10. 2. 2. 0. 0. 0. 0. 0. 4.
      0. 0. 0. 0. 2. 2. 2. 6. 4. 4. 0. 8. 2. 0. 0. 10. 4. 0. 0. 16. 4.
      4. 8. 34. 6. 18. 0. 24. 4. 6. 6. 34. 6. 0. 2. 2. 2. 0. 4. 18. 0.
      4. 2. 4. 0. 0. 0. 0. 2. 0. 0. 4. 2. 4. 4. 18. 8. 2. 0. 2. 0. 2. 2.
      20. 2. 4. 0. 4. 2. 0. 0. 20. 20. 2. 4. 14. 4. 0. 0. 18. 10. 12. 2.
      36. 8. 14. 18. 190.</_>
    <_>
      70. 14. 10. 12. 4. 6. 12. 20. 8. 4. 2. 2. 12. 2. 16. 22. 16. 4. 2.
      4. 4. 0. 8. 4. 14. 0. 6. 2. 8. 4. 32. 16. 6. 0. 0. 2. 2. 0. 0. 2.
      0. 2. 2. 0. 4. 0. 4. 4. 10. 12. 2. 0. 2. 0. 0. 0. 8. 2. 4. 2. 12.
      2. 16. 22. 10. 0. 2. 0. 2. 0. 2. 0. 2. 0. 0. 0. 2. 0. 2. 2. 14. 2.
      2. 0. 4. 0. 0. 0. 8. 0. 0. 0. 0. 0. 2. 8. 12. 4. 4. 2. 0. 0. 4. 4.
      2. 0. 0. 0. 0. 0. 0. 4. 18. 4. 2. 0. 0. 0. 2. 2. 32. 2. 2. 0. 6.
      4. 8. 32. 18. 12. 2. 10. 0. 8. 4. 22. 2. 0. 0. 2. 8. 8. 2. 14. 0.
      4. 0. 0. 0. 0. 2. 2. 0. 2. 0. 0. 6. 0. 0. 14. 2. 0. 0. 0. 0. 2. 0.
      2. 0. 0. 0. 2. 0. 2. 2. 6. 2. 4. 2. 0. 0. 0. 0. 0. 2. 2. 0. 0. 4.
      2. 8. 22. 22. 12. 0. 34. 0. 0. 2. 14. 4. 0. 0. 0. 0. 0. 2. 8. 6.
      2. 0. 2. 0. 0. 0. 2. 2. 4. 2. 0. 2. 0. 4. 18. 10. 24. 0. 10. 0. 2.
      2. 16. 4. 0. 4. 6. 0. 8. 6. 22. 18. 18. 2. 24. 4. 6. 2. 30. 18. 8.
      4. 24. 12. 10. 30. 218.</_>
    <_>
      68. 28. 8. 6. 30. 4. 16. 10. 8. 2. 2. 0. 2. 12. 6. 14. 20. 6. 2.
      0. 4. 0. 0. 2. 8. 0. 2. 2. 14. 0. 20. 16. 8. 0. 8. 2. 2. 0. 2. 2.
      2. 2. 0. 2. 0. 0. 0. 4. 10. 0. 0. 2. 8. 0. 4. 0. 14. 0. 2. 4. 24.
      2. 8. 0. 34. 4. 2. 12. 8. 0. 2. 0. 2. 2. 2. 2. 2. 0. 2. 2. 8. 0.
      0. 0. 0. 0. 0. 0. 0. 0. 0. 2. 6. 0. 0. 2. 12. 2. 0. 2. 4. 0. 2. 2.
      2. 0. 0. 0. 4. 0. 0. 2. 24. 6. 2. 4. 2. 0. 0. 2. 58. 2. 0. 2. 20.
      8. 20. 8. 14. 12. 2. 4. 0. 4. 0. 20. 4. 0. 0. 0. 0. 0. 2. 14. 0.
      0. 0. 0. 0. 0. 0. 2. 0. 2. 0. 2. 4. 4. 6. 4. 6. 2. 2. 2. 0. 0. 0.
      2. 0. 2. 0. 0. 2. 0. 4. 6. 0. 2. 0. 2. 0. 2. 0. 2. 8. 2. 0. 4. 2.
      2. 2. 36. 14. 14. 0. 20. 2. 4. 2. 14. 2. 2. 2. 2. 0. 2. 2. 8. 4.
      0. 2. 2. 0. 0. 0. 2. 2. 2. 0. 4. 2. 2. 0. 12. 34. 28. 6. 24. 2. 0.
      2. 10. 0. 2. 2. 4. 2. 6. 0. 20. 48. 34. 4. 16. 0. 10. 2. 24. 28.
      18. 4. 38. 6. 16. 20. 134.</_>
    <_>
      98. 24. 12. 6. 22. 4. 10. 12. 10. 4. 0. 4. 10. 6. 14. 18. 24. 18.
      6. 2. 0. 0. 8. 4. 6. 0. 2. 2. 4. 4. 20. 20. 6. 8. 4. 2. 4. 2. 4.
      4. 2. 0. 2. 0. 0. 0. 2. 2. 0. 2. 6. 2. 14. 0. 4. 6. 8. 0. 0. 0.
      16. 0. 8. 10. 20. 6. 10. 8. 16. 2. 0. 0. 4. 0. 2. 0. 2. 2. 4. 6.
      4. 0. 0. 0. 0. 0. 0. 4. 10. 0. 0. 2. 4. 0. 0. 2. 2. 12. 2. 2. 2.
      0. 0. 0. 0. 0. 0. 0. 2. 2. 0. 0. 2. 0. 2. 2. 0. 0. 0. 4. 24. 0. 4.
      2. 12. 0. 8. 26. 4. 8. 2. 14. 12. 6. 0. 14. 2. 0. 0. 2. 8. 6. 0.
      14. 4. 2. 0. 6. 2. 4. 2. 0. 0. 0. 0. 2. 6. 4. 4. 14. 6. 0. 2. 0.
      0. 2. 0. 4. 0. 0. 0. 0. 0. 0. 0. 2. 0. 0. 0. 2. 0. 2. 0. 6. 2. 2.
      2. 12. 0. 0. 4. 14. 6. 16. 0. 16. 2. 0. 4. 8. 0. 2. 0. 0. 2. 2. 6.
      10. 4. 2. 0. 2. 0. 4. 2. 4. 4. 0. 2. 8. 0. 2. 6. 14. 8. 12. 4. 6.
      2. 2. 4. 12. 0. 2. 0. 6. 2. 2. 4. 34. 18. 14. 4. 10. 2. 4. 2. 18.
      2. 6. 4. 22. 6. 14. 28. 272.</_>
    <_>
      72. 22. 6. 14. 22. 0. 4. 20. 0. 2. 2. 2. 16. 0. 8. 28. 22. 6. 2.
      4. 0. 0. 0. 2. 10. 0. 0. 0. 22. 2. 24. 14. 8. 2. 2. 4. 0. 0. 0. 0.
      0. 0. 0. 0. 2. 0. 0. 4. 8. 0. 0. 4. 4. 0. 10. 0. 14. 4. 0. 4. 20.
      2. 24. 10. 26. 6. 4. 6. 6. 2. 4. 2. 2. 0. 2. 0. 2. 0. 2. 2. 8. 0.
      0. 0. 0. 0. 0. 0. 0. 0. 0. 0. 0. 2. 0. 0. 10. 4. 4. 2. 4. 0. 0. 2.
      0. 6. 0. 0. 0. 2. 4. 2. 12. 4. 2. 0. 4. 0. 0. 2. 30. 4. 4. 2. 22.
      2. 10. 2. 12. 22. 2. 6. 4. 6. 0. 22. 2. 0. 0. 0. 0. 0. 0. 12. 4.
      2. 0. 0. 0. 0. 0. 2. 0. 0. 0. 0. 0. 0. 0. 22. 4. 4. 2. 2. 2. 0. 2.
      4. 2. 0. 0. 0. 0. 2. 0. 4. 0. 0. 0. 6. 0. 2. 0. 0. 2. 4. 0. 4. 0.
      0. 8. 8. 10. 26. 8. 30. 0. 2. 2. 14. 2. 0. 0. 4. 2. 0. 2. 14. 4.
      2. 4. 4. 0. 0. 0. 4. 4. 4. 0. 4. 0. 2. 0. 20. 22. 32. 0. 32. 2. 0.
      0. 22. 0. 8. 0. 6. 8. 0. 2. 30. 38. 20. 4. 24. 6. 4. 2. 18. 22.
      14. 2. 42. 16. 28. 24. 124.</_>
    <_>
      78. 12. 12. 16. 22. 4. 22. 20. 8. 0. 0. 2. 12. 0. 12. 10. 20. 4.
      2. 0. 2. 0. 2. 4. 20. 0. 2. 2. 30. 2. 34. 8. 8. 0. 4. 0. 6. 0. 4.
      0. 2. 0. 0. 0. 0. 0. 2. 0. 20. 4. 2. 0. 8. 0. 4. 2. 10. 2. 0. 0.
      38. 0. 20. 8. 52. 4. 2. 4. 2. 0. 4. 2. 0. 0. 0. 2. 0. 2. 4. 4. 2.
      0. 0. 0. 0. 0. 0. 0. 2. 0. 0. 0. 4. 0. 4. 2. 14. 6. 0. 4. 4. 0. 2.
      0. 0. 0. 0. 2. 2. 2. 0. 0. 18. 4. 6. 4. 0. 0. 0. 4. 26. 0. 2. 8.
      14. 0. 8. 6. 14. 10. 0. 6. 2. 4. 2. 16. 6. 0. 2. 2. 2. 2. 0. 10.
      2. 0. 0. 2. 0. 0. 0. 0. 2. 0. 0. 2. 2. 0. 4. 16. 2. 2. 0. 0. 0. 0.
      0. 10. 0. 0. 0. 0. 0. 2. 0. 4. 2. 4. 0. 2. 0. 0. 0. 4. 0. 4. 0. 4.
      12. 2. 6. 42. 8. 22. 0. 44. 2. 2. 0. 6. 2. 2. 0. 8. 2. 2. 0. 18.
      2. 6. 2. 0. 0. 0. 0. 2. 6. 0. 2. 4. 0. 6. 4. 12. 16. 48. 4. 30. 2.
      4. 4. 8. 2. 12. 0. 4. 0. 4. 2. 20. 32. 16. 8. 10. 0. 0. 2. 14. 8.
      14. 2. 30. 10. 24. 32. 94.</_>
    <_>
      66. 40. 6. 20. 22. 4. 18. 18. 10. 6. 0. 0. 6. 0. 16. 22. 42. 4. 0.
      4. 4. 0. 10. 0. 16. 0. 0. 2. 18. 2. 42. 12. 14. 0. 2. 0. 4. 4. 4.
      8. 0. 0. 0. 0. 2. 0. 4. 2. 4. 0. 4. 0. 8. 0. 2. 0. 14. 4. 0. 0.
      28. 4. 22. 4. 24. 2. 2. 8. 8. 0. 2. 2. 4. 0. 0. 0. 0. 0. 4. 2. 4.
      2. 0. 0. 2. 0. 0. 0. 2. 0. 0. 0. 4. 0. 0. 2. 14. 2. 6. 12. 4. 0.
      0. 2. 0. 0. 0. 0. 0. 0. 0. 0. 22. 2. 2. 2. 0. 0. 2. 2. 30. 0. 2.
      2. 14. 0. 16. 6. 18. 8. 0. 10. 2. 6. 0. 20. 4. 2. 0. 0. 0. 4. 0.
      12. 0. 2. 0. 0. 0. 0. 0. 2. 4. 0. 0. 0. 4. 2. 8. 14. 0. 0. 0. 2.
      0. 0. 0. 4. 0. 0. 0. 0. 0. 2. 0. 6. 2. 4. 2. 2. 2. 0. 0. 4. 0. 2.
      0. 4. 4. 4. 2. 22. 8. 24. 2. 26. 2. 6. 0. 2. 4. 4. 2. 8. 0. 2. 4.
      10. 4. 0. 0. 4. 2. 0. 0. 2. 4. 0. 0. 2. 0. 4. 4. 18. 12. 44. 2.
      14. 0. 0. 4. 14. 4. 6. 0. 6. 6. 8. 0. 26. 34. 14. 8. 6. 2. 0. 2.
      10. 16. 18. 2. 36. 10. 14. 34. 114.</_>
    <_>
      70. 26. 14. 20. 16. 0. 10. 10. 8. 0. 0. 2. 4. 6. 6. 12. 16. 8. 2.
      0. 4. 0. 8. 2. 8. 2. 0. 2. 6. 2. 12. 2. 10. 2. 8. 8. 4. 0. 2. 0.
      4. 0. 0. 0. 0. 0. 4. 2. 16. 0. 2. 2. 4. 0. 10. 6. 14. 2. 2. 2. 4.
      0. 14. 6. 26. 8. 4. 6. 4. 0. 2. 0. 0. 0. 0. 0. 4. 0. 2. 2. 4. 0.
      0. 0. 4. 0. 0. 0. 4. 0. 0. 0. 4. 0. 2. 4. 12. 4. 2. 6. 4. 0. 0. 4.
      2. 6. 0. 0. 0. 2. 2. 0. 16. 2. 4. 0. 4. 0. 0. 8. 40. 4. 2. 2. 24.
      2. 10. 12. 14. 12. 2. 14. 4. 4. 4. 48. 0. 2. 0. 0. 4. 4. 2. 14. 4.
      2. 0. 0. 6. 0. 0. 6. 0. 2. 2. 2. 0. 4. 8. 18. 0. 2. 0. 0. 0. 0. 0.
      8. 0. 0. 0. 0. 0. 0. 2. 6. 0. 2. 0. 2. 0. 0. 0. 2. 0. 2. 0. 0. 2.
      8. 10. 18. 10. 14. 2. 24. 4. 4. 6. 20. 0. 2. 0. 4. 2. 2. 0. 12. 4.
      4. 0. 6. 0. 2. 2. 2. 2. 2. 2. 4. 2. 2. 6. 14. 16. 40. 0. 28. 2. 0.
      4. 24. 4. 2. 0. 4. 0. 4. 0. 24. 18. 26. 4. 24. 2. 4. 4. 12. 22.
      16. 0. 30. 16. 16. 14. 142.</_>
    <_>
      74. 26. 12. 14. 14. 0. 10. 18. 8. 6. 2. 0. 6. 4. 14. 42. 20. 10.
      0. 2. 8. 0. 4. 2. 6. 0. 0. 0. 14. 4. 38. 22. 14. 10. 2. 2. 2. 0.
      0. 4. 0. 0. 0. 0. 0. 0. 2. 6. 8. 2. 6. 0. 4. 0. 2. 0. 10. 0. 2. 4.
      18. 0. 8. 10. 22. 6. 6. 12. 8. 0. 2. 6. 4. 0. 0. 0. 2. 0. 6. 0. 4.
      6. 0. 0. 0. 0. 0. 0. 6. 2. 0. 0. 4. 0. 2. 4. 4. 4. 2. 0. 0. 0. 6.
      2. 0. 0. 0. 0. 0. 0. 0. 6. 10. 6. 4. 2. 0. 0. 2. 0. 32. 0. 4. 4.
      18. 0. 10. 12. 12. 6. 0. 12. 2. 12. 6. 30. 4. 2. 0. 2. 2. 2. 2.
      26. 0. 6. 0. 6. 2. 0. 2. 6. 2. 4. 2. 0. 4. 2. 2. 12. 2. 0. 0. 0.
      0. 0. 0. 6. 0. 0. 0. 0. 0. 0. 0. 12. 2. 0. 0. 0. 0. 0. 0. 6. 4. 2.
      0. 4. 2. 6. 4. 18. 14. 8. 2. 26. 2. 4. 0. 8. 4. 2. 2. 6. 2. 4. 2.
      8. 14. 2. 0. 4. 0. 0. 0. 0. 0. 4. 2. 4. 2. 2. 4. 12. 20. 28. 0.
      12. 2. 4. 8. 14. 0. 6. 0. 6. 4. 6. 6. 20. 34. 20. 10. 20. 0. 4. 2.
      18. 16. 12. 4. 20. 6. 8. 36. 114.</_>
    <_>
      64. 20. 14. 6. 6. 2. 4. 20. 10. 2. 0. 0. 4. 2. 34. 48. 24. 14. 6.
      0. 6. 0. 2. 2. 6. 4. 2. 0. 12. 4. 56. 32. 14. 2. 2. 0. 4. 2. 0. 4.
      0. 0. 0. 0. 0. 0. 0. 4. 12. 2. 0. 0. 2. 0. 0. 4. 8. 0. 0. 2. 14.
      2. 8. 8. 12. 4. 4. 4. 4. 0. 0. 2. 0. 2. 0. 0. 0. 0. 0. 0. 2. 2. 0.
      0. 2. 0. 0. 4. 0. 2. 0. 0. 2. 0. 2. 0. 14. 4. 4. 2. 2. 0. 4. 2. 2.
      0. 0. 0. 0. 0. 0. 6. 22. 2. 2. 2. 6. 2. 0. 6. 30. 2. 2. 2. 10. 0.
      2. 6. 6. 6. 2. 8. 6. 0. 0. 20. 2. 0. 0. 2. 0. 2. 0. 10. 2. 2. 0.
      4. 0. 0. 0. 0. 2. 0. 0. 2. 6. 2. 6. 8. 0. 4. 0. 0. 0. 0. 0. 4. 0.
      0. 0. 4. 0. 0. 2. 2. 0. 0. 0. 2. 0. 0. 0. 8. 0. 4. 0. 6. 2. 6. 0.
      26. 4. 22. 0. 28. 2. 0. 0. 18. 2. 6. 0. 6. 2. 2. 2. 10. 0. 4. 0.
      2. 0. 4. 0. 4. 6. 0. 0. 0. 2. 4. 6. 24. 22. 64. 2. 30. 0. 6. 2.
      24. 2. 4. 0. 2. 0. 0. 0. 28. 46. 20. 2. 18. 8. 0. 4. 18. 20. 10.
      0. 32. 4. 20. 48. 120.</_>
    <_>
      102. 22. 16. 14. 12. 8. 18. 18. 16. 0. 2. 8. 20. 2. 4. 8. 18. 0.
      2. 0. 0. 2. 2. 2. 8. 2. 2. 2. 8. 0. 16. 12. 10. 6. 2. 4. 10. 0. 0.
      0. 4. 2. 0. 0. 0. 0. 0. 0. 8. 0. 0. 2. 10. 2. 4. 2. 4. 2. 0. 6.
      16. 2. 4. 8. 22. 4. 8. 4. 4. 2. 2. 2. 14. 2. 2. 2. 2. 0. 2. 0. 6.
      0. 4. 2. 4. 0. 0. 2. 2. 0. 2. 2. 2. 0. 6. 4. 14. 0. 4. 2. 4. 0. 4.
      2. 0. 2. 0. 0. 0. 2. 0. 6. 4. 4. 0. 4. 2. 0. 4. 0. 0. 4. 4. 4. 0.
      6. 10. 14. 8. 14. 0. 16. 8. 2. 2. 32. 2. 0. 0. 0. 0. 2. 2. 20. 2.
      2. 0. 4. 2. 2. 0. 6. 2. 2. 2. 0. 0. 0. 2. 2. 8. 2. 4. 0. 2. 0. 0.
      4. 0. 0. 0. 2. 0. 0. 0. 6. 2. 2. 0. 6. 0. 2. 4. 4. 0. 2. 0. 2. 4.
      4. 12. 18. 6. 22. 4. 18. 4. 2. 0. 14. 4. 2. 0. 6. 0. 4. 4. 20. 0.
      4. 0. 10. 0. 2. 2. 4. 6. 2. 2. 4. 2. 2. 2. 32. 10. 34. 0. 22. 6.
      6. 4. 22. 0. 2. 0. 12. 0. 0. 2. 22. 4. 12. 4. 16. 4. 4. 2. 18. 6.
      12. 2. 26. 12. 10. 12. 210.</_>
    <_>
      80. 30. 14. 2. 22. 4. 12. 14. 16. 6. 0. 0. 8. 2. 10. 20. 14. 6. 4.
      0. 2. 2. 6. 6. 2. 2. 0. 0. 14. 0. 20. 8. 14. 6. 6. 4. 6. 0. 2. 4.
      2. 0. 0. 0. 0. 2. 0. 0. 10. 6. 0. 2. 4. 2. 4. 2. 8. 4. 2. 2. 22.
      0. 16. 10. 20. 4. 4. 8. 4. 0. 0. 2. 2. 0. 0. 0. 0. 0. 0. 6. 0. 2.
      0. 0. 2. 0. 0. 0. 6. 0. 0. 0. 4. 0. 0. 6. 10. 6. 0. 8. 2. 4. 2. 0.
      0. 0. 0. 0. 0. 0. 0. 4. 12. 2. 2. 2. 2. 2. 2. 2. 32. 0. 4. 6. 10.
      8. 12. 20. 18. 2. 2. 6. 10. 8. 2. 18. 6. 0. 2. 2. 0. 4. 2. 14. 4.
      4. 0. 2. 0. 0. 0. 0. 0. 2. 0. 0. 8. 0. 8. 12. 2. 4. 0. 0. 0. 0. 0.
      6. 0. 2. 0. 2. 0. 0. 0. 10. 2. 2. 0. 0. 0. 2. 0. 4. 0. 0. 2. 6. 4.
      4. 6. 24. 12. 18. 0. 22. 2. 2. 0. 4. 0. 0. 0. 2. 2. 0. 4. 6. 4. 6.
      0. 2. 0. 0. 2. 2. 2. 2. 0. 6. 0. 4. 4. 18. 16. 32. 2. 12. 0. 2. 2.
      12. 8. 0. 0. 4. 0. 2. 2. 38. 60. 16. 4. 24. 2. 0. 2. 26. 22. 10.
      8. 16. 10. 22. 42. 138.</_>
    <_>
      94. 20. 4. 10. 24. 4. 12. 12. 14. 6. 4. 0. 18. 8. 8. 46. 28. 6. 6.
      0. 0. 0. 8. 4. 8. 0. 0. 4. 4. 0. 14. 10. 8. 6. 2. 8. 6. 0. 0. 2.
      0. 0. 2. 0. 0. 2. 4. 4. 8. 0. 0. 2. 2. 0. 2. 0. 8. 2. 0. 2. 14. 6.
      16. 14. 22. 6. 8. 4. 4. 2. 8. 0. 10. 0. 0. 0. 2. 0. 4. 4. 8. 2. 0.
      2. 0. 0. 0. 0. 6. 0. 0. 4. 2. 0. 2. 2. 6. 4. 2. 8. 2. 2. 0. 0. 2.
      0. 0. 0. 6. 0. 0. 0. 14. 0. 0. 0. 6. 2. 4. 4. 30. 0. 6. 2. 10. 0.
      12. 16. 16. 10. 2. 10. 4. 6. 0. 36. 4. 4. 0. 4. 0. 2. 2. 16. 6. 4.
      0. 6. 0. 0. 0. 2. 2. 6. 0. 2. 2. 2. 2. 24. 2. 4. 0. 2. 2. 0. 0. 0.
      0. 0. 0. 0. 0. 2. 0. 2. 2. 0. 0. 6. 0. 4. 0. 0. 0. 0. 0. 4. 2. 4.
      8. 30. 16. 6. 2. 20. 2. 4. 0. 16. 0. 0. 4. 6. 2. 2. 2. 12. 6. 0.
      0. 4. 0. 0. 0. 0. 2. 0. 0. 0. 2. 2. 2. 18. 8. 18. 2. 8. 6. 0. 0.
      32. 0. 0. 0. 4. 4. 4. 2. 40. 32. 6. 2. 20. 2. 2. 8. 18. 8. 18. 8.
      24. 12. 10. 14. 142.</_>
    <_>
      68. 14. 4. 14. 10. 6. 10. 26. 16. 2. 0. 2. 6. 2. 8. 64. 22. 4. 4.
      4. 4. 2. 6. 6. 6. 0. 0. 4. 14. 2. 14. 14. 16. 8. 2. 0. 4. 0. 4. 6.
      0. 0. 0. 0. 0. 0. 0. 2. 18. 2. 6. 0. 12. 0. 0. 0. 2. 2. 0. 2. 26.
      0. 16. 6. 20. 2. 0. 2. 6. 0. 0. 2. 2. 0. 0. 0. 0. 0. 0. 2. 8. 2.
      0. 0. 0. 0. 0. 0. 4. 0. 0. 0. 0. 0. 2. 0. 8. 2. 2. 6. 0. 0. 2. 4.
      0. 0. 0. 0. 0. 0. 2. 2. 20. 0. 4. 4. 2. 0. 2. 4. 8. 0. 6. 0. 8. 0.
      2. 6. 12. 26. 0. 22. 0. 6. 0. 20. 6. 0. 2. 0. 2. 8. 0. 32. 6. 2.
      0. 2. 2. 0. 0. 2. 4. 0. 0. 2. 2. 4. 2. 6. 2. 0. 0. 0. 0. 0. 0. 12.
      0. 0. 0. 0. 0. 0. 0. 6. 2. 0. 0. 2. 4. 0. 0. 0. 2. 2. 0. 4. 4. 0.
      6. 8. 18. 20. 2. 64. 0. 2. 0. 26. 0. 4. 2. 12. 0. 2. 4. 24. 8. 0.
      2. 6. 0. 0. 0. 4. 2. 4. 2. 0. 0. 6. 0. 14. 20. 22. 4. 26. 2. 2. 0.
      18. 2. 4. 0. 4. 2. 4. 2. 34. 48. 18. 8. 20. 0. 2. 8. 36. 22. 16.
      6. 20. 12. 16. 8. 92.</_>
    <_>
      106. 30. 18. 4. 14. 0. 2. 12. 12. 2. 2. 2. 10. 4. 4. 12. 16. 12.
      4. 4. 4. 0. 4. 2. 8. 6. 0. 2. 6. 6. 4. 12. 10. 0. 2. 0. 8. 0. 0.
      2. 4. 0. 0. 0. 4. 0. 0. 8. 14. 4. 0. 0. 12. 2. 2. 0. 18. 2. 2. 2.
      32. 6. 4. 2. 24. 2. 16. 14. 2. 2. 4. 2. 10. 0. 0. 0. 0. 0. 2. 4.
      6. 0. 0. 2. 0. 0. 0. 0. 8. 0. 0. 0. 2. 0. 4. 4. 12. 4. 2. 2. 10.
      0. 2. 2. 4. 0. 0. 4. 0. 0. 0. 4. 24. 2. 2. 0. 4. 0. 0. 0. 36. 0.
      8. 6. 8. 6. 16. 10. 18. 8. 0. 6. 4. 8. 4. 32. 2. 8. 0. 6. 0. 0. 0.
      8. 2. 2. 0. 0. 0. 0. 4. 4. 4. 6. 0. 2. 0. 4. 2. 4. 0. 2. 0. 2. 4.
      0. 0. 4. 0. 0. 0. 0. 0. 0. 0. 8. 0. 0. 2. 4. 0. 0. 2. 4. 2. 6. 0.
      10. 2. 8. 4. 16. 6. 14. 2. 16. 4. 4. 0. 8. 4. 2. 2. 2. 0. 0. 0.
      12. 4. 6. 0. 4. 0. 0. 0. 0. 2. 2. 0. 0. 2. 4. 6. 4. 8. 14. 2. 10.
      2. 2. 2. 12. 2. 0. 0. 0. 4. 0. 4. 32. 18. 30. 4. 8. 4. 6. 8. 24.
      14. 18. 4. 32. 10. 26. 18. 182.</_>
    <_>
      106. 26. 16. 12. 14. 2. 8. 10. 6. 4. 0. 0. 6. 2. 10. 20. 26. 4.
      10. 2. 2. 0. 2. 0. 6. 0. 0. 0. 20. 4. 10. 26. 22. 0. 2. 0. 8. 0.
      2. 2. 0. 0. 0. 0. 4. 0. 0. 2. 14. 2. 2. 2. 12. 2. 2. 2. 8. 0. 2.
      2. 32. 0. 2. 8. 12. 4. 14. 8. 2. 2. 2. 0. 4. 2. 0. 2. 8. 4. 0. 0.
      4. 4. 0. 0. 0. 0. 4. 0. 8. 0. 0. 0. 0. 0. 0. 2. 14. 6. 2. 6. 0. 0.
      0. 4. 2. 2. 0. 2. 2. 2. 2. 6. 12. 2. 2. 2. 4. 0. 0. 2. 22. 6. 14.
      8. 14. 0. 10. 6. 14. 16. 0. 14. 8. 8. 0. 46. 0. 0. 0. 0. 2. 4. 2.
      4. 8. 0. 0. 4. 2. 0. 0. 2. 0. 4. 0. 2. 4. 2. 8. 18. 0. 2. 2. 2. 2.
      0. 0. 18. 2. 0. 2. 0. 0. 0. 0. 4. 2. 2. 0. 4. 4. 0. 0. 14. 0. 4.
      0. 0. 6. 8. 12. 24. 6. 22. 0. 22. 0. 0. 0. 12. 2. 4. 2. 6. 4. 2.
      0. 12. 4. 0. 0. 2. 0. 0. 0. 0. 0. 2. 0. 10. 6. 4. 0. 24. 8. 10. 6.
      10. 2. 2. 2. 14. 2. 4. 0. 0. 2. 4. 14. 28. 22. 8. 2. 8. 4. 4. 4.
      14. 4. 14. 4. 26. 10. 16. 26. 134.</_>
    <_>
      112. 26. 12. 12. 4. 4. 12. 6. 12. 2. 2. 0. 4. 0. 10. 14. 16. 24.
      0. 2. 0. 0. 2. 2. 0. 2. 0. 0. 10. 2. 8. 10. 2. 4. 2. 0. 20. 2. 0.
      0. 0. 0. 4. 0. 2. 0. 0. 0. 14. 6. 2. 0. 8. 0. 0. 0. 2. 0. 0. 0.
      40. 4. 12. 6. 8. 0. 2. 12. 0. 0. 6. 2. 10. 4. 0. 4. 0. 0. 6. 4. 2.
      2. 0. 2. 0. 0. 0. 0. 14. 0. 2. 0. 2. 0. 0. 4. 6. 4. 2. 4. 0. 0. 6.
      2. 0. 0. 0. 0. 0. 0. 2. 6. 12. 4. 4. 0. 0. 2. 4. 2. 14. 0. 6. 4.
      10. 4. 8. 10. 12. 14. 2. 8. 16. 8. 2. 52. 2. 0. 0. 0. 4. 2. 4. 8.
      4. 8. 0. 2. 0. 2. 2. 6. 2. 0. 2. 4. 4. 2. 2. 14. 2. 2. 2. 0. 0. 0.
      0. 14. 0. 0. 0. 0. 0. 0. 6. 4. 0. 2. 0. 2. 2. 0. 2. 8. 0. 4. 0. 0.
      10. 4. 8. 20. 8. 12. 4. 14. 4. 2. 2. 8. 2. 6. 0. 4. 2. 0. 0. 16.
      2. 10. 0. 2. 0. 0. 2. 4. 2. 0. 0. 4. 0. 2. 0. 28. 28. 32. 2. 18.
      2. 4. 4. 24. 0. 2. 0. 6. 2. 10. 6. 14. 20. 24. 10. 22. 4. 6. 0.
      22. 16. 12. 2. 22. 8. 24. 14. 146.</_>
    <_>
      84. 12. 12. 2. 18. 2. 4. 16. 18. 8. 2. 2. 12. 10. 24. 50. 18. 10.
      8. 2. 2. 0. 8. 0. 6. 4. 2. 2. 12. 2. 52. 36. 12. 2. 6. 0. 8. 0. 0.
      4. 0. 0. 0. 0. 4. 0. 2. 4. 8. 0. 2. 2. 6. 0. 4. 0. 10. 0. 0. 4.
      26. 4. 12. 24. 22. 0. 2. 10. 8. 0. 2. 0. 2. 2. 2. 0. 0. 0. 0. 4.
      6. 0. 2. 0. 0. 0. 0. 0. 10. 4. 0. 0. 0. 2. 4. 6. 0. 8. 2. 0. 4. 2.
      0. 0. 0. 0. 0. 2. 0. 0. 2. 2. 10. 8. 0. 2. 0. 0. 0. 0. 32. 4. 8.
      2. 18. 4. 16. 12. 6. 6. 0. 12. 6. 2. 2. 22. 2. 2. 0. 4. 2. 6. 2.
      8. 6. 2. 0. 0. 0. 2. 0. 0. 0. 2. 0. 0. 2. 0. 4. 14. 2. 2. 0. 2. 0.
      0. 2. 6. 2. 0. 0. 0. 0. 2. 0. 0. 0. 2. 0. 2. 0. 4. 0. 2. 2. 0. 2.
      0. 4. 0. 2. 12. 8. 8. 0. 24. 4. 2. 0. 14. 2. 0. 0. 10. 0. 0. 4.
      12. 8. 2. 0. 0. 0. 0. 0. 4. 4. 0. 2. 2. 4. 2. 4. 6. 8. 28. 0. 6.
      2. 2. 0. 6. 2. 2. 0. 6. 2. 2. 4. 32. 26. 28. 4. 6. 0. 2. 0. 14.
      12. 10. 6. 20. 2. 24. 38. 174.</_>
    <_>
      112. 30. 14. 14. 12. 4. 0. 14. 18. 0. 4. 0. 8. 4. 8. 8. 16. 8. 8.
      2. 0. 0. 4. 6. 6. 2. 2. 2. 2. 0. 8. 6. 10. 4. 0. 2. 10. 0. 4. 2.
      2. 0. 0. 0. 4. 0. 2. 6. 6. 2. 0. 4. 4. 0. 2. 0. 8. 0. 2. 0. 16. 0.
      2. 4. 10. 2. 10. 4. 4. 0. 2. 2. 10. 0. 4. 4. 2. 2. 0. 4. 4. 6. 0.
      0. 4. 0. 0. 4. 4. 2. 4. 0. 4. 0. 2. 6. 8. 8. 8. 2. 2. 2. 2. 2. 0.
      0. 2. 0. 2. 0. 4. 6. 8. 4. 6. 2. 2. 2. 4. 2. 4. 2. 4. 14. 18. 4.
      6. 20. 16. 10. 2. 4. 2. 2. 8. 28. 6. 0. 2. 6. 4. 2. 0. 14. 2. 2.
      2. 2. 0. 4. 0. 4. 6. 2. 0. 4. 0. 2. 0. 6. 2. 6. 0. 4. 0. 2. 2. 8.
      0. 0. 0. 2. 0. 0. 0. 4. 4. 4. 2. 0. 0. 0. 0. 4. 4. 0. 4. 6. 4. 4.
      4. 12. 4. 26. 6. 10. 4. 0. 2. 14. 2. 4. 2. 2. 0. 2. 4. 12. 2. 4.
      0. 4. 0. 0. 2. 4. 6. 0. 0. 10. 2. 4. 8. 20. 6. 30. 6. 10. 0. 0. 4.
      12. 2. 10. 4. 6. 4. 2. 4. 26. 10. 20. 6. 22. 2. 6. 12. 14. 6. 12.
      2. 16. 14. 22. 12. 214.</_>
    <_>
      52. 26. 6. 4. 16. 2. 2. 12. 12. 6. 0. 0. 12. 8. 22. 18. 32. 4. 6.
      4. 4. 2. 6. 0. 12. 2. 2. 0. 18. 0. 28. 18. 10. 0. 0. 0. 0. 0. 0.
      0. 2. 0. 0. 2. 0. 0. 0. 8. 6. 4. 0. 2. 2. 0. 2. 0. 6. 2. 4. 0. 2.
      8. 10. 30. 22. 2. 2. 2. 12. 2. 2. 2. 0. 0. 0. 0. 8. 0. 4. 4. 2. 2.
      0. 0. 0. 0. 0. 2. 6. 0. 0. 0. 0. 0. 2. 6. 4. 10. 4. 2. 6. 0. 2. 2.
      0. 0. 0. 0. 0. 2. 2. 2. 12. 4. 0. 4. 4. 0. 0. 4. 28. 2. 0. 2. 12.
      6. 10. 24. 6. 12. 0. 14. 2. 4. 2. 22. 0. 2. 0. 0. 0. 4. 2. 24. 2.
      4. 0. 2. 2. 2. 0. 2. 0. 0. 0. 0. 4. 2. 10. 14. 0. 4. 0. 0. 2. 2.
      0. 2. 0. 0. 0. 2. 0. 0. 0. 4. 0. 0. 0. 0. 0. 0. 0. 2. 0. 2. 0. 2.
      2. 0. 2. 24. 10. 6. 2. 22. 4. 0. 2. 6. 0. 4. 0. 0. 2. 0. 2. 8. 0.
      2. 0. 0. 2. 0. 0. 6. 2. 2. 0. 2. 0. 2. 0. 22. 16. 16. 2. 20. 8. 2.
      0. 14. 0. 6. 0. 0. 0. 2. 4. 38. 22. 36. 4. 6. 6. 8. 4. 10. 14. 14.
      2. 36. 10. 18. 44. 244.</_>
    <_>
      122. 30. 10. 2. 20. 4. 8. 16. 12. 10. 2. 4. 12. 2. 14. 10. 14. 8.
      6. 2. 2. 0. 4. 4. 8. 2. 0. 0. 6. 2. 14. 24. 8. 2. 4. 2. 6. 4. 8.
      0. 2. 0. 0. 0. 2. 0. 2. 2. 8. 2. 2. 4. 4. 0. 0. 2. 4. 0. 0. 2. 36.
      0. 10. 10. 26. 2. 8. 10. 2. 2. 2. 6. 8. 0. 0. 0. 0. 0. 2. 10. 8.
      4. 0. 2. 0. 0. 0. 0. 4. 4. 0. 0. 6. 0. 0. 2. 16. 0. 2. 2. 0. 0. 2.
      6. 4. 0. 0. 0. 2. 2. 2. 6. 6. 4. 2. 2. 0. 0. 0. 0. 14. 0. 6. 0. 2.
      0. 6. 12. 12. 22. 4. 4. 4. 14. 2. 38. 2. 0. 0. 2. 0. 4. 0. 6. 2.
      4. 0. 2. 0. 0. 2. 6. 0. 2. 0. 4. 0. 0. 4. 10. 4. 2. 0. 6. 2. 2. 2.
      12. 2. 0. 0. 6. 0. 0. 0. 0. 4. 2. 0. 8. 4. 0. 2. 2. 0. 0. 0. 6. 2.
      6. 0. 14. 14. 8. 2. 30. 4. 8. 2. 12. 4. 0. 2. 8. 0. 0. 0. 14. 4.
      0. 2. 6. 0. 0. 0. 0. 0. 2. 0. 4. 0. 2. 2. 22. 14. 22. 2. 2. 4. 2.
      0. 12. 0. 4. 4. 8. 2. 6. 6. 36. 16. 16. 6. 10. 2. 6. 4. 14. 0. 18.
      6. 34. 6. 10. 12. 188.</_>
    <_>
      68. 38. 8. 12. 10. 2. 4. 14. 12. 2. 2. 2. 4. 2. 40. 56. 34. 14. 4.
      2. 4. 2. 4. 8. 4. 2. 0. 2. 20. 4. 100. 72. 4. 4. 0. 2. 6. 0. 6. 2.
      2. 0. 0. 0. 0. 0. 2. 0. 2. 2. 0. 2. 12. 2. 2. 0. 6. 4. 2. 0. 16.
      0. 24. 8. 24. 0. 8. 8. 10. 0. 0. 4. 0. 0. 2. 2. 0. 0. 2. 0. 2. 0.
      0. 0. 0. 2. 0. 0. 0. 0. 2. 0. 2. 0. 4. 2. 4. 0. 0. 0. 0. 0. 0. 0.
      2. 0. 2. 0. 4. 0. 0. 2. 4. 0. 2. 0. 0. 0. 0. 2. 38. 2. 6. 4. 2. 0.
      6. 8. 8. 16. 4. 16. 6. 10. 6. 32. 0. 0. 0. 2. 0. 0. 0. 16. 2. 2.
      0. 2. 0. 0. 0. 0. 0. 0. 0. 2. 2. 0. 0. 18. 0. 0. 0. 0. 0. 0. 2. 8.
      0. 0. 0. 0. 0. 0. 0. 0. 0. 2. 2. 0. 0. 2. 0. 6. 0. 0. 0. 6. 4. 2.
      0. 20. 10. 16. 0. 46. 0. 2. 2. 16. 0. 0. 0. 8. 0. 2. 2. 22. 0. 2.
      0. 0. 0. 0. 0. 2. 4. 2. 0. 6. 0. 2. 0. 6. 10. 48. 2. 6. 2. 6. 0.
      8. 0. 0. 0. 0. 6. 0. 14. 46. 18. 22. 0. 4. 0. 4. 0. 10. 4. 0. 4.
      26. 4. 8. 28. 116.</_>
    <_>
      68. 30. 2. 14. 8. 4. 4. 18. 14. 4. 0. 0. 2. 8. 14. 84. 16. 2. 10.
      2. 6. 2. 2. 4. 6. 0. 0. 0. 10. 2. 12. 10. 10. 6. 10. 2. 0. 2. 0.
      4. 2. 0. 0. 2. 0. 2. 0. 4. 8. 0. 0. 2. 6. 0. 6. 0. 2. 0. 2. 4. 10.
      0. 16. 6. 12. 2. 2. 6. 0. 0. 4. 0. 6. 0. 0. 0. 4. 0. 0. 2. 2. 0.
      2. 0. 2. 0. 0. 0. 2. 0. 0. 0. 0. 0. 2. 4. 18. 2. 2. 4. 2. 0. 0. 2.
      0. 0. 0. 0. 0. 0. 4. 6. 22. 2. 2. 0. 0. 2. 0. 4. 10. 0. 2. 0. 2.
      0. 10. 16. 14. 20. 0. 14. 2. 4. 2. 28. 4. 2. 0. 6. 0. 4. 2. 32. 2.
      4. 0. 4. 0. 0. 0. 10. 6. 0. 0. 0. 2. 2. 4. 16. 2. 8. 0. 0. 0. 0.
      2. 4. 0. 0. 0. 0. 0. 0. 0. 2. 0. 6. 0. 6. 0. 0. 0. 6. 0. 2. 0. 0.
      6. 2. 4. 16. 16. 32. 2. 30. 0. 2. 2. 32. 4. 0. 0. 2. 2. 0. 4. 14.
      14. 2. 2. 0. 2. 0. 0. 0. 6. 2. 0. 2. 0. 2. 6. 10. 18. 54. 4. 32.
      2. 4. 0. 30. 0. 2. 0. 0. 2. 4. 4. 24. 58. 22. 8. 24. 0. 2. 2. 16.
      18. 14. 4. 16. 12. 10. 18. 96.</_>
    <_>
      62. 32. 20. 20. 22. 4. 16. 14. 4. 2. 0. 0. 12. 4. 16. 44. 34. 6.
      2. 2. 4. 0. 6. 0. 6. 4. 0. 0. 32. 0. 40. 18. 16. 4. 4. 2. 6. 0. 0.
      2. 0. 0. 0. 0. 2. 0. 4. 2. 18. 2. 2. 0. 6. 0. 6. 0. 20. 2. 2. 0.
      50. 2. 18. 10. 14. 2. 0. 8. 0. 2. 6. 2. 2. 0. 0. 0. 2. 0. 0. 6. 2.
      0. 0. 0. 0. 0. 0. 0. 2. 0. 2. 0. 0. 0. 0. 0. 12. 6. 2. 4. 2. 0. 0.
      0. 0. 2. 0. 0. 0. 0. 2. 6. 32. 2. 0. 0. 0. 0. 0. 2. 20. 2. 0. 6.
      26. 0. 12. 6. 2. 8. 0. 2. 2. 0. 0. 16. 2. 0. 0. 0. 2. 0. 2. 16. 0.
      4. 0. 4. 0. 2. 0. 0. 0. 0. 0. 2. 2. 0. 6. 6. 0. 0. 0. 0. 0. 0. 0.
      0. 0. 0. 0. 0. 0. 0. 0. 6. 0. 2. 0. 0. 0. 0. 2. 6. 0. 2. 0. 4. 4.
      6. 8. 16. 6. 36. 0. 22. 0. 0. 0. 2. 0. 2. 0. 8. 2. 0. 2. 4. 6. 0.
      0. 2. 0. 0. 0. 0. 6. 0. 2. 0. 0. 0. 10. 22. 28. 64. 4. 22. 0. 2.
      6. 10. 0. 8. 0. 12. 0. 10. 0. 28. 48. 18. 10. 12. 2. 0. 2. 8. 16.
      24. 2. 16. 26. 12. 22. 90.</_>
    <_>
      50. 38. 16. 20. 8. 0. 14. 26. 4. 2. 0. 2. 8. 6. 30. 60. 36. 6. 8.
      2. 4. 0. 10. 0. 6. 4. 4. 0. 26. 4. 96. 42. 14. 4. 2. 2. 0. 0. 2.
      2. 0. 0. 0. 0. 0. 2. 2. 4. 10. 0. 2. 0. 0. 0. 2. 0. 22. 2. 2. 2.
      24. 0. 18. 4. 8. 6. 0. 2. 4. 0. 0. 2. 4. 2. 0. 0. 0. 0. 0. 0. 2.
      0. 0. 0. 0. 0. 0. 0. 2. 0. 0. 0. 2. 0. 2. 2. 22. 8. 2. 4. 0. 0. 2.
      2. 0. 2. 0. 0. 0. 0. 0. 6. 20. 2. 0. 0. 2. 0. 0. 0. 20. 0. 2. 0.
      16. 4. 4. 12. 6. 4. 2. 12. 0. 0. 8. 24. 2. 0. 0. 0. 0. 0. 0. 12.
      0. 0. 0. 2. 0. 0. 2. 0. 0. 0. 0. 0. 2. 0. 12. 16. 0. 2. 0. 0. 0.
      0. 0. 0. 0. 0. 0. 0. 0. 0. 0. 2. 2. 0. 0. 0. 0. 0. 0. 0. 0. 0. 0.
      2. 8. 2. 6. 12. 6. 26. 0. 46. 0. 2. 0. 8. 2. 4. 0. 6. 0. 0. 4. 26.
      0. 2. 0. 2. 0. 0. 0. 0. 0. 0. 0. 4. 2. 4. 8. 24. 12. 78. 2. 18. 0.
      2. 2. 2. 2. 12. 0. 0. 4. 8. 8. 26. 46. 20. 0. 6. 0. 0. 6. 2. 10.
      8. 0. 10. 18. 10. 38. 80.</_>
    <_>
      110. 22. 8. 16. 20. 4. 6. 12. 6. 2. 0. 8. 14. 2. 30. 16. 12. 12.
      4. 8. 6. 0. 0. 0. 18. 2. 0. 0. 16. 2. 32. 52. 2. 2. 4. 0. 0. 0. 2.
      2. 2. 2. 0. 0. 2. 4. 2. 4. 4. 4. 6. 4. 8. 0. 2. 0. 0. 0. 0. 2. 18.
      0. 10. 14. 12. 8. 4. 6. 0. 0. 8. 4. 4. 0. 2. 2. 2. 0. 6. 0. 6. 0.
      2. 2. 0. 2. 0. 2. 0. 2. 0. 0. 0. 2. 2. 6. 8. 4. 4. 0. 0. 0. 4. 0.
      2. 0. 0. 0. 0. 2. 0. 0. 2. 0. 6. 0. 0. 0. 0. 4. 44. 0. 10. 6. 6.
      0. 10. 12. 18. 18. 2. 8. 8. 2. 6. 32. 4. 2. 0. 2. 2. 0. 2. 10. 2.
      4. 0. 2. 0. 2. 0. 4. 0. 2. 0. 4. 0. 6. 4. 8. 0. 4. 0. 0. 0. 0. 2.
      18. 0. 0. 0. 0. 0. 0. 0. 2. 2. 2. 0. 2. 0. 0. 0. 10. 2. 2. 0. 4.
      2. 6. 4. 22. 2. 12. 2. 48. 4. 2. 0. 14. 4. 2. 2. 4. 8. 6. 8. 18.
      2. 4. 0. 4. 2. 0. 0. 2. 2. 0. 2. 6. 2. 2. 4. 14. 6. 18. 0. 16. 4.
      4. 2. 14. 2. 0. 0. 2. 0. 2. 14. 14. 10. 8. 0. 14. 0. 12. 0. 10. 6.
      8. 2. 20. 4. 2. 20. 186.</_>
    <_>
      90. 14. 8. 10. 24. 8. 8. 20. 14. 2. 4. 2. 10. 2. 4. 14. 26. 10. 0.
      2. 2. 0. 6. 4. 14. 4. 0. 0. 4. 0. 10. 12. 20. 6. 0. 0. 2. 2. 2. 0.
      2. 0. 0. 0. 4. 0. 2. 2. 12. 2. 2. 0. 10. 0. 0. 2. 14. 0. 0. 4. 26.
      0. 16. 8. 32. 4. 8. 10. 8. 0. 4. 2. 6. 0. 0. 2. 0. 0. 2. 6. 2. 0.
      0. 0. 0. 0. 0. 0. 20. 2. 0. 0. 4. 0. 0. 2. 10. 0. 2. 0. 0. 0. 0.
      4. 2. 0. 0. 0. 0. 0. 0. 2. 22. 4. 4. 2. 2. 2. 2. 0. 16. 4. 8. 8.
      20. 0. 10. 4. 8. 14. 2. 10. 10. 10. 0. 36. 0. 2. 0. 2. 0. 2. 6.
      12. 6. 4. 2. 6. 0. 0. 2. 0. 0. 2. 2. 2. 0. 6. 6. 8. 0. 2. 0. 4. 0.
      0. 0. 16. 0. 0. 0. 2. 0. 0. 2. 8. 0. 0. 0. 2. 2. 0. 0. 4. 2. 2. 0.
      0. 18. 0. 4. 18. 18. 14. 2. 40. 0. 2. 2. 10. 2. 4. 0. 2. 2. 0. 0.
      8. 0. 2. 6. 2. 2. 0. 0. 2. 0. 2. 0. 2. 0. 6. 4. 12. 10. 32. 2. 6.
      0. 2. 0. 12. 0. 2. 0. 6. 2. 4. 2. 36. 20. 30. 2. 12. 8. 2. 4. 28.
      12. 10. 4. 22. 10. 20. 20. 148.</_>
    <_>
      54. 14. 12. 12. 10. 6. 12. 8. 30. 0. 12. 0. 6. 10. 32. 26. 14. 12.
      6. 0. 10. 0. 2. 14. 4. 2. 6. 6. 12. 4. 28. 46. 8. 0. 2. 2. 2. 0.
      0. 2. 4. 4. 6. 2. 0. 4. 2. 4. 6. 0. 0. 0. 2. 2. 4. 4. 2. 0. 8. 4.
      4. 2. 32. 16. 2. 2. 2. 0. 2. 0. 0. 4. 2. 0. 0. 2. 0. 0. 8. 4. 0.
      2. 0. 0. 2. 2. 4. 8. 0. 0. 0. 2. 0. 4. 2. 24. 0. 0. 2. 0. 0. 2. 0.
      2. 0. 2. 4. 0. 2. 0. 4. 4. 10. 2. 6. 0. 2. 0. 0. 30. 16. 6. 8. 4.
      6. 2. 16. 30. 8. 2. 0. 6. 4. 6. 2. 6. 0. 0. 10. 8. 4. 2. 14. 46.
      2. 0. 0. 0. 0. 0. 4. 2. 0. 0. 0. 2. 0. 4. 8. 12. 4. 0. 0. 0. 0. 0.
      0. 4. 2. 2. 0. 0. 2. 0. 2. 6. 0. 2. 0. 0. 0. 0. 0. 4. 0. 0. 4. 0.
      2. 0. 4. 20. 2. 12. 0. 0. 0. 0. 0. 4. 0. 2. 0. 2. 0. 2. 6. 8. 0.
      0. 0. 2. 0. 2. 0. 6. 0. 2. 0. 4. 0. 42. 10. 36. 4. 4. 0. 34. 0. 0.
      0. 10. 0. 4. 0. 6. 6. 2. 4. 40. 10. 4. 6. 8. 2. 2. 6. 26. 40. 2.
      6. 8. 2. 20. 32. 152.</_>
    <_>
      92. 14. 16. 8. 18. 2. 2. 8. 14. 8. 0. 2. 14. 4. 4. 28. 12. 4. 0.
      0. 8. 0. 4. 0. 10. 0. 2. 0. 8. 0. 2. 14. 18. 2. 8. 2. 2. 2. 2. 2.
      2. 6. 2. 0. 6. 0. 0. 4. 8. 0. 10. 2. 4. 0. 6. 2. 12. 6. 2. 4. 28.
      2. 10. 4. 26. 6. 0. 6. 4. 2. 0. 4. 6. 0. 4. 2. 2. 2. 0. 2. 8. 2.
      4. 0. 0. 2. 0. 0. 0. 4. 0. 2. 0. 0. 0. 0. 6. 4. 0. 6. 6. 4. 2. 6.
      6. 4. 0. 0. 2. 0. 0. 6. 14. 4. 4. 2. 0. 0. 8. 6. 14. 4. 4. 0. 6.
      4. 6. 28. 20. 8. 8. 12. 8. 4. 2. 8. 4. 4. 4. 4. 4. 4. 2. 4. 4. 0.
      4. 6. 2. 2. 0. 2. 2. 0. 6. 2. 4. 0. 0. 4. 8. 0. 0. 2. 0. 0. 0. 4.
      4. 2. 0. 2. 2. 2. 0. 8. 4. 6. 2. 8. 0. 0. 0. 4. 0. 2. 0. 0. 0. 2.
      6. 14. 6. 12. 0. 50. 2. 4. 2. 4. 0. 0. 2. 2. 2. 2. 2. 16. 12. 4.
      4. 4. 2. 4. 0. 12. 6. 0. 0. 2. 4. 8. 6. 18. 10. 6. 0. 16. 4. 2. 4.
      10. 4. 2. 2. 6. 0. 2. 8. 22. 28. 6. 0. 8. 2. 6. 4. 26. 14. 6. 14.
      20. 8. 26. 24. 166.</_>
    <_>
      58. 16. 0. 14. 6. 2. 6. 24. 10. 8. 0. 0. 20. 10. 16. 52. 30. 4. 2.
      0. 4. 2. 2. 2. 12. 0. 0. 0. 42. 0. 48. 16. 16. 0. 2. 0. 0. 0. 2.
      0. 0. 0. 0. 0. 0. 0. 0. 2. 16. 0. 6. 2. 2. 2. 4. 0. 22. 0. 0. 4.
      14. 0. 26. 24. 20. 2. 0. 0. 0. 0. 0. 2. 0. 0. 0. 0. 0. 0. 0. 2. 8.
      0. 0. 0. 0. 0. 0. 0. 10. 0. 0. 0. 4. 2. 4. 0. 12. 2. 2. 2. 2. 0.
      0. 0. 2. 4. 0. 0. 2. 0. 0. 0. 34. 6. 2. 2. 2. 0. 0. 4. 48. 0. 12.
      0. 22. 0. 18. 20. 2. 8. 0. 8. 0. 2. 2. 12. 0. 2. 0. 2. 0. 2. 4.
      10. 6. 2. 0. 2. 0. 0. 0. 0. 2. 2. 0. 2. 4. 2. 4. 4. 2. 0. 0. 2. 2.
      0. 0. 4. 2. 2. 0. 0. 0. 0. 0. 10. 0. 6. 2. 0. 0. 0. 0. 2. 0. 4. 0.
      0. 6. 4. 2. 12. 14. 16. 2. 10. 0. 0. 0. 2. 0. 4. 0. 0. 2. 2. 0. 6.
      8. 0. 0. 0. 0. 0. 0. 2. 2. 4. 0. 2. 0. 0. 6. 6. 22. 34. 2. 4. 0.
      6. 2. 18. 2. 8. 0. 2. 0. 4. 2. 20. 62. 40. 4. 22. 2. 0. 0. 14. 28.
      10. 2. 16. 20. 26. 46. 114.</_>
    <_>
      62. 6. 18. 2. 6. 2. 2. 12. 10. 4. 2. 0. 0. 0. 16. 12. 10. 8. 0. 4.
      0. 0. 0. 4. 2. 4. 0. 0. 14. 4. 14. 18. 12. 0. 6. 0. 4. 0. 2. 0. 6.
      0. 0. 0. 2. 0. 2. 0. 4. 0. 4. 0. 2. 0. 0. 2. 12. 2. 6. 2. 20. 0.
      6. 12. 6. 8. 2. 0. 12. 8. 6. 0. 2. 0. 0. 0. 0. 0. 0. 6. 2. 4. 2.
      2. 0. 2. 0. 2. 2. 0. 0. 0. 0. 0. 4. 4. 6. 0. 2. 0. 0. 2. 0. 2. 2.
      0. 0. 0. 0. 2. 4. 4. 10. 2. 0. 6. 2. 0. 4. 0. 10. 0. 0. 2. 24. 16.
      22. 26. 10. 2. 2. 10. 2. 0. 2. 10. 0. 4. 2. 0. 2. 0. 0. 20. 0. 2.
      0. 0. 0. 0. 2. 0. 2. 0. 0. 0. 0. 0. 0. 8. 4. 0. 0. 4. 0. 0. 0. 4.
      4. 2. 0. 0. 0. 0. 2. 2. 0. 0. 0. 0. 0. 0. 0. 2. 4. 0. 2. 6. 2. 0.
      6. 30. 12. 14. 2. 24. 4. 4. 4. 20. 0. 0. 0. 2. 0. 4. 2. 12. 0. 6.
      0. 0. 2. 2. 0. 6. 0. 0. 0. 0. 2. 6. 0. 38. 12. 16. 2. 8. 0. 0. 2.
      14. 2. 2. 0. 2. 2. 0. 2. 24. 6. 18. 0. 8. 2. 10. 0. 26. 16. 16. 6.
      26. 16. 34. 36. 376.</_>
    <_>
      72. 18. 2. 4. 16. 10. 2. 2. 6. 2. 0. 0. 4. 2. 4. 16. 24. 8. 0. 2.
      4. 0. 0. 4. 6. 2. 0. 0. 2. 0. 6. 14. 18. 0. 4. 0. 2. 0. 0. 0. 4.
      0. 0. 0. 0. 0. 0. 0. 6. 0. 2. 0. 4. 0. 2. 0. 10. 4. 2. 2. 12. 0.
      6. 4. 32. 4. 2. 0. 16. 2. 4. 2. 2. 0. 0. 0. 4. 0. 0. 0. 6. 2. 0.
      0. 2. 0. 0. 0. 4. 0. 0. 2. 0. 2. 2. 4. 16. 0. 2. 4. 8. 2. 0. 0. 4.
      0. 0. 2. 0. 0. 0. 4. 12. 4. 2. 0. 2. 0. 0. 0. 24. 8. 6. 2. 6. 6.
      2. 8. 14. 14. 2. 12. 2. 4. 0. 36. 4. 0. 2. 2. 0. 6. 0. 6. 4. 2. 0.
      4. 0. 0. 0. 4. 0. 0. 0. 0. 0. 0. 0. 6. 4. 2. 2. 2. 0. 0. 0. 4. 2.
      0. 0. 2. 0. 0. 0. 4. 10. 2. 0. 2. 0. 2. 0. 2. 2. 2. 2. 6. 2. 0. 0.
      8. 6. 18. 0. 42. 0. 2. 2. 22. 0. 2. 0. 0. 0. 4. 2. 2. 6. 2. 0. 4.
      0. 0. 0. 0. 2. 0. 0. 2. 0. 4. 0. 8. 24. 34. 8. 26. 0. 0. 0. 22. 2.
      2. 6. 6. 2. 0. 2. 28. 22. 20. 2. 12. 6. 12. 0. 30. 12. 18. 2. 56.
      10. 16. 16. 326.</_>
    <_>
      44. 18. 2. 14. 4. 0. 16. 62. 4. 0. 0. 0. 20. 2. 18. 30. 12. 2. 2.
      4. 4. 0. 4. 2. 14. 4. 0. 0. 26. 0. 42. 12. 4. 2. 0. 2. 2. 0. 0. 2.
      0. 0. 0. 0. 0. 0. 0. 0. 20. 0. 2. 0. 0. 0. 2. 0. 16. 6. 0. 2. 28.
      2. 36. 18. 18. 2. 2. 2. 10. 0. 0. 0. 0. 0. 0. 0. 0. 0. 0. 0. 6. 0.
      0. 0. 2. 0. 0. 0. 0. 0. 0. 0. 2. 0. 2. 0. 14. 0. 0. 2. 0. 0. 2. 0.
      4. 0. 0. 0. 0. 0. 0. 0. 18. 0. 0. 2. 0. 0. 0. 4. 30. 0. 4. 0. 42.
      2. 16. 16. 6. 18. 0. 16. 0. 2. 0. 46. 2. 0. 0. 4. 2. 0. 0. 40. 0.
      0. 2. 0. 0. 0. 0. 0. 0. 0. 0. 0. 2. 0. 0. 18. 2. 0. 0. 2. 0. 0. 0.
      0. 0. 0. 0. 0. 0. 0. 0. 6. 0. 2. 0. 0. 0. 0. 0. 2. 0. 0. 0. 0. 2.
      2. 6. 20. 16. 46. 0. 40. 2. 4. 0. 66. 2. 2. 0. 6. 0. 2. 2. 26. 0.
      4. 2. 6. 0. 0. 0. 2. 4. 2. 0. 2. 2. 2. 4. 14. 22. 26. 2. 28. 0. 0.
      0. 24. 0. 2. 0. 4. 4. 4. 2. 28. 22. 18. 0. 22. 0. 0. 2. 10. 24.
      22. 2. 2. 22. 2. 20. 86.</_>
    <_>
      92. 26. 12. 4. 34. 0. 12. 12. 14. 0. 2. 0. 10. 0. 4. 10. 8. 14. 0.
      2. 2. 2. 0. 0. 2. 0. 2. 0. 6. 0. 18. 20. 14. 2. 0. 4. 10. 0. 2. 0.
      2. 0. 0. 0. 0. 0. 0. 0. 12. 0. 2. 0. 16. 0. 8. 2. 8. 0. 0. 0. 32.
      6. 6. 4. 34. 6. 8. 8. 4. 2. 2. 0. 8. 0. 2. 0. 0. 0. 0. 0. 4. 2. 2.
      0. 0. 0. 0. 0. 14. 0. 0. 0. 2. 0. 0. 2. 16. 2. 2. 4. 6. 2. 0. 0.
      0. 0. 2. 0. 0. 0. 2. 2. 10. 4. 0. 2. 4. 0. 0. 2. 16. 2. 16. 8. 2.
      0. 8. 8. 18. 22. 2. 14. 12. 10. 2. 40. 4. 0. 2. 4. 0. 2. 2. 6. 0.
      4. 0. 0. 0. 0. 0. 2. 2. 0. 0. 0. 0. 0. 0. 22. 0. 4. 0. 8. 2. 6. 0.
      12. 0. 0. 0. 0. 0. 0. 0. 2. 2. 6. 0. 6. 4. 6. 0. 16. 0. 2. 0. 2.
      10. 4. 2. 16. 14. 34. 4. 28. 0. 2. 4. 12. 2. 0. 2. 8. 4. 0. 0. 4.
      2. 0. 0. 0. 0. 0. 0. 0. 0. 6. 0. 12. 0. 4. 2. 18. 20. 30. 0. 20.
      4. 2. 0. 24. 4. 4. 2. 0. 4. 2. 6. 34. 6. 18. 2. 20. 0. 4. 0. 24.
      10. 16. 4. 44. 6. 20. 18. 120.</_>
    <_>
      70. 28. 12. 12. 18. 4. 12. 24. 6. 0. 0. 0. 8. 2. 4. 10. 12. 2. 4.
      2. 6. 0. 4. 0. 4. 0. 0. 2. 14. 0. 20. 4. 8. 6. 2. 2. 6. 0. 6. 6.
      0. 0. 0. 0. 2. 0. 2. 0. 10. 2. 4. 0. 2. 0. 16. 2. 4. 2. 2. 0. 10.
      2. 20. 2. 10. 6. 6. 4. 0. 0. 2. 4. 4. 0. 0. 0. 0. 0. 0. 0. 2. 0.
      0. 0. 0. 0. 0. 2. 6. 0. 0. 2. 0. 0. 0. 2. 8. 2. 2. 6. 2. 2. 0. 0.
      0. 0. 0. 0. 0. 0. 2. 2. 26. 4. 8. 4. 4. 0. 2. 4. 10. 0. 2. 2. 12.
      2. 12. 6. 8. 22. 0. 24. 4. 4. 4. 22. 0. 4. 0. 0. 4. 0. 4. 22. 2.
      2. 0. 4. 0. 4. 0. 0. 2. 2. 0. 2. 8. 2. 6. 24. 0. 0. 0. 0. 0. 2. 0.
      2. 0. 0. 0. 0. 0. 0. 0. 8. 0. 4. 0. 4. 0. 0. 2. 4. 0. 2. 0. 2. 0.
      4. 8. 32. 14. 28. 0. 30. 4. 6. 2. 16. 6. 12. 0. 4. 0. 6. 10. 18.
      2. 4. 0. 2. 0. 0. 0. 2. 12. 2. 0. 2. 4. 4. 2. 26. 14. 50. 2. 24.
      2. 6. 12. 28. 4. 4. 0. 6. 0. 4. 0. 14. 20. 6. 16. 26. 0. 0. 0. 32.
      36. 16. 2. 34. 18. 12. 14. 118.</_>
    <_>
      94. 18. 6. 10. 30. 4. 16. 16. 10. 2. 4. 0. 8. 0. 22. 8. 14. 2. 2.
      0. 2. 2. 2. 2. 14. 0. 2. 4. 20. 4. 38. 22. 6. 2. 4. 0. 8. 0. 4. 0.
      0. 0. 0. 0. 2. 0. 2. 4. 16. 0. 2. 4. 8. 0. 2. 4. 14. 0. 6. 2. 20.
      4. 6. 6. 12. 4. 6. 4. 8. 2. 2. 0. 8. 2. 0. 4. 2. 0. 6. 2. 6. 0. 0.
      0. 0. 0. 2. 2. 6. 0. 2. 4. 0. 0. 2. 4. 8. 4. 0. 0. 0. 2. 2. 8. 2.
      0. 2. 0. 2. 0. 2. 2. 14. 0. 6. 0. 0. 2. 0. 4. 56. 0. 10. 8. 12. 4.
      8. 10. 14. 8. 4. 16. 6. 8. 0. 32. 0. 0. 0. 4. 4. 2. 2. 10. 2. 2.
      0. 0. 0. 2. 0. 2. 4. 2. 0. 0. 0. 2. 0. 18. 4. 4. 0. 2. 2. 2. 0. 8.
      0. 2. 0. 2. 0. 0. 0. 4. 0. 2. 2. 0. 0. 0. 0. 4. 2. 2. 0. 10. 10.
      8. 6. 22. 12. 12. 0. 46. 2. 0. 2. 10. 2. 2. 0. 2. 0. 0. 0. 14. 0.
      4. 0. 4. 0. 0. 0. 4. 4. 4. 0. 4. 0. 0. 6. 12. 18. 30. 0. 2. 2. 4.
      2. 10. 6. 4. 0. 6. 4. 2. 12. 8. 12. 18. 0. 8. 0. 8. 2. 16. 10. 14.
      2. 22. 2. 26. 6. 162.</_>
    <_>
      74. 34. 10. 12. 14. 0. 16. 26. 14. 4. 2. 0. 12. 10. 12. 60. 26. 4.
      2. 2. 0. 0. 4. 0. 8. 0. 4. 0. 12. 4. 26. 14. 4. 4. 0. 0. 4. 0. 2.
      2. 0. 0. 0. 0. 0. 2. 4. 14. 10. 2. 0. 0. 2. 0. 0. 0. 8. 2. 2. 0.
      14. 4. 16. 6. 22. 6. 4. 6. 2. 0. 0. 2. 4. 0. 0. 2. 0. 0. 0. 0. 4.
      2. 0. 0. 0. 0. 0. 0. 4. 0. 0. 0. 4. 0. 0. 0. 2. 6. 2. 4. 2. 0. 0.
      2. 2. 0. 0. 0. 0. 0. 4. 14. 18. 0. 0. 0. 0. 0. 6. 2. 18. 4. 6. 2.
      4. 0. 4. 12. 8. 14. 0. 12. 2. 4. 2. 18. 2. 4. 0. 0. 2. 0. 2. 10.
      10. 2. 2. 2. 0. 0. 0. 2. 0. 0. 0. 0. 2. 2. 8. 12. 0. 2. 0. 2. 0.
      2. 0. 6. 0. 0. 0. 0. 0. 0. 0. 4. 4. 0. 4. 0. 4. 0. 2. 0. 0. 0. 0.
      0. 4. 2. 6. 14. 6. 22. 0. 50. 0. 0. 0. 4. 4. 2. 0. 2. 0. 4. 0. 14.
      8. 2. 0. 6. 0. 0. 0. 0. 2. 0. 2. 4. 4. 4. 10. 14. 24. 58. 4. 30.
      2. 4. 2. 8. 2. 14. 0. 2. 0. 0. 2. 38. 54. 18. 2. 18. 0. 0. 12. 16.
      22. 6. 2. 14. 4. 12. 28. 144.</_>
    <_>
      66. 16. 10. 10. 30. 4. 8. 6. 8. 0. 0. 0. 10. 8. 10. 24. 32. 4. 0.
      2. 4. 0. 2. 2. 10. 0. 4. 0. 26. 2. 28. 24. 18. 4. 2. 0. 0. 0. 0.
      2. 0. 0. 0. 0. 4. 0. 2. 2. 6. 0. 2. 0. 2. 0. 4. 2. 14. 0. 8. 0.
      20. 2. 14. 8. 32. 4. 4. 8. 12. 0. 2. 2. 4. 0. 0. 0. 2. 0. 0. 0. 4.
      0. 0. 0. 4. 0. 0. 0. 2. 0. 0. 0. 2. 0. 0. 0. 14. 2. 2. 0. 8. 0. 0.
      0. 4. 0. 0. 0. 2. 0. 0. 2. 32. 2. 2. 0. 2. 4. 0. 4. 46. 4. 0. 0.
      20. 2. 14. 22. 10. 4. 6. 10. 4. 2. 0. 14. 4. 0. 0. 6. 2. 2. 0. 16.
      0. 2. 0. 0. 0. 0. 0. 0. 0. 2. 0. 0. 0. 0. 4. 8. 2. 4. 0. 4. 0. 0.
      0. 4. 0. 0. 0. 2. 2. 0. 2. 8. 0. 2. 0. 0. 2. 0. 0. 10. 4. 4. 0. 6.
      4. 6. 0. 20. 8. 18. 0. 24. 0. 0. 2. 20. 2. 0. 0. 4. 2. 2. 0. 16.
      2. 2. 0. 4. 0. 0. 0. 2. 0. 2. 0. 4. 0. 0. 0. 14. 30. 32. 2. 24. 0.
      2. 0. 12. 2. 2. 2. 8. 0. 4. 2. 20. 56. 22. 2. 14. 2. 4. 2. 28. 22.
      22. 4. 32. 8. 18. 18. 126.</_>
    <_>
      82. 16. 10. 12. 16. 4. 12. 16. 14. 2. 2. 4. 6. 6. 4. 24. 8. 4. 0.
      0. 2. 0. 8. 0. 12. 0. 2. 2. 20. 4. 16. 8. 10. 6. 2. 2. 4. 2. 4. 8.
      0. 2. 2. 0. 0. 2. 0. 4. 14. 4. 2. 0. 8. 0. 4. 2. 8. 2. 2. 0. 24.
      0. 2. 6. 42. 6. 4. 6. 6. 0. 0. 2. 4. 0. 0. 0. 0. 0. 0. 0. 2. 2. 0.
      0. 0. 0. 0. 0. 6. 0. 0. 2. 4. 0. 2. 2. 18. 8. 0. 0. 2. 0. 0. 2. 2.
      0. 0. 0. 2. 0. 2. 8. 22. 4. 2. 2. 2. 0. 2. 0. 28. 0. 4. 6. 4. 2.
      2. 10. 12. 16. 0. 8. 8. 6. 0. 28. 2. 6. 0. 0. 0. 2. 0. 8. 6. 0. 2.
      2. 2. 0. 0. 4. 0. 0. 0. 0. 2. 0. 4. 8. 2. 4. 0. 2. 0. 0. 0. 4. 0.
      0. 0. 0. 0. 0. 0. 8. 2. 0. 2. 2. 0. 0. 2. 4. 0. 0. 0. 8. 8. 2. 2.
      28. 10. 24. 4. 30. 2. 0. 4. 10. 0. 6. 0. 4. 2. 2. 0. 4. 14. 2. 0.
      2. 2. 0. 0. 0. 6. 2. 2. 6. 0. 4. 0. 8. 10. 46. 4. 14. 2. 2. 2. 16.
      2. 6. 0. 14. 6. 4. 10. 16. 30. 16. 6. 10. 4. 4. 4. 28. 10. 12. 16.
      26. 6. 22. 30. 168.</_>
    <_>
      114. 12. 12. 10. 18. 2. 6. 6. 12. 2. 0. 0. 4. 4. 4. 12. 10. 12. 6.
      0. 2. 0. 2. 0. 4. 0. 4. 0. 2. 0. 6. 4. 16. 6. 2. 4. 4. 0. 2. 0. 8.
      0. 0. 2. 0. 0. 6. 2. 0. 0. 4. 2. 4. 2. 4. 2. 6. 0. 0. 2. 10. 0. 8.
      6. 14. 8. 6. 2. 2. 0. 2. 8. 4. 2. 0. 0. 0. 0. 0. 4. 8. 2. 0. 0. 0.
      4. 2. 0. 2. 0. 0. 0. 4. 10. 0. 2. 12. 6. 6. 4. 2. 4. 0. 2. 4. 0.
      0. 0. 2. 0. 0. 0. 8. 6. 4. 6. 2. 2. 4. 20. 6. 8. 4. 2. 2. 4. 8.
      12. 18. 8. 8. 10. 8. 2. 6. 16. 2. 0. 0. 6. 2. 2. 4. 24. 4. 2. 0.
      4. 0. 2. 0. 4. 2. 4. 2. 0. 0. 0. 6. 14. 10. 12. 0. 2. 0. 0. 4. 14.
      2. 0. 2. 2. 0. 4. 2. 6. 4. 2. 2. 6. 0. 0. 2. 6. 2. 0. 0. 4. 8. 6.
      10. 12. 20. 16. 2. 12. 2. 8. 6. 10. 2. 2. 0. 2. 2. 2. 4. 12. 4. 2.
      2. 2. 0. 6. 2. 10. 2. 4. 2. 4. 4. 16. 4. 20. 4. 14. 4. 30. 0. 0.
      2. 16. 8. 12. 0. 24. 0. 4. 2. 38. 18. 12. 6. 8. 2. 8. 10. 26. 12.
      10. 12. 16. 8. 34. 14. 146.</_>
    <_>
      78. 14. 14. 8. 12. 2. 4. 18. 4. 4. 4. 4. 8. 12. 6. 48. 22. 6. 4.
      2. 4. 2. 2. 0. 14. 4. 2. 0. 16. 2. 34. 12. 16. 0. 0. 0. 4. 0. 4.
      0. 2. 0. 0. 0. 0. 0. 0. 2. 8. 0. 4. 2. 0. 2. 4. 0. 6. 2. 0. 2. 26.
      2. 26. 12. 28. 6. 8. 6. 4. 0. 0. 6. 8. 0. 0. 0. 2. 2. 2. 4. 10. 0.
      0. 2. 0. 0. 0. 0. 0. 2. 0. 0. 0. 2. 0. 4. 14. 2. 0. 2. 6. 0. 0. 0.
      2. 0. 6. 0. 0. 0. 2. 4. 12. 4. 2. 2. 4. 0. 0. 2. 30. 4. 2. 2. 14.
      2. 14. 16. 24. 16. 0. 10. 4. 0. 0. 18. 2. 2. 0. 0. 0. 2. 8. 18. 6.
      2. 0. 2. 0. 2. 0. 2. 0. 2. 2. 2. 2. 0. 2. 14. 4. 2. 0. 0. 0. 0. 0.
      4. 0. 2. 0. 0. 0. 2. 4. 8. 4. 0. 2. 2. 0. 2. 0. 2. 0. 0. 0. 12. 0.
      0. 0. 14. 8. 26. 2. 14. 2. 4. 2. 20. 4. 0. 0. 6. 0. 0. 0. 6. 10.
      2. 0. 0. 0. 2. 2. 2. 6. 0. 0. 2. 2. 2. 8. 10. 12. 14. 0. 24. 2. 4.
      2. 14. 2. 0. 2. 2. 2. 2. 2. 12. 90. 20. 6. 16. 0. 2. 6. 16. 40.
      12. 10. 26. 12. 12. 34. 88.</_>
    <_>
      72. 16. 6. 6. 12. 4. 4. 8. 10. 0. 2. 4. 2. 4. 22. 24. 24. 4. 2. 0.
      2. 0. 0. 2. 14. 2. 0. 2. 12. 0. 50. 44. 6. 0. 0. 2. 6. 0. 6. 4. 0.
      0. 0. 2. 0. 0. 0. 4. 10. 0. 0. 0. 2. 2. 2. 0. 10. 0. 6. 0. 14. 0.
      22. 14. 24. 2. 4. 4. 0. 0. 0. 0. 2. 0. 0. 2. 0. 0. 2. 2. 6. 0. 0.
      0. 0. 0. 0. 2. 10. 0. 0. 0. 0. 2. 0. 2. 10. 2. 2. 2. 0. 0. 0. 2.
      2. 0. 0. 0. 4. 0. 2. 4. 14. 0. 2. 2. 2. 0. 2. 4. 60. 4. 14. 0. 20.
      2. 24. 12. 14. 4. 0. 12. 14. 2. 0. 8. 2. 4. 0. 0. 2. 0. 0. 20. 0.
      2. 0. 0. 0. 0. 0. 2. 2. 0. 0. 0. 4. 0. 2. 6. 2. 6. 0. 0. 10. 2. 0.
      2. 0. 0. 0. 0. 0. 0. 0. 4. 4. 2. 2. 2. 2. 6. 4. 10. 0. 4. 0. 0. 8.
      6. 0. 10. 10. 10. 2. 48. 2. 4. 2. 14. 0. 0. 0. 8. 0. 0. 0. 6. 2.
      4. 2. 2. 0. 0. 0. 0. 6. 0. 0. 10. 0. 2. 2. 8. 12. 8. 4. 8. 2. 2.
      0. 26. 2. 4. 2. 0. 2. 4. 0. 22. 14. 14. 0. 30. 6. 4. 4. 22. 26.
      20. 2. 26. 22. 30. 12. 186.</_>
    <_>
      104. 36. 6. 4. 16. 2. 6. 12. 22. 2. 2. 2. 6. 0. 4. 6. 18. 8. 4. 0.
      0. 0. 2. 0. 6. 2. 0. 0. 8. 2. 8. 2. 6. 6. 0. 2. 8. 0. 0. 4. 0. 0.
      0. 0. 4. 0. 0. 0. 22. 4. 0. 0. 10. 0. 2. 2. 14. 0. 2. 6. 40. 0. 8.
      4. 16. 2. 16. 10. 6. 0. 0. 0. 8. 0. 0. 0. 2. 2. 2. 2. 8. 0. 0. 0.
      0. 0. 4. 0. 10. 0. 2. 0. 6. 2. 0. 0. 12. 4. 2. 2. 2. 0. 2. 4. 2.
      0. 2. 2. 2. 0. 0. 0. 8. 4. 4. 0. 2. 0. 0. 0. 10. 2. 2. 2. 18. 4.
      6. 16. 24. 4. 2. 10. 10. 18. 4. 46. 0. 0. 0. 2. 2. 2. 0. 28. 2. 2.
      0. 0. 0. 0. 2. 10. 0. 2. 0. 2. 0. 0. 4. 10. 0. 2. 0. 0. 2. 0. 2.
      10. 2. 0. 2. 0. 0. 0. 0. 2. 2. 6. 2. 0. 2. 2. 0. 4. 2. 0. 0. 2. 0.
      10. 0. 8. 4. 8. 6. 4. 2. 4. 2. 14. 0. 2. 0. 2. 4. 0. 2. 14. 2. 2.
      2. 8. 0. 4. 0. 2. 0. 2. 0. 4. 2. 2. 0. 18. 20. 32. 0. 16. 2. 6. 0.
      20. 4. 0. 0. 10. 2. 4. 6. 18. 8. 14. 0. 38. 2. 4. 2. 32. 26. 16.
      10. 40. 26. 22. 22. 156.</_>
    <_>
      74. 14. 12. 0. 16. 2. 4. 6. 8. 0. 2. 4. 10. 4. 6. 14. 22. 4. 4. 0.
      4. 2. 8. 0. 6. 4. 0. 2. 8. 4. 18. 12. 16. 4. 4. 4. 4. 0. 2. 10. 0.
      0. 2. 0. 2. 0. 0. 6. 14. 0. 6. 2. 6. 0. 4. 4. 18. 4. 0. 0. 34. 2.
      12. 2. 26. 2. 4. 6. 8. 0. 0. 0. 8. 0. 0. 0. 0. 0. 0. 4. 2. 0. 0.
      0. 0. 0. 0. 0. 4. 0. 2. 0. 2. 2. 2. 4. 12. 8. 0. 4. 0. 2. 0. 0. 4.
      0. 0. 0. 4. 2. 2. 4. 12. 4. 4. 0. 0. 0. 0. 2. 46. 0. 2. 2. 24. 4.
      8. 16. 16. 10. 0. 8. 2. 4. 2. 18. 4. 2. 0. 0. 0. 4. 2. 10. 6. 4.
      4. 2. 0. 2. 2. 2. 0. 2. 0. 2. 6. 2. 6. 2. 6. 2. 0. 0. 0. 2. 0. 2.
      2. 2. 0. 0. 0. 0. 2. 4. 0. 0. 0. 0. 0. 2. 0. 0. 2. 0. 0. 10. 2. 6.
      8. 30. 8. 14. 4. 22. 2. 2. 4. 6. 0. 2. 0. 2. 0. 2. 0. 6. 6. 4. 0.
      0. 2. 0. 0. 2. 4. 2. 0. 2. 0. 2. 2. 6. 20. 44. 2. 10. 0. 6. 2. 14.
      2. 4. 2. 6. 2. 6. 10. 26. 54. 44. 4. 8. 0. 6. 0. 26. 22. 4. 4. 22.
      16. 12. 28. 172.</_>
    <_>
      108. 22. 12. 16. 18. 4. 8. 12. 12. 6. 0. 2. 10. 2. 8. 6. 40. 8. 4.
      4. 8. 0. 2. 2. 14. 0. 0. 2. 12. 2. 6. 14. 14. 2. 2. 2. 16. 0. 2.
      0. 6. 0. 4. 0. 4. 0. 2. 2. 18. 4. 0. 0. 12. 2. 0. 6. 8. 0. 2. 0.
      40. 2. 8. 4. 12. 6. 10. 12. 2. 2. 0. 2. 2. 2. 2. 2. 2. 2. 2. 0. 6.
      0. 0. 0. 0. 0. 0. 2. 8. 2. 0. 2. 2. 0. 2. 6. 6. 2. 2. 4. 2. 0. 0.
      0. 4. 0. 0. 2. 2. 0. 6. 2. 10. 0. 2. 2. 2. 0. 0. 2. 14. 4. 8. 8.
      10. 2. 12. 12. 14. 16. 2. 20. 4. 4. 8. 50. 2. 0. 0. 0. 0. 0. 4.
      14. 0. 0. 2. 2. 2. 2. 2. 8. 0. 0. 0. 0. 0. 0. 4. 14. 4. 6. 0. 2.
      0. 2. 0. 14. 0. 0. 0. 0. 0. 0. 0. 2. 2. 0. 0. 2. 0. 0. 0. 8. 0. 0.
      2. 4. 8. 12. 2. 26. 12. 16. 6. 16. 4. 2. 6. 16. 0. 2. 0. 10. 4. 2.
      2. 22. 2. 2. 0. 0. 0. 0. 0. 6. 2. 2. 0. 8. 2. 4. 2. 14. 6. 22. 2.
      24. 0. 2. 0. 10. 0. 4. 2. 2. 0. 4. 8. 34. 14. 14. 2. 12. 2. 2. 4.
      6. 16. 12. 2. 14. 10. 14. 30. 124.</_>
    <_>
      82. 16. 8. 8. 22. 2. 4. 10. 16. 2. 0. 0. 2. 2. 10. 4. 24. 4. 4. 2.
      0. 0. 4. 2. 4. 2. 2. 0. 14. 0. 4. 8. 10. 0. 8. 4. 12. 2. 0. 4. 8.
      2. 0. 2. 0. 0. 2. 4. 20. 0. 2. 0. 10. 0. 4. 0. 12. 4. 0. 0. 28. 0.
      6. 8. 22. 2. 8. 8. 6. 2. 2. 6. 10. 2. 0. 0. 2. 0. 0. 2. 6. 0. 4.
      0. 0. 0. 0. 0. 14. 2. 0. 0. 0. 4. 2. 0. 8. 2. 0. 4. 0. 2. 2. 0. 0.
      2. 0. 2. 0. 0. 2. 4. 8. 6. 2. 6. 2. 0. 2. 4. 12. 2. 16. 8. 16. 4.
      6. 20. 10. 14. 4. 6. 14. 12. 4. 36. 2. 2. 0. 6. 0. 8. 2. 8. 0. 6.
      0. 2. 2. 2. 0. 6. 2. 0. 2. 0. 2. 0. 6. 6. 0. 2. 2. 4. 0. 2. 0. 10.
      0. 0. 0. 0. 0. 0. 4. 2. 2. 0. 0. 2. 0. 0. 2. 8. 0. 6. 0. 6. 12. 6.
      2. 22. 2. 12. 8. 8. 6. 0. 0. 10. 0. 0. 0. 6. 0. 8. 2. 10. 2. 4. 0.
      0. 0. 2. 0. 2. 4. 0. 0. 10. 0. 4. 2. 16. 10. 20. 4. 18. 2. 6. 0.
