<?xml version="1.0"?>
<opencv_storage>
<opencv_ml_svm>
  <format>3</format>
  <svmType>C_SVC</svmType>
  <kernel>
    <type>LINEAR</type></kernel>
  <C>1.</C>
  <term_criteria><epsilon>1.1920928955078125e-07</epsilon>
    <iterations>1000</iterations></term_criteria>
  <var_count>256</var_count>
  <class_count>2</class_count>
  <class_labels type_id="opencv-matrix">
    <rows>2</rows>
    <cols>1</cols>
    <dt>i</dt>
    <data>
      -1 1</data></class_labels>
  <sv_total>1</sv_total>
  <support_vectors>
    <_>
      9.73834284e-03 -1.05509802e-03 6.70608075e-04 -1.27320495e-02
      4.82196407e-03 -6.08124211e-03 8.08957964e-03 2.94660102e-03
      2.79576494e-03 -1.82152574e-03 -1.89479702e-04 2.53439625e-03
      3.71193304e-03 -3.86526901e-03 -5.82389650e-04 -6.88215427e-04
      -7.38667906e-04 -6.83741504e-03 2.51372019e-03 1.21327175e-03
      3.42915650e-03 -4.18302929e-03 7.35667860e-03 5.06633660e-03
      5.71972644e-03 1.50039431e-03 -1.80688497e-04 -1.82732753e-03
      -9.50751081e-03 2.88264197e-03 1.80210487e-03 1.64339098e-03
      4.13534651e-03 -1.97292329e-03 -4.35758894e-03 3.33234784e-03
      -1.51947672e-02 1.38371123e-03 -8.12509330e-04 -4.27717983e-04
      9.20080300e-03 5.13020763e-03 -3.60583188e-04 1.23480090e-03
      1.04559362e-02 4.65240475e-04 2.72761099e-03 1.87040458e-03
      7.97275454e-03 1.75765029e-03 -1.69160170e-03 1.04028755e-03
      -1.03639830e-02 5.11936436e-04 2.45954213e-03 -2.70298449e-03
      1.13849044e-02 5.06616803e-03 1.60222349e-03 -4.88736713e-03
      -3.13092326e-03 -2.59870524e-03 -5.60980872e-04 -1.34588371e-03
      2.80375895e-03 -3.68798827e-03 -5.28698089e-03 -9.14315134e-03
      -8.05512944e-04 -4.86517278e-03 2.15419824e-03 4.07751789e-03
      2.82719079e-03 -1.82292191e-03 -3.87920928e-03 -2.51863245e-03
      -2.99372617e-03 -2.12934348e-04 3.64050479e-03 5.09378826e-03
      -1.90489634e-03 7.55160407e-04 -2.62918649e-03 -1.53877854e-03
      4.00086911e-03 -3.88645055e-03 5.03859366e-04 -9.42951359e-04
      -3.58023378e-03 -9.43611958e-04 -1.34079659e-03 -2.24257447e-03
      -6.86805637e-04 -3.93321365e-03 1.52057779e-04 7.02595571e-03
      3.91379511e-03 -4.19872813e-03 -6.38359692e-03 -5.43555245e-03
      6.61917543e-03 1.13134168e-03 -2.95455335e-03 -2.67637055e-03
      -2.31309654e-03 3.76759307e-03 2.31950800e-03 -1.87888439e-03
      1.71785196e-03 -1.18124008e-03 2.73131952e-03 4.17296542e-03
      7.75861845e-04 -2.26946454e-03 -2.42424384e-03 -4.40573879e-03
      7.25259306e-03 1.12612220e-02 -7.32482690e-03 -8.89393967e-03
      -6.56292308e-03 1.63204526e-03 -4.49611200e-03 1.70851767e-04
      1.42880343e-03 5.84430294e-03 1.44279597e-03 -3.18490807e-03
      2.56942329e-03 -1.46590325e-03 -9.30032867e-04 3.95625457e-03
      -7.66565977e-03 -6.66622305e-03 1.68437581e-03 -2.34228070e-03
      -3.81333358e-03 1.26066664e-03 -2.29325867e-03 7.44385784e-03
      3.22057866e-04 3.38867703e-03 9.50127561e-03 2.81318068e-03
      2.00558527e-04 -3.58418282e-03 1.58952666e-03 -6.01377944e-03
      5.88527694e-03 7.29011139e-04 3.11870221e-03 -4.64321161e-03
      -4.66439687e-03 -7.75788445e-04 1.03206234e-03 1.76306034e-03
      -4.99499822e-03 -1.56673731e-03 -1.91262807e-03 -2.21684095e-04
      5.46894409e-03 6.52545271e-03 -2.89596943e-03 1.78230403e-03
      -2.70218286e-03 1.86050206e-03 -2.21468438e-03 -9.57969017e-03
      -2.90341908e-03 2.24736915e-03 -2.09156191e-03 6.14382606e-03
      -1.32397714e-03 3.79292713e-03 1.11126294e-03 -3.54273291e-03
      6.69123465e-03 -1.15497527e-03 -1.56061980e-03 1.15258771e-03
      5.47394506e-04 -2.78221676e-03 2.64830817e-03 -1.02109425e-02
      -3.55851429e-04 2.44756206e-03 -1.47031609e-03 5.06640784e-03
      -3.25460779e-03 2.52866093e-03 -2.85193929e-03 -4.72248718e-03
      5.09164901e-03 3.14946705e-03 2.20510014e-03 -1.59859518e-03
      6.33036438e-03 4.25297534e-04 3.01233376e-03 2.01418181e-03
      1.26452663e-03 -1.71014539e-03 -1.22555939e-03 -1.45067517e-02
      -1.69617496e-03 -2.61787768e-03 7.52543099e-03 -3.05631268e-03
      -8.02627392e-03 -6.09582406e-04 -3.42152081e-04 1.61759451e-03
      1.85239560e-03 1.23300159e-03 2.65675457e-03 3.39375692e-03
      -1.91866211e-03 -3.07832984e-03 1.35056220e-03 -9.14965291e-03
      4.57000360e-03 -1.01575283e-02 -1.17608474e-03 8.12608749e-04
      -5.30145830e-04 -4.96103545e-04 -1.86745345e-03 -1.27422705e-03
      8.22471362e-03 9.43417661e-03 2.47671176e-03 7.66031677e-03
      5.97584061e-03 3.11653526e-03 1.42047391e-03 -6.14859816e-03
      5.33788872e-04 -1.04943058e-03 8.51983018e-03 -9.73518239e-04
      1.08470535e-03 4.28323587e-03 -1.05384074e-03 -6.90216804e-03
      2.60720146e-03 4.36453987e-03 -6.62930496e-03 -2.65174499e-03
      -5.04279800e-04 1.86520384e-03 2.31758901e-03 -3.23353149e-03
      -4.25936515e-03 -2.15897526e-04 -3.79740447e-03 -1.29067095e-03</_></support_vectors>
  <uncompressed_sv_total>216</uncompressed_sv_total>
  <uncompressed_support_vectors>
    <_>
      36. 26. 2. 4. 20. 0. 4. 4. 2. 2. 0. 0. 2. 2. 8. 24. 18. 2. 2. 0.
      0. 2. 2. 2. 6. 2. 0. 0. 8. 0. 22. 4. 4. 0. 0. 2. 0. 0. 2. 4. 0. 0.
      0. 0. 0. 0. 0. 6. 6. 4. 2. 2. 0. 0. 2. 0. 4. 0. 0. 2. 14. 0. 10.
      2. 20. 2. 4. 2. 2. 0. 0. 0. 4. 0. 0. 0. 0. 0. 2. 0. 2. 0. 0. 0. 2.
      0. 0. 0. 0. 0. 0. 0. 0. 0. 0. 0. 14. 4. 4. 2. 0. 0. 0. 0. 2. 0. 0.
      0. 0. 0. 0. 2. 30. 2. 2. 0. 0. 0. 0. 2. 42. 0. 0. 2. 6. 0. 0. 2.
      10. 6. 0. 10. 2. 0. 2. 14. 0. 0. 0. 4. 0. 2. 0. 6. 6. 4. 0. 0. 0.
      0. 0. 0. 2. 0. 0. 0. 0. 2. 2. 2. 0. 10. 0. 0. 0. 2. 0. 4. 0. 0. 0.
      0. 0. 0. 0. 0. 2. 0. 0. 0. 0. 0. 0. 0. 0. 0. 0. 4. 0. 6. 2. 12.
      28. 38. 0. 38. 0. 2. 0. 18. 0. 4. 0. 2. 0. 0. 0. 0. 10. 8. 0. 4.
      0. 0. 2. 0. 2. 2. 2. 0. 6. 2. 6. 4. 70. 172. 2. 42. 0. 8. 0. 4. 2.
      14. 0. 4. 2. 2. 0. 10. 130. 100. 0. 28. 0. 8. 8. 24. 22. 20. 2.
      32. 8. 16. 24. 92.</_>
    <_>
      34. 14. 0. 6. 20. 2. 6. 32. 2. 0. 0. 0. 6. 2. 20. 34. 14. 4. 0. 2.
      4. 0. 0. 4. 16. 0. 0. 2. 22. 2. 56. 34. 6. 0. 2. 0. 2. 0. 2. 0. 0.
      0. 0. 0. 4. 0. 2. 2. 10. 4. 4. 0. 4. 0. 0. 2. 20. 0. 0. 0. 24. 0.
      24. 4. 26. 2. 0. 4. 6. 2. 2. 0. 2. 0. 0. 0. 0. 0. 0. 0. 0. 0. 0.
      0. 0. 0. 0. 0. 0. 0. 0. 0. 2. 0. 0. 0. 8. 4. 2. 2. 0. 0. 0. 4. 0.
      0. 0. 0. 0. 0. 0. 4. 28. 4. 2. 2. 0. 0. 2. 2. 28. 2. 2. 2. 28. 0.
      10. 6. 0. 14. 0. 42. 0. 0. 0. 44. 0. 0. 0. 2. 0. 0. 2. 20. 2. 2.
      0. 4. 2. 0. 0. 0. 0. 0. 0. 0. 2. 0. 2. 10. 0. 0. 0. 0. 0. 0. 0. 6.
      0. 0. 0. 2. 0. 0. 0. 2. 0. 0. 0. 0. 0. 0. 0. 2. 2. 0. 0. 8. 6. 0.
      2. 12. 16. 40. 0. 46. 2. 0. 0. 34. 0. 0. 0. 4. 2. 2. 2. 10. 2. 0.
      0. 0. 0. 0. 0. 0. 0. 0. 0. 2. 2. 0. 2. 14. 36. 104. 0. 32. 0. 0.
      2. 14. 2. 2. 0. 6. 4. 8. 0. 22. 60. 36. 4. 24. 0. 2. 2. 10. 24.
      12. 2. 36. 10. 12. 14. 76.</_>
    <_>
      30. 12. 10. 2. 16. 2. 10. 22. 8. 4. 0. 4. 4. 2. 10. 16. 14. 2. 0.
      6. 0. 0. 0. 4. 4. 4. 0. 0. 12. 2. 18. 26. 8. 0. 4. 0. 6. 0. 0. 2.
      6. 0. 0. 0. 2. 0. 2. 2. 2. 2. 2. 0. 0. 4. 2. 0. 10. 0. 0. 0. 10.
      0. 6. 12. 20. 2. 4. 6. 14. 2. 6. 14. 4. 0. 0. 0. 0. 2. 2. 4. 2. 0.
      0. 2. 0. 0. 0. 0. 2. 2. 0. 0. 4. 0. 4. 6. 2. 2. 2. 2. 0. 0. 2. 0.
      2. 0. 0. 0. 0. 0. 4. 0. 18. 0. 2. 0. 4. 2. 0. 2. 16. 0. 4. 4. 30.
      10. 18. 24. 10. 4. 0. 8. 2. 2. 2. 24. 2. 2. 2. 2. 0. 2. 2. 14. 0.
      2. 0. 0. 0. 0. 0. 0. 4. 0. 0. 0. 0. 0. 2. 12. 0. 0. 0. 2. 0. 0. 0.
      2. 0. 0. 0. 0. 0. 0. 2. 2. 4. 0. 0. 0. 0. 0. 0. 4. 2. 2. 0. 8. 4.
      4. 4. 20. 0. 18. 0. 12. 4. 2. 2. 44. 0. 0. 0. 4. 0. 6. 2. 18. 0.
      0. 2. 2. 2. 0. 0. 4. 0. 0. 2. 2. 2. 0. 2. 30. 10. 20. 0. 8. 2. 0.
      0. 14. 0. 0. 0. 0. 2. 2. 2. 14. 14. 20. 0. 16. 0. 2. 0. 28. 6. 14.
      2. 24. 20. 24. 14. 414.</_>
    <_>
      54. 12. 4. 12. 12. 6. 10. 36. 4. 0. 4. 4. 12. 6. 8. 20. 18. 0. 2.
      2. 2. 2. 0. 0. 16. 2. 0. 0. 28. 0. 16. 12. 4. 2. 0. 0. 0. 0. 0. 2.
      2. 0. 0. 2. 2. 0. 2. 10. 18. 0. 0. 2. 0. 0. 4. 0. 34. 2. 0. 2. 44.
      4. 22. 12. 22. 2. 0. 0. 2. 2. 2. 2. 0. 0. 0. 0. 2. 0. 0. 2. 2. 2.
      0. 0. 0. 0. 0. 0. 0. 0. 0. 0. 0. 0. 0. 0. 14. 4. 0. 2. 0. 0. 4. 4.
      2. 0. 0. 0. 0. 0. 0. 2. 46. 0. 0. 2. 2. 0. 2. 0. 46. 4. 6. 0. 50.
      0. 14. 14. 8. 10. 0. 30. 2. 2. 0. 46. 2. 0. 0. 2. 4. 0. 6. 22. 0.
      0. 0. 0. 0. 0. 0. 4. 0. 4. 0. 0. 2. 2. 0. 8. 0. 2. 0. 2. 0. 0. 0.
      0. 0. 0. 0. 0. 2. 0. 0. 4. 2. 0. 0. 6. 0. 0. 0. 0. 0. 0. 0. 2. 2.
      0. 4. 18. 10. 22. 2. 44. 6. 0. 2. 50. 4. 4. 0. 2. 0. 2. 0. 20. 2.
      2. 2. 0. 0. 0. 0. 0. 4. 8. 0. 2. 2. 2. 2. 12. 30. 18. 0. 30. 0. 2.
      0. 20. 0. 4. 0. 8. 2. 4. 8. 20. 30. 16. 0. 24. 0. 2. 2. 14. 22.
      30. 6. 6. 24. 12. 16. 82.</_>
    <_>
      30. 20. 6. 18. 16. 0. 18. 64. 2. 0. 0. 0. 16. 4. 20. 54. 10. 2. 2.
      0. 2. 0. 8. 2. 0. 0. 4. 0. 20. 0. 32. 12. 6. 2. 0. 2. 2. 0. 0. 4.
      0. 0. 0. 0. 2. 0. 0. 0. 10. 0. 4. 0. 2. 0. 0. 2. 10. 2. 4. 2. 58.
      2. 16. 12. 20. 0. 0. 0. 0. 2. 2. 4. 0. 0. 0. 0. 2. 0. 0. 0. 0. 0.
      0. 0. 2. 2. 0. 0. 0. 2. 0. 0. 4. 2. 4. 2. 10. 6. 0. 0. 2. 0. 0. 0.
      0. 0. 0. 0. 0. 0. 2. 0. 4. 0. 0. 0. 2. 0. 0. 0. 20. 0. 0. 0. 32.
      4. 14. 16. 0. 14. 0. 44. 6. 0. 0. 100. 0. 0. 0. 0. 2. 4. 0. 76. 0.
      0. 0. 0. 0. 0. 0. 2. 2. 0. 0. 0. 2. 0. 4. 12. 0. 0. 0. 2. 0. 0. 0.
      2. 0. 0. 0. 0. 0. 0. 0. 2. 0. 0. 0. 0. 0. 0. 0. 0. 0. 0. 0. 2. 2.
      6. 0. 14. 4. 14. 2. 78. 2. 2. 2. 132. 0. 2. 0. 8. 2. 2. 0. 24. 0.
      0. 0. 0. 0. 0. 2. 4. 4. 0. 0. 4. 0. 0. 0. 12. 2. 50. 0. 12. 2. 0.
      0. 16. 0. 0. 0. 2. 0. 4. 0. 18. 0. 4. 0. 6. 2. 0. 0. 12. 14. 10.
      2. 20. 18. 4. 14. 94.</_>
    <_>
      60. 14. 6. 4. 8. 8. 4. 18. 18. 2. 2. 0. 10. 6. 10. 64. 22. 8. 4.
      0. 2. 0. 2. 2. 10. 2. 0. 2. 10. 0. 20. 10. 4. 2. 2. 2. 4. 0. 0. 8.
      0. 0. 0. 0. 0. 2. 0. 2. 10. 2. 2. 0. 4. 2. 4. 2. 4. 0. 0. 2. 22.
      0. 14. 8. 16. 0. 2. 0. 2. 0. 2. 0. 4. 2. 0. 0. 0. 0. 2. 2. 14. 2.
      0. 0. 0. 0. 0. 0. 4. 0. 0. 0. 0. 0. 2. 2. 14. 2. 2. 0. 2. 0. 0. 0.
      4. 0. 0. 0. 2. 0. 0. 0. 34. 2. 0. 0. 0. 0. 0. 0. 36. 0. 2. 4. 10.
      0. 14. 18. 24. 20. 0. 18. 2. 0. 0. 38. 6. 0. 0. 0. 6. 0. 2. 26. 2.
      0. 2. 0. 0. 0. 0. 4. 0. 2. 0. 0. 2. 2. 0. 8. 4. 0. 0. 0. 0. 0. 0.
      4. 0. 0. 0. 0. 0. 2. 0. 14. 2. 2. 0. 0. 0. 0. 0. 2. 0. 2. 0. 8. 0.
      2. 2. 8. 22. 36. 0. 30. 0. 0. 6. 10. 0. 0. 0. 0. 4. 0. 0. 12. 16.
      2. 0. 0. 0. 0. 0. 4. 4. 6. 0. 0. 0. 2. 0. 6. 26. 46. 2. 18. 0. 0.
      2. 22. 4. 2. 2. 0. 4. 0. 0. 26. 116. 38. 18. 8. 4. 4. 4. 34. 22.
      14. 12. 24. 8. 10. 20. 70.</_>
    <_>
      30. 10. 6. 6. 8. 0. 10. 12. 2. 0. 0. 8. 2. 2. 20. 30. 14. 6. 2. 2.
      2. 2. 6. 2. 8. 2. 0. 4. 12. 6. 38. 74. 2. 0. 0. 0. 6. 0. 0. 0. 0.
      0. 0. 0. 0. 0. 4. 0. 12. 8. 0. 0. 0. 0. 2. 2. 2. 0. 0. 0. 30. 0.
      4. 14. 4. 6. 2. 2. 0. 0. 4. 4. 2. 0. 2. 2. 0. 0. 2. 2. 0. 0. 0. 0.
      0. 0. 0. 0. 0. 0. 2. 0. 2. 0. 2. 2. 8. 4. 0. 0. 0. 0. 0. 2. 0. 2.
      0. 2. 0. 0. 2. 0. 24. 0. 0. 2. 0. 0. 0. 2. 4. 0. 4. 2. 4. 0. 8.
      12. 6. 8. 0. 2. 2. 2. 0. 28. 0. 2. 0. 0. 2. 2. 0. 14. 0. 2. 0. 0.
      0. 0. 0. 0. 2. 2. 0. 0. 0. 0. 4. 22. 0. 2. 0. 4. 0. 0. 0. 6. 0. 0.
      0. 0. 0. 0. 0. 2. 0. 0. 0. 0. 0. 0. 0. 0. 2. 0. 0. 0. 6. 6. 2. 14.
      8. 18. 0. 16. 4. 0. 0. 4. 0. 0. 0. 2. 0. 2. 0. 16. 2. 2. 0. 2. 0.
      0. 0. 0. 2. 0. 0. 4. 2. 0. 2. 24. 38. 144. 2. 10. 2. 4. 2. 12. 2.
      0. 0. 2. 0. 2. 8. 22. 68. 148. 0. 8. 0. 2. 0. 12. 14. 10. 2. 18.
      4. 10. 32. 202.</_>
    <_>
      16. 22. 2. 6. 28. 2. 16. 38. 4. 0. 0. 0. 4. 4. 10. 56. 12. 4. 2.
      0. 0. 0. 2. 0. 4. 0. 2. 0. 22. 0. 38. 10. 2. 0. 0. 4. 0. 0. 2. 2.
      0. 0. 0. 0. 0. 0. 0. 2. 6. 0. 2. 2. 0. 0. 0. 0. 20. 4. 0. 0. 56.
      0. 16. 6. 16. 0. 0. 0. 2. 0. 2. 4. 0. 0. 0. 0. 0. 0. 0. 2. 2. 0.
      0. 0. 0. 0. 0. 0. 0. 0. 0. 0. 0. 0. 0. 0. 6. 0. 2. 2. 0. 0. 2. 4.
      0. 0. 0. 0. 0. 0. 0. 2. 20. 0. 0. 2. 0. 0. 6. 2. 32. 0. 2. 0. 34.
      0. 12. 4. 2. 20. 0. 42. 0. 0. 0. 250. 2. 0. 0. 0. 0. 0. 0. 42. 4.
      0. 0. 0. 0. 0. 0. 2. 0. 0. 0. 0. 4. 0. 2. 10. 0. 0. 0. 0. 0. 0. 0.
      8. 0. 0. 0. 0. 0. 0. 0. 4. 0. 0. 0. 0. 0. 0. 0. 2. 0. 0. 0. 4. 2.
      0. 2. 26. 14. 36. 0. 58. 0. 4. 0. 106. 0. 0. 0. 4. 0. 4. 0. 22. 2.
      0. 0. 2. 0. 0. 0. 2. 0. 0. 0. 4. 0. 4. 2. 22. 14. 28. 0. 22. 2. 0.
      0. 12. 2. 8. 0. 2. 0. 0. 2. 22. 26. 6. 2. 4. 0. 0. 0. 12. 14. 2.
      0. 12. 4. 4. 8. 58.</_>
    <_>
      14. 4. 2. 2. 12. 2. 2. 4. 4. 0. 0. 2. 6. 0. 6. 0. 4. 4. 0. 0. 0.
      0. 0. 0. 4. 0. 0. 4. 8. 2. 4. 10. 2. 0. 2. 0. 2. 0. 0. 0. 0. 0. 0.
      0. 0. 0. 0. 0. 6. 0. 0. 0. 6. 0. 0. 0. 10. 2. 0. 0. 14. 2. 6. 14.
      4. 2. 0. 0. 4. 0. 2. 0. 0. 0. 0. 0. 2. 0. 2. 0. 0. 0. 0. 2. 0. 0.
      0. 2. 0. 0. 0. 0. 2. 0. 0. 0. 4. 0. 0. 0. 0. 0. 0. 0. 2. 0. 0. 0.
      0. 0. 0. 0. 20. 0. 2. 0. 0. 0. 0. 0. 50. 4. 2. 2. 56. 0. 8. 8. 0.
      2. 0. 14. 2. 2. 0. 10. 0. 0. 0. 0. 0. 0. 0. 6. 0. 0. 0. 0. 0. 0.
      0. 0. 0. 0. 0. 0. 0. 0. 0. 2. 0. 0. 0. 0. 0. 2. 0. 2. 0. 0. 0. 0.
      0. 0. 0. 2. 0. 2. 2. 0. 2. 0. 0. 2. 0. 0. 0. 2. 4. 4. 0. 22. 4.
      20. 0. 72. 2. 0. 0. 40. 0. 0. 0. 10. 0. 0. 0. 6. 0. 0. 0. 0. 0. 0.
      0. 0. 0. 0. 0. 2. 0. 2. 2. 10. 0. 10. 0. 28. 0. 0. 2. 16. 0. 0. 0.
      0. 0. 0. 2. 8. 6. 16. 0. 4. 0. 0. 0. 20. 24. 12. 0. 22. 12. 16.
      10. 760.</_>
    <_>
      112. 28. 2. 14. 8. 0. 14. 24. 6. 0. 4. 2. 4. 4. 6. 4. 14. 6. 6. 4.
      4. 2. 4. 2. 4. 2. 4. 2. 6. 4. 6. 4. 6. 4. 0. 2. 4. 0. 2. 2. 0. 0.
      0. 0. 4. 0. 0. 0. 10. 0. 0. 0. 2. 0. 4. 0. 12. 4. 2. 4. 42. 8. 10.
      4. 40. 2. 4. 2. 16. 2. 4. 2. 2. 0. 0. 4. 2. 0. 4. 0. 6. 0. 0. 0.
      2. 0. 0. 2. 2. 0. 0. 2. 4. 0. 4. 0. 12. 2. 0. 0. 2. 2. 0. 0. 4. 0.
      0. 0. 0. 0. 4. 2. 14. 6. 0. 0. 2. 0. 2. 2. 16. 4. 8. 8. 16. 2. 18.
      4. 2. 28. 2. 28. 4. 2. 2. 68. 0. 2. 0. 2. 4. 0. 0. 16. 0. 0. 0. 0.
      0. 0. 0. 6. 0. 0. 0. 4. 4. 0. 2. 12. 2. 2. 0. 2. 0. 0. 0. 4. 0. 0.
      0. 0. 0. 2. 2. 6. 2. 4. 0. 8. 0. 0. 2. 10. 4. 2. 0. 14. 4. 10. 10.
      32. 4. 18. 0. 24. 4. 6. 6. 32. 6. 0. 2. 2. 4. 0. 4. 16. 0. 4. 2.
      2. 0. 0. 0. 0. 2. 2. 0. 4. 2. 0. 6. 18. 8. 2. 0. 2. 0. 2. 2. 20.
      2. 4. 0. 4. 6. 0. 0. 20. 20. 2. 4. 14. 4. 0. 0. 20. 12. 10. 4. 34.
      6. 14. 14. 190.</_>
    <_>
      44. 16. 2. 12. 8. 2. 12. 44. 0. 0. 0. 0. 12. 2. 8. 22. 8. 0. 8. 2.
      0. 0. 4. 4. 0. 0. 0. 0. 28. 0. 42. 4. 2. 2. 0. 0. 0. 0. 0. 4. 0.
      0. 0. 0. 2. 0. 0. 2. 12. 2. 6. 0. 0. 0. 0. 0. 12. 0. 4. 0. 90. 2.
      14. 2. 6. 0. 0. 0. 4. 0. 6. 4. 2. 0. 2. 0. 2. 0. 0. 0. 4. 0. 0. 0.
      0. 0. 0. 0. 2. 0. 0. 0. 0. 0. 0. 2. 4. 10. 0. 0. 0. 0. 0. 0. 0. 0.
      0. 0. 0. 0. 4. 0. 8. 0. 0. 0. 2. 0. 0. 0. 12. 2. 2. 0. 40. 10. 14.
      16. 0. 16. 6. 36. 0. 0. 0. 144. 0. 0. 0. 6. 2. 0. 0. 68. 0. 0. 0.
      2. 0. 0. 0. 2. 0. 0. 0. 4. 0. 0. 2. 4. 0. 2. 0. 2. 0. 0. 0. 2. 0.
      0. 0. 0. 0. 0. 0. 0. 0. 0. 0. 4. 0. 0. 0. 0. 0. 0. 0. 4. 0. 0. 4.
      16. 0. 8. 0. 34. 0. 2. 0. 138. 0. 2. 0. 0. 0. 2. 4. 40. 0. 0. 0.
      2. 4. 0. 0. 8. 2. 0. 0. 0. 0. 0. 2. 20. 4. 26. 0. 16. 0. 0. 0. 16.
      0. 0. 0. 0. 0. 2. 0. 26. 6. 6. 2. 6. 0. 0. 6. 20. 16. 16. 2. 10.
      18. 18. 12. 148.</_>
    <_>
      110. 22. 16. 12. 6. 8. 18. 18. 16. 2. 4. 4. 16. 2. 4. 8. 18. 0. 2.
      2. 2. 2. 2. 2. 8. 2. 0. 0. 8. 0. 16. 12. 14. 6. 2. 4. 10. 0. 2. 2.
      6. 2. 0. 2. 0. 0. 0. 0. 10. 0. 0. 4. 8. 2. 2. 2. 2. 2. 0. 4. 18.
      2. 6. 8. 16. 4. 10. 4. 4. 0. 0. 2. 14. 2. 2. 2. 2. 0. 2. 0. 8. 0.
      4. 2. 4. 0. 2. 0. 2. 0. 2. 2. 2. 0. 4. 4. 16. 0. 6. 4. 2. 0. 6. 2.
      0. 2. 0. 0. 0. 2. 0. 6. 2. 4. 0. 2. 2. 0. 4. 0. 0. 4. 4. 2. 0. 6.
      10. 14. 6. 16. 2. 16. 10. 4. 2. 30. 0. 2. 0. 0. 0. 2. 2. 20. 2. 2.
      0. 4. 2. 2. 0. 4. 2. 0. 0. 0. 0. 2. 4. 2. 8. 0. 2. 0. 2. 0. 2. 2.
      0. 0. 2. 2. 0. 0. 0. 4. 2. 4. 0. 8. 0. 2. 4. 4. 0. 0. 2. 4. 2. 4.
      10. 16. 6. 20. 2. 14. 0. 4. 2. 18. 4. 2. 2. 6. 2. 2. 0. 18. 0. 2.
      0. 10. 0. 2. 0. 6. 6. 2. 2. 6. 2. 2. 2. 36. 10. 28. 2. 20. 4. 4.
      0. 20. 0. 2. 0. 10. 0. 0. 8. 26. 4. 14. 2. 18. 6. 10. 0. 20. 6.
      10. 0. 30. 12. 12. 10. 214.</_>
    <_>
      68. 20. 4. 2. 24. 2. 6. 16. 8. 0. 0. 0. 10. 2. 12. 18. 18. 6. 4.
      4. 2. 0. 2. 4. 6. 2. 0. 2. 16. 2. 14. 10. 6. 4. 4. 0. 0. 0. 0. 2.
      0. 0. 0. 0. 6. 2. 0. 2. 18. 2. 4. 2. 2. 2. 4. 0. 32. 10. 0. 0. 88.
      0. 12. 12. 8. 4. 4. 0. 8. 0. 0. 2. 0. 0. 0. 2. 2. 0. 0. 0. 8. 0.
      0. 2. 0. 0. 0. 2. 0. 2. 2. 0. 2. 0. 2. 4. 2. 4. 2. 0. 2. 0. 0. 2.
      4. 0. 0. 0. 0. 0. 0. 0. 12. 2. 2. 4. 2. 4. 2. 2. 32. 0. 2. 0. 52.
      14. 18. 18. 0. 10. 0. 16. 0. 0. 2. 56. 2. 0. 2. 0. 2. 2. 0. 22. 2.
      0. 0. 2. 0. 0. 0. 4. 8. 0. 0. 6. 6. 2. 2. 8. 0. 0. 0. 0. 0. 0. 0.
      2. 0. 0. 0. 0. 0. 0. 0. 0. 0. 0. 0. 2. 0. 0. 0. 0. 2. 8. 0. 10. 0.
      0. 4. 24. 8. 16. 0. 52. 2. 0. 2. 38. 4. 4. 0. 0. 0. 0. 2. 8. 0. 2.
      0. 0. 0. 0. 0. 8. 0. 0. 0. 0. 4. 2. 0. 10. 12. 20. 0. 20. 0. 4. 2.
      10. 4. 4. 2. 4. 2. 6. 4. 18. 22. 8. 0. 16. 4. 0. 0. 18. 18. 14. 6.
      8. 22. 8. 34. 176.</_>
    <_>
      62. 6. 18. 2. 6. 2. 2. 12. 10. 4. 2. 0. 0. 0. 16. 12. 10. 8. 0. 4.
      0. 0. 0. 4. 2. 4. 0. 0. 14. 4. 14. 18. 12. 0. 6. 0. 4. 0. 2. 0. 6.
      0. 0. 0. 2. 0. 2. 0. 4. 0. 4. 0. 2. 0. 0. 2. 12. 2. 6. 2. 20. 0.
      6. 12. 6. 8. 2. 0. 12. 8. 6. 0. 2. 0. 0. 0. 0. 0. 0. 6. 2. 4. 2.
      2. 0. 2. 0. 2. 2. 0. 0. 0. 0. 0. 4. 4. 6. 0. 2. 0. 0. 2. 0. 2. 2.
      0. 0. 0. 0. 2. 4. 4. 10. 2. 0. 6. 2. 0. 4. 0. 10. 0. 0. 2. 24. 16.
      22. 26. 10. 2. 2. 10. 2. 0. 2. 10. 0. 4. 2. 0. 2. 0. 0. 20. 0. 2.
      0. 0. 0. 0. 2. 0. 2. 0. 0. 0. 0. 0. 0. 8. 4. 0. 0. 4. 0. 0. 0. 4.
      4. 2. 0. 0. 0. 0. 2. 2. 0. 0. 0. 0. 0. 0. 0. 2. 4. 0. 2. 6. 2. 0.
      6. 30. 12. 14. 2. 24. 4. 4. 4. 20. 0. 0. 0. 2. 0. 4. 2. 12. 0. 6.
      0. 0. 2. 2. 0. 6. 0. 0. 0. 0. 2. 6. 0. 38. 12. 16. 2. 8. 0. 0. 2.
      14. 2. 2. 0. 2. 2. 0. 2. 24. 6. 18. 0. 8. 2. 10. 0. 26. 16. 16. 6.
      26. 16. 34. 36. 376.</_>
    <_>
      72. 16. 2. 4. 18. 10. 2. 2. 4. 4. 0. 0. 6. 0. 2. 14. 24. 8. 0. 0.
      4. 2. 0. 4. 4. 0. 0. 0. 4. 0. 2. 14. 20. 0. 4. 0. 2. 0. 0. 0. 4.
      0. 0. 0. 0. 0. 0. 0. 6. 0. 2. 2. 4. 0. 0. 2. 8. 2. 2. 2. 12. 0. 4.
      4. 34. 4. 2. 0. 16. 2. 4. 2. 2. 0. 0. 0. 4. 0. 2. 0. 8. 0. 0. 2.
      2. 0. 0. 0. 4. 0. 0. 2. 0. 2. 0. 6. 12. 0. 2. 4. 8. 0. 0. 0. 4. 0.
      0. 2. 0. 0. 2. 4. 18. 2. 2. 0. 2. 0. 0. 0. 26. 12. 4. 4. 8. 4. 4.
      6. 12. 14. 2. 14. 2. 2. 0. 34. 4. 0. 2. 2. 0. 8. 0. 12. 6. 0. 0.
      4. 0. 0. 0. 4. 2. 0. 0. 0. 0. 0. 2. 6. 4. 2. 2. 2. 0. 0. 0. 4. 2.
      0. 0. 0. 0. 0. 0. 4. 8. 2. 0. 2. 0. 2. 0. 0. 2. 2. 2. 6. 2. 0. 0.
      10. 6. 18. 0. 46. 0. 2. 2. 22. 0. 2. 0. 2. 0. 4. 2. 2. 6. 2. 0. 0.
      0. 0. 0. 0. 2. 0. 0. 4. 0. 2. 0. 8. 28. 32. 4. 28. 0. 2. 0. 20. 2.
      2. 4. 4. 2. 0. 6. 24. 24. 20. 2. 12. 4. 14. 0. 28. 10. 20. 4. 50.
      12. 14. 14. 330.</_>
    <_>
      46. 18. 0. 6. 4. 4. 4. 18. 0. 0. 0. 0. 10. 2. 14. 22. 24. 2. 4. 2.
      0. 0. 4. 4. 16. 2. 2. 4. 2. 4. 46. 50. 4. 0. 0. 0. 2. 0. 2. 0. 0.
      0. 0. 0. 0. 0. 0. 0. 8. 4. 0. 0. 4. 0. 0. 2. 2. 2. 0. 0. 28. 0.
      12. 10. 4. 0. 4. 2. 0. 0. 0. 0. 2. 0. 0. 0. 0. 0. 0. 2. 2. 0. 0.
      0. 0. 0. 0. 0. 0. 0. 4. 0. 0. 0. 0. 2. 8. 4. 0. 0. 0. 0. 2. 2. 0.
      0. 0. 0. 0. 0. 2. 0. 20. 6. 0. 4. 2. 0. 0. 2. 12. 2. 2. 2. 6. 0.
      8. 12. 4. 6. 0. 6. 2. 6. 0. 18. 2. 0. 0. 0. 2. 0. 0. 6. 0. 2. 0.
      0. 0. 0. 0. 0. 0. 2. 0. 0. 2. 2. 4. 16. 0. 4. 0. 0. 0. 0. 0. 6. 0.
      0. 0. 0. 0. 0. 0. 0. 0. 2. 0. 0. 0. 0. 0. 4. 0. 0. 0. 0. 2. 8. 0.
      4. 4. 26. 4. 26. 4. 0. 0. 8. 2. 0. 0. 10. 0. 4. 0. 10. 0. 4. 0. 0.
      0. 0. 0. 0. 4. 0. 0. 4. 2. 4. 0. 10. 58. 118. 4. 16. 2. 0. 0. 10.
      0. 2. 0. 2. 0. 2. 10. 24. 72. 152. 0. 8. 4. 14. 2. 16. 12. 18. 2.
      28. 10. 12. 24. 198.</_>
    <_>
      118. 8. 14. 14. 16. 2. 8. 10. 10. 2. 0. 0. 0. 4. 4. 12. 10. 10. 4.
      0. 2. 0. 4. 0. 6. 0. 2. 0. 2. 0. 4. 2. 14. 6. 0. 6. 2. 0. 2. 2. 6.
      0. 0. 0. 0. 0. 4. 2. 2. 2. 4. 2. 4. 2. 8. 2. 4. 2. 0. 2. 10. 0.
      10. 8. 14. 10. 6. 2. 2. 0. 2. 6. 2. 2. 0. 2. 0. 2. 0. 8. 8. 2. 0.
      0. 0. 4. 2. 2. 2. 0. 0. 0. 2. 6. 0. 0. 12. 6. 6. 8. 2. 2. 0. 2. 4.
      0. 0. 4. 2. 0. 0. 0. 10. 4. 4. 2. 2. 2. 6. 18. 6. 8. 6. 0. 2. 4.
      10. 10. 14. 10. 6. 14. 8. 4. 4. 16. 2. 0. 0. 6. 2. 2. 2. 22. 4. 2.
      0. 4. 0. 2. 0. 2. 0. 4. 2. 0. 0. 2. 6. 12. 12. 10. 0. 4. 0. 0. 4.
      8. 4. 0. 2. 2. 0. 6. 2. 8. 4. 0. 0. 4. 0. 0. 4. 4. 2. 2. 0. 2. 8.
      6. 10. 12. 18. 18. 6. 8. 2. 10. 4. 8. 2. 2. 0. 2. 0. 2. 4. 12. 0.
      4. 0. 4. 0. 4. 4. 12. 4. 2. 2. 2. 8. 18. 4. 22. 6. 14. 4. 28. 0.
      0. 2. 16. 8. 12. 0. 18. 2. 8. 2. 34. 12. 8. 12. 14. 2. 10. 6. 30.
      16. 12. 12. 14. 12. 24. 12. 156.</_>
    <_>
      12. 8. 2. 0. 14. 0. 6. 8. 0. 0. 0. 0. 6. 0. 10. 6. 4. 0. 0. 0. 0.
      0. 0. 0. 6. 0. 0. 2. 6. 2. 10. 22. 0. 0. 0. 0. 0. 0. 2. 0. 0. 0.
      0. 0. 0. 0. 0. 0. 10. 2. 0. 0. 2. 0. 0. 0. 14. 2. 0. 0. 32. 0. 10.
      4. 4. 2. 0. 2. 0. 0. 0. 2. 0. 0. 0. 0. 0. 0. 0. 0. 0. 0. 0. 0. 0.
      0. 0. 0. 2. 0. 0. 0. 0. 0. 0. 0. 2. 0. 2. 2. 0. 0. 0. 0. 0. 0. 0.
      0. 0. 0. 0. 2. 20. 0. 0. 0. 0. 0. 0. 2. 58. 2. 6. 4. 40. 0. 6. 8.
      0. 10. 0. 16. 2. 0. 0. 24. 0. 0. 0. 0. 0. 0. 2. 6. 0. 4. 0. 2. 0.
      0. 0. 0. 0. 0. 0. 0. 2. 0. 0. 2. 0. 0. 0. 0. 0. 0. 0. 6. 0. 0. 0.
      0. 0. 0. 0. 2. 2. 0. 0. 0. 0. 0. 0. 8. 0. 4. 0. 0. 2. 6. 0. 14. 0.
      16. 0. 72. 0. 0. 0. 58. 2. 2. 0. 2. 0. 0. 2. 6. 0. 2. 0. 2. 0. 2.
      0. 0. 2. 0. 0. 4. 0. 2. 0. 4. 6. 4. 0. 20. 2. 2. 2. 18. 2. 0. 0.
      4. 0. 0. 4. 6. 12. 12. 0. 10. 0. 0. 0. 18. 18. 8. 2. 8. 22. 24.
      10. 694.</_>
    <_>
      42. 22. 2. 6. 2. 4. 6. 14. 4. 2. 0. 0. 10. 4. 10. 26. 20. 6. 0. 2.
      0. 0. 4. 0. 6. 0. 0. 0. 6. 0. 20. 16. 4. 2. 0. 0. 0. 0. 0. 2. 0.
      0. 0. 0. 0. 0. 0. 6. 20. 6. 0. 0. 0. 0. 0. 0. 10. 0. 0. 0. 38. 0.
      10. 6. 16. 0. 0. 0. 2. 0. 0. 2. 0. 0. 0. 0. 0. 0. 0. 0. 2. 0. 0.
      0. 0. 0. 0. 0. 2. 0. 0. 0. 0. 0. 2. 0. 20. 8. 0. 0. 0. 0. 0. 0. 2.
      0. 0. 0. 0. 0. 0. 0. 56. 6. 2. 0. 2. 4. 0. 4. 60. 0. 2. 0. 16. 0.
      0. 14. 6. 10. 0. 2. 0. 2. 0. 12. 0. 0. 0. 2. 0. 0. 2. 8. 6. 4. 0.
      0. 0. 0. 0. 0. 0. 0. 0. 0. 0. 0. 6. 0. 0. 0. 0. 6. 0. 0. 0. 6. 0.
      0. 0. 0. 0. 0. 0. 2. 2. 2. 0. 0. 0. 0. 0. 0. 0. 2. 0. 2. 2. 4. 2.
      16. 20. 32. 0. 34. 0. 0. 0. 4. 2. 0. 0. 6. 0. 4. 2. 0. 6. 0. 0. 0.
      2. 0. 0. 2. 2. 0. 0. 2. 0. 4. 0. 6. 42. 104. 0. 18. 8. 4. 2. 10.
      4. 12. 0. 2. 4. 2. 0. 24. 196. 74. 8. 20. 2. 6. 6. 14. 68. 26. 2.
      18. 4. 16. 20. 58.</_>
    <_>
      80. 14. 14. 10. 12. 4. 4. 16. 6. 4. 4. 2. 8. 10. 6. 50. 26. 6. 6.
      2. 4. 2. 2. 2. 14. 4. 2. 0. 18. 2. 38. 12. 18. 0. 0. 0. 4. 0. 4.
      0. 2. 0. 0. 0. 0. 0. 0. 0. 8. 0. 4. 2. 0. 2. 4. 0. 6. 2. 0. 2. 26.
      0. 22. 14. 26. 6. 6. 6. 4. 0. 0. 6. 8. 0. 0. 0. 2. 0. 2. 4. 10. 0.
      0. 2. 0. 0. 0. 0. 0. 2. 0. 0. 0. 2. 0. 4. 10. 4. 0. 2. 6. 0. 0. 0.
      2. 0. 6. 0. 0. 0. 0. 4. 12. 4. 2. 2. 4. 2. 0. 0. 30. 6. 2. 2. 14.
      0. 22. 16. 24. 16. 0. 8. 2. 0. 0. 20. 0. 2. 0. 0. 2. 0. 8. 18. 2.
      2. 0. 2. 0. 2. 0. 2. 0. 2. 0. 4. 2. 0. 4. 10. 4. 4. 0. 0. 0. 0. 0.
      4. 0. 0. 0. 0. 2. 0. 4. 8. 4. 0. 0. 2. 0. 2. 0. 2. 0. 0. 0. 12. 0.
      0. 0. 14. 10. 26. 2. 16. 2. 4. 2. 16. 6. 0. 0. 6. 0. 2. 0. 6. 10.
      2. 0. 0. 0. 2. 2. 2. 4. 0. 0. 2. 2. 2. 6. 10. 12. 16. 0. 22. 2. 4.
      2. 14. 2. 0. 2. 2. 2. 2. 4. 12. 88. 20. 8. 16. 0. 2. 6. 20. 38.
      10. 10. 26. 10. 16. 28. 90.</_>
    <_>
      54. 28. 10. 10. 26. 2. 2. 10. 8. 2. 0. 0. 4. 4. 22. 36. 28. 26. 6.
      0. 2. 0. 2. 0. 4. 0. 0. 0. 10. 4. 42. 30. 10. 0. 0. 0. 6. 0. 0. 0.
      0. 0. 0. 0. 2. 0. 0. 10. 6. 0. 2. 0. 4. 0. 4. 2. 14. 0. 0. 4. 42.
      0. 8. 6. 12. 4. 4. 6. 16. 0. 6. 2. 6. 0. 0. 2. 0. 0. 0. 0. 4. 0.
      0. 0. 2. 0. 0. 0. 6. 0. 0. 0. 2. 0. 2. 0. 12. 8. 0. 2. 0. 0. 2. 4.
      0. 0. 0. 0. 0. 0. 0. 2. 16. 0. 4. 2. 4. 0. 0. 0. 40. 4. 10. 2. 16.
      4. 10. 12. 6. 6. 0. 8. 6. 8. 0. 24. 0. 0. 0. 0. 2. 6. 0. 8. 4. 0.
      0. 2. 0. 0. 0. 4. 0. 0. 2. 0. 2. 2. 2. 14. 0. 0. 0. 2. 0. 0. 0. 8.
      0. 0. 0. 0. 0. 0. 0. 0. 0. 0. 0. 0. 0. 0. 0. 4. 2. 0. 2. 2. 6. 2.
      10. 26. 0. 16. 2. 24. 0. 0. 0. 10. 0. 0. 0. 8. 2. 0. 0. 4. 0. 0.
      0. 0. 0. 0. 0. 2. 4. 0. 0. 4. 0. 0. 4. 18. 12. 36. 2. 12. 6. 0. 0.
      12. 0. 8. 0. 2. 0. 6. 6. 26. 40. 36. 8. 14. 0. 4. 6. 10. 24. 24.
      4. 30. 14. 26. 32. 180.</_>
    <_>
      34. 16. 6. 14. 32. 0. 14. 22. 0. 0. 2. 0. 8. 0. 8. 38. 6. 0. 2. 2.
      2. 0. 2. 8. 6. 0. 0. 0. 8. 0. 20. 44. 4. 2. 6. 2. 0. 0. 2. 2. 2.
      2. 0. 2. 0. 0. 2. 0. 16. 0. 2. 0. 0. 0. 2. 0. 22. 0. 2. 4. 40. 0.
      14. 6. 20. 2. 2. 2. 6. 2. 0. 4. 4. 2. 0. 0. 2. 0. 2. 0. 2. 0. 0.
      0. 0. 0. 0. 0. 0. 0. 0. 0. 2. 2. 0. 4. 6. 0. 0. 6. 0. 0. 4. 6. 0.
      0. 0. 0. 0. 0. 0. 0. 34. 2. 4. 4. 2. 2. 2. 0. 28. 2. 0. 0. 30. 0.
      2. 4. 0. 12. 2. 36. 4. 6. 2. 70. 0. 0. 0. 4. 2. 2. 4. 54. 0. 0. 0.
      0. 0. 0. 0. 2. 0. 0. 0. 4. 4. 0. 0. 20. 6. 4. 0. 2. 0. 0. 0. 0. 0.
      0. 0. 0. 0. 0. 0. 4. 2. 0. 0. 2. 0. 0. 0. 0. 4. 0. 0. 0. 14. 4. 4.
      16. 4. 10. 2. 42. 2. 6. 0. 28. 0. 0. 0. 18. 0. 0. 0. 16. 2. 0. 0.
      4. 0. 0. 0. 8. 0. 2. 0. 4. 0. 4. 0. 30. 16. 28. 4. 20. 6. 0. 0.
      20. 4. 2. 2. 2. 2. 0. 2. 20. 60. 20. 0. 16. 0. 6. 0. 20. 48. 22.
      8. 8. 16. 36. 18. 66.</_>
    <_>
      46. 2. 2. 6. 22. 4. 14. 26. 6. 0. 0. 4. 14. 2. 12. 12. 14. 0. 0.
      0. 2. 0. 0. 0. 2. 0. 0. 0. 40. 0. 44. 22. 4. 0. 0. 0. 4. 0. 2. 0.
      0. 0. 0. 0. 0. 0. 2. 0. 16. 0. 0. 2. 2. 0. 2. 0. 44. 2. 2. 2. 56.
      0. 26. 10. 24. 0. 0. 2. 4. 0. 2. 4. 4. 0. 0. 0. 2. 0. 0. 0. 2. 0.
      0. 2. 0. 0. 0. 0. 2. 0. 0. 0. 0. 0. 2. 0. 20. 0. 0. 0. 2. 0. 0. 0.
      2. 0. 0. 0. 4. 0. 0. 0. 38. 4. 2. 2. 4. 0. 0. 0. 60. 6. 0. 2. 34.
      0. 22. 2. 2. 10. 0. 30. 2. 4. 0. 50. 0. 0. 0. 0. 0. 0. 0. 14. 0.
      0. 0. 0. 0. 0. 0. 0. 2. 0. 0. 0. 0. 2. 2. 10. 0. 2. 0. 2. 0. 0. 0.
      2. 0. 0. 0. 0. 0. 0. 0. 2. 0. 0. 0. 2. 0. 0. 0. 0. 2. 0. 0. 4. 4.
      2. 4. 18. 16. 44. 0. 106. 2. 0. 2. 32. 0. 2. 0. 2. 4. 0. 0. 8. 2.
      2. 2. 2. 0. 0. 0. 0. 0. 2. 0. 0. 4. 0. 0. 6. 24. 50. 2. 24. 2. 2.
      4. 8. 0. 2. 0. 4. 0. 4. 0. 12. 40. 20. 4. 16. 2. 0. 2. 10. 44. 18.
      2. 48. 10. 20. 8. 50.</_>
    <_>
      14. 12. 2. 6. 8. 2. 6. 18. 0. 2. 0. 0. 8. 2. 2. 30. 18. 0. 0. 0.
      0. 0. 0. 0. 6. 0. 0. 0. 20. 4. 12. 6. 6. 0. 0. 0. 0. 0. 0. 0. 0.
      0. 0. 0. 0. 0. 0. 0. 18. 0. 2. 0. 2. 0. 0. 0. 34. 0. 0. 0. 64. 2.
      12. 6. 14. 0. 0. 2. 0. 0. 0. 0. 0. 0. 0. 0. 0. 0. 0. 0. 0. 0. 0.
      0. 0. 0. 0. 0. 0. 0. 0. 0. 2. 0. 0. 0. 14. 2. 0. 2. 4. 0. 0. 4. 2.
      0. 0. 0. 2. 0. 2. 0. 56. 2. 0. 0. 4. 0. 0. 0. 160. 0. 0. 0. 94. 0.
      10. 2. 2. 12. 0. 20. 0. 2. 0. 84. 0. 2. 0. 0. 0. 2. 4. 18. 0. 0.
      0. 2. 0. 0. 0. 0. 0. 0. 0. 0. 0. 2. 2. 2. 0. 0. 0. 0. 0. 0. 0. 0.
      0. 0. 0. 0. 0. 0. 0. 0. 0. 0. 0. 2. 0. 0. 0. 0. 0. 0. 0. 8. 0. 2.
      0. 12. 22. 34. 0. 60. 4. 0. 0. 40. 0. 0. 0. 4. 0. 0. 2. 2. 2. 4.
      0. 0. 0. 0. 0. 0. 2. 0. 0. 0. 0. 2. 0. 4. 28. 56. 0. 26. 0. 0. 0.
      18. 0. 0. 0. 2. 0. 2. 4. 14. 122. 44. 0. 10. 0. 2. 2. 8. 50. 16.
      0. 12. 14. 2. 16. 58.</_>
    <_>
      22. 20. 0. 14. 22. 0. 10. 24. 0. 2. 2. 0. 6. 0. 42. 66. 10. 6. 2.
      2. 2. 0. 2. 0. 16. 0. 0. 0. 42. 0. 114. 90. 6. 0. 0. 0. 4. 0. 0.
      0. 0. 0. 0. 0. 0. 0. 0. 2. 10. 2. 0. 0. 2. 0. 0. 0. 26. 0. 4. 2.
      88. 4. 4. 8. 16. 0. 0. 2. 12. 0. 2. 0. 0. 0. 0. 0. 0. 0. 2. 0. 2.
      0. 0. 0. 0. 0. 0. 0. 2. 0. 0. 0. 0. 0. 0. 2. 14. 2. 0. 2. 4. 0. 2.
      0. 0. 0. 0. 0. 0. 0. 2. 0. 36. 0. 0. 0. 2. 0. 0. 2. 62. 0. 2. 2.
      60. 0. 2. 2. 6. 14. 0. 10. 0. 2. 2. 18. 0. 0. 0. 0. 0. 0. 0. 6. 0.
      0. 0. 0. 0. 0. 0. 0. 0. 0. 0. 0. 2. 2. 0. 12. 0. 2. 0. 0. 0. 2. 0.
      2. 2. 0. 0. 0. 0. 0. 0. 0. 0. 0. 0. 0. 0. 0. 0. 4. 0. 2. 0. 4. 4.
      0. 0. 18. 12. 26. 0. 20. 0. 0. 0. 8. 0. 4. 2. 0. 2. 0. 0. 10. 2.
      0. 2. 0. 0. 0. 0. 0. 0. 0. 0. 0. 2. 0. 4. 6. 16. 88. 0. 24. 0. 0.
      2. 14. 0. 0. 0. 0. 0. 2. 2. 22. 44. 26. 0. 14. 2. 0. 2. 4. 16. 10.
      0. 30. 18. 12. 20. 72.</_>
    <_>
      26. 16. 4. 12. 24. 4. 16. 26. 4. 2. 2. 0. 6. 2. 14. 38. 10. 6. 0.
      2. 0. 0. 2. 0. 8. 4. 0. 0. 14. 0. 34. 16. 4. 4. 0. 0. 0. 0. 0. 2.
      0. 0. 0. 0. 0. 0. 2. 2. 6. 0. 0. 2. 0. 0. 2. 0. 20. 4. 2. 2. 60.
      0. 16. 12. 22. 2. 2. 0. 4. 2. 6. 6. 0. 0. 0. 0. 0. 0. 0. 0. 2. 0.
      0. 0. 0. 0. 0. 0. 0. 0. 0. 0. 4. 0. 0. 0. 14. 0. 2. 2. 0. 0. 2. 0.
      0. 0. 0. 0. 0. 0. 0. 2. 14. 0. 2. 2. 2. 0. 0. 2. 34. 0. 4. 4. 30.
      0. 4. 4. 2. 16. 0. 44. 2. 2. 2. 210. 0. 2. 0. 0. 0. 0. 2. 30. 0.
      0. 2. 0. 0. 0. 0. 0. 0. 0. 0. 0. 0. 0. 6. 18. 0. 0. 0. 0. 0. 2. 0.
      4. 0. 0. 0. 0. 0. 0. 0. 4. 0. 0. 0. 0. 0. 0. 0. 2. 0. 0. 0. 6. 6.
      0. 2. 38. 8. 24. 0. 56. 6. 0. 0. 144. 2. 4. 0. 4. 0. 0. 2. 16. 0.
      0. 0. 2. 0. 0. 0. 4. 4. 0. 0. 4. 0. 6. 4. 18. 6. 34. 0. 18. 0. 0.
      0. 6. 2. 2. 0. 2. 0. 0. 4. 20. 8. 4. 2. 6. 0. 0. 0. 8. 6. 2. 2.
      16. 6. 2. 8. 88.</_>
    <_>
      18. 28. 6. 16. 2. 0. 4. 50. 0. 2. 0. 2. 16. 6. 36. 204. 32. 6. 0.
      0. 0. 0. 2. 4. 28. 2. 2. 0. 24. 4. 50. 74. 0. 2. 0. 0. 0. 0. 0. 0.
      2. 0. 0. 0. 0. 0. 2. 4. 4. 2. 0. 0. 0. 0. 0. 0. 14. 0. 0. 0. 16.
      0. 28. 10. 2. 0. 0. 2. 0. 0. 0. 0. 0. 0. 0. 0. 0. 0. 2. 2. 2. 0.
      0. 0. 0. 0. 0. 0. 2. 0. 0. 0. 0. 0. 0. 0. 6. 0. 0. 0. 0. 0. 0. 2.
      0. 0. 0. 0. 0. 0. 0. 0. 22. 4. 0. 0. 0. 0. 2. 0. 72. 0. 0. 0. 16.
      2. 20. 6. 2. 10. 0. 38. 0. 0. 0. 60. 2. 0. 0. 0. 0. 0. 2. 36. 0.
      0. 0. 0. 0. 0. 0. 2. 2. 0. 0. 2. 0. 0. 2. 8. 0. 0. 2. 2. 0. 0. 0.
      2. 0. 0. 0. 0. 0. 0. 0. 2. 2. 0. 0. 0. 0. 0. 0. 0. 0. 0. 0. 0. 4.
      0. 2. 4. 0. 28. 0. 28. 0. 0. 0. 34. 2. 0. 0. 0. 0. 0. 2. 26. 4. 2.
      0. 0. 0. 0. 2. 2. 0. 4. 0. 0. 2. 2. 0. 2. 16. 34. 0. 28. 0. 0. 2.
      10. 0. 2. 0. 0. 0. 2. 4. 30. 64. 14. 6. 12. 0. 0. 0. 12. 30. 10.
      2. 12. 4. 8. 20. 54.</_>
    <_>
      48. 26. 6. 8. 6. 4. 2. 18. 8. 0. 0. 0. 4. 0. 12. 16. 18. 20. 4. 6.
      0. 8. 4. 6. 14. 2. 2. 0. 16. 4. 16. 26. 12. 0. 0. 0. 2. 0. 0. 0.
      4. 0. 0. 0. 2. 0. 4. 0. 6. 4. 0. 0. 2. 2. 0. 6. 12. 2. 0. 2. 6. 2.
      6. 14. 2. 2. 0. 4. 6. 0. 10. 2. 0. 0. 2. 0. 6. 2. 0. 0. 2. 2. 0.
      0. 0. 2. 0. 2. 6. 0. 0. 0. 6. 0. 8. 0. 4. 2. 0. 2. 2. 0. 2. 0. 2.
      2. 0. 0. 2. 0. 0. 4. 8. 2. 0. 2. 0. 2. 4. 2. 2. 0. 0. 0. 24. 8.
      16. 20. 8. 4. 2. 12. 2. 0. 2. 22. 0. 2. 2. 0. 2. 0. 4. 4. 0. 2. 0.
      0. 0. 0. 0. 8. 0. 0. 0. 0. 0. 4. 2. 12. 2. 0. 0. 0. 0. 0. 2. 2. 0.
      0. 0. 0. 0. 0. 0. 0. 0. 2. 0. 0. 0. 0. 2. 0. 0. 2. 0. 4. 0. 4. 2.
      24. 8. 18. 0. 14. 4. 4. 0. 52. 0. 2. 0. 2. 0. 0. 2. 16. 2. 0. 0.
      4. 0. 0. 0. 4. 0. 0. 2. 2. 2. 2. 0. 22. 10. 14. 0. 10. 0. 0. 2.
      18. 0. 4. 0. 6. 8. 4. 6. 34. 12. 10. 2. 8. 4. 2. 0. 28. 10. 8. 2.
      26. 10. 12. 32. 416.</_>
    <_>
      50. 16. 2. 18. 6. 4. 10. 48. 4. 2. 0. 2. 4. 2. 12. 70. 10. 2. 0.
      4. 2. 0. 2. 0. 22. 0. 0. 0. 24. 2. 46. 32. 0. 2. 2. 0. 0. 0. 0. 2.
      2. 0. 0. 0. 0. 0. 0. 2. 22. 6. 2. 0. 4. 0. 0. 2. 12. 2. 2. 0. 20.
      2. 12. 8. 6. 0. 0. 6. 2. 0. 0. 0. 0. 0. 0. 0. 2. 0. 0. 2. 2. 0. 0.
      0. 0. 0. 0. 0. 0. 0. 0. 0. 0. 0. 0. 4. 6. 2. 0. 0. 4. 0. 2. 0. 2.
      2. 0. 2. 0. 0. 2. 4. 54. 2. 0. 0. 0. 0. 2. 0. 46. 2. 6. 2. 18. 2.
      4. 4. 6. 20. 0. 16. 2. 0. 0. 70. 0. 0. 0. 0. 2. 0. 0. 70. 2. 2. 0.
      0. 0. 0. 0. 0. 0. 0. 0. 4. 0. 0. 0. 10. 0. 2. 0. 2. 0. 0. 0. 0. 0.
      0. 0. 0. 0. 0. 2. 0. 2. 0. 0. 0. 0. 0. 0. 0. 2. 2. 0. 0. 2. 0. 0.
      16. 8. 42. 4. 66. 0. 0. 0. 14. 2. 0. 2. 0. 0. 2. 2. 20. 2. 0. 0.
      4. 0. 0. 0. 2. 2. 0. 0. 0. 0. 0. 0. 14. 18. 58. 0. 24. 0. 0. 0.
      36. 0. 0. 0. 0. 0. 0. 2. 42. 44. 20. 4. 8. 0. 0. 0. 8. 32. 22. 2.
      0. 26. 8. 40. 62.</_>
    <_>
      36. 22. 4. 4. 26. 4. 4. 14. 0. 2. 0. 0. 8. 0. 12. 20. 16. 6. 0. 0.
      0. 0. 0. 2. 0. 0. 0. 0. 8. 2. 22. 4. 4. 2. 2. 0. 0. 0. 0. 2. 0. 0.
      0. 0. 0. 0. 0. 0. 12. 2. 2. 0. 2. 0. 0. 0. 16. 0. 0. 0. 40. 0. 10.
      0. 30. 0. 0. 2. 0. 0. 0. 2. 0. 0. 0. 0. 2. 2. 0. 0. 6. 0. 0. 0. 4.
      0. 0. 0. 0. 0. 0. 0. 0. 0. 0. 2. 16. 6. 0. 0. 2. 0. 0. 0. 0. 0. 0.
      0. 0. 0. 0. 6. 32. 4. 6. 0. 0. 0. 2. 0. 16. 2. 2. 0. 12. 0. 4. 6.
      8. 20. 0. 14. 4. 0. 0. 38. 4. 2. 0. 0. 2. 2. 0. 8. 0. 0. 0. 0. 0.
      0. 0. 0. 0. 0. 0. 0. 2. 0. 6. 6. 0. 4. 0. 0. 0. 0. 0. 4. 0. 0. 0.
      0. 0. 0. 0. 0. 4. 4. 0. 0. 0. 0. 0. 8. 4. 2. 0. 4. 6. 2. 0. 20.
      22. 26. 0. 54. 6. 0. 0. 32. 0. 0. 0. 4. 0. 0. 2. 2. 4. 4. 0. 0. 0.
      0. 0. 0. 0. 2. 2. 2. 2. 2. 2. 2. 54. 122. 0. 30. 0. 2. 2. 14. 0.
      0. 0. 4. 0. 6. 0. 8. 118. 94. 10. 16. 6. 6. 6. 10. 34. 32. 2. 28.
      16. 18. 18. 88.</_>
    <_>
      38. 16. 8. 2. 14. 4. 6. 20. 8. 0. 0. 2. 10. 6. 68. 80. 20. 10. 2.
      4. 2. 0. 2. 0. 0. 6. 0. 2. 12. 2. 84. 82. 8. 2. 2. 0. 2. 0. 0. 0.
      0. 0. 0. 0. 0. 0. 4. 8. 12. 2. 2. 2. 2. 0. 0. 0. 4. 0. 0. 0. 14.
      0. 24. 20. 12. 0. 0. 0. 0. 0. 0. 0. 2. 0. 0. 0. 0. 0. 2. 6. 0. 0.
      0. 0. 2. 0. 0. 0. 4. 0. 0. 0. 0. 0. 0. 2. 6. 14. 2. 0. 0. 0. 0. 8.
      2. 0. 0. 0. 2. 0. 2. 0. 22. 2. 2. 0. 0. 0. 2. 0. 18. 4. 0. 0. 0.
      0. 14. 14. 4. 12. 0. 6. 0. 4. 2. 26. 0. 0. 0. 4. 0. 0. 0. 26. 2.
      2. 0. 0. 0. 0. 0. 0. 2. 0. 0. 0. 2. 0. 0. 18. 2. 0. 0. 0. 2. 0. 0.
      0. 0. 0. 0. 0. 0. 0. 0. 2. 2. 0. 0. 0. 0. 2. 0. 0. 0. 2. 0. 0. 0.
      0. 2. 2. 14. 18. 2. 12. 2. 0. 0. 8. 0. 0. 0. 0. 2. 0. 2. 18. 4. 2.
      0. 0. 0. 0. 0. 0. 0. 0. 0. 0. 0. 2. 4. 12. 28. 64. 0. 30. 0. 4. 2.
      12. 4. 2. 0. 4. 2. 0. 12. 36. 114. 64. 0. 24. 2. 0. 4. 6. 28. 18.
      0. 10. 12. 10. 30. 56.</_>
    <_>
      54. 14. 6. 8. 26. 0. 10. 32. 6. 4. 0. 2. 22. 0. 18. 58. 18. 0. 0.
      2. 2. 0. 6. 2. 16. 2. 2. 0. 14. 4. 26. 14. 4. 2. 2. 0. 0. 0. 0. 0.
      4. 0. 0. 0. 4. 0. 0. 4. 18. 0. 2. 0. 2. 0. 2. 0. 20. 0. 4. 0. 42.
      2. 10. 20. 10. 4. 4. 0. 4. 0. 2. 2. 8. 0. 0. 0. 4. 0. 2. 0. 4. 0.
      0. 0. 0. 0. 0. 0. 6. 0. 4. 0. 2. 0. 0. 2. 18. 4. 2. 4. 0. 0. 2. 0.
      2. 0. 0. 0. 4. 0. 2. 2. 26. 0. 2. 2. 4. 0. 4. 0. 38. 2. 0. 2. 32.
      2. 12. 20. 4. 12. 0. 18. 2. 4. 4. 52. 6. 2. 0. 4. 0. 0. 2. 24. 0.
      0. 0. 4. 0. 4. 0. 2. 0. 0. 0. 4. 2. 0. 4. 14. 0. 0. 0. 4. 0. 0. 0.
      2. 0. 0. 0. 0. 2. 0. 0. 4. 2. 0. 0. 0. 0. 0. 0. 4. 0. 0. 0. 8. 2.
      0. 2. 24. 12. 12. 0. 26. 0. 4. 4. 24. 0. 0. 0. 2. 0. 2. 0. 18. 6.
      0. 0. 2. 0. 0. 0. 4. 2. 2. 0. 0. 2. 2. 2. 8. 20. 38. 0. 20. 0. 0.
      0. 26. 2. 2. 0. 2. 0. 0. 2. 12. 44. 22. 6. 10. 6. 0. 0. 12. 26.
      30. 4. 20. 14. 12. 26. 102.</_>
    <_>
      132. 16. 18. 12. 28. 4. 12. 8. 10. 4. 2. 4. 6. 4. 6. 6. 20. 2. 2.
      0. 2. 0. 4. 8. 4. 2. 0. 2. 14. 0. 4. 8. 6. 0. 2. 2. 12. 2. 0. 4.
      2. 2. 0. 0. 4. 0. 2. 6. 18. 2. 0. 0. 8. 0. 2. 2. 14. 2. 0. 6. 20.
      6. 6. 8. 20. 4. 2. 14. 4. 2. 0. 2. 6. 0. 0. 4. 2. 0. 4. 0. 6. 2.
      2. 2. 0. 0. 0. 2. 18. 0. 0. 0. 2. 4. 0. 2. 2. 4. 2. 4. 2. 2. 0. 2.
      6. 0. 0. 0. 2. 0. 2. 4. 12. 4. 2. 0. 4. 0. 4. 6. 24. 2. 6. 8. 18.
      0. 10. 8. 12. 10. 2. 22. 20. 4. 2. 62. 2. 2. 0. 4. 0. 2. 0. 12. 2.
      6. 0. 0. 0. 0. 0. 2. 2. 6. 0. 4. 0. 2. 4. 12. 2. 2. 4. 2. 2. 0. 2.
      14. 0. 2. 0. 2. 0. 0. 0. 0. 8. 2. 2. 0. 0. 0. 0. 6. 0. 4. 4. 2. 2.
      4. 0. 26. 6. 6. 8. 34. 0. 8. 2. 16. 2. 10. 0. 4. 2. 0. 4. 20. 0.
      2. 0. 8. 4. 2. 2. 4. 0. 2. 0. 8. 4. 0. 4. 12. 8. 8. 0. 8. 0. 4. 2.
      6. 0. 0. 0. 6. 0. 4. 8. 20. 14. 6. 4. 14. 2. 2. 2. 18. 12. 8. 0.
      32. 16. 16. 14. 146.</_>
    <_>
      70. 12. 2. 18. 18. 6. 10. 26. 18. 2. 0. 0. 8. 4. 12. 40. 16. 6. 4.
      0. 2. 4. 4. 4. 12. 0. 4. 0. 18. 0. 44. 14. 6. 0. 2. 0. 2. 2. 2. 2.
      4. 0. 0. 0. 2. 0. 2. 4. 8. 0. 2. 2. 4. 0. 0. 0. 32. 2. 0. 0. 46.
      2. 22. 6. 12. 4. 0. 4. 10. 2. 2. 2. 4. 0. 2. 0. 0. 0. 0. 0. 0. 0.
      0. 0. 2. 0. 0. 0. 8. 0. 2. 0. 6. 0. 0. 2. 20. 2. 2. 0. 0. 0. 0. 0.
      0. 0. 0. 0. 0. 2. 0. 6. 34. 6. 4. 0. 4. 0. 0. 0. 26. 2. 6. 2. 26.
      4. 20. 14. 10. 16. 2. 22. 6. 8. 2. 22. 8. 4. 0. 0. 2. 2. 2. 8. 4.
      2. 0. 2. 0. 2. 0. 0. 0. 0. 0. 0. 2. 0. 6. 4. 0. 2. 0. 2. 0. 2. 0.
      6. 0. 0. 0. 2. 0. 2. 0. 4. 0. 0. 0. 0. 0. 0. 0. 4. 4. 0. 0. 6. 6.
      2. 6. 18. 16. 14. 0. 32. 0. 2. 0. 16. 0. 2. 0. 6. 0. 0. 2. 4. 0.
      4. 0. 2. 0. 2. 0. 0. 2. 0. 0. 4. 0. 0. 6. 14. 16. 42. 0. 28. 0. 2.
      0. 14. 0. 10. 0. 2. 0. 4. 4. 30. 42. 28. 4. 8. 0. 0. 4. 10. 42.
      14. 10. 24. 6. 16. 18. 86.</_>
    <_>
      28. 6. 2. 0. 16. 2. 0. 6. 0. 2. 0. 0. 2. 0. 6. 6. 14. 2. 2. 0. 0.
      0. 4. 0. 2. 0. 0. 0. 10. 0. 20. 4. 6. 2. 0. 0. 0. 0. 0. 0. 0. 0.
      0. 0. 0. 0. 0. 2. 14. 0. 0. 0. 4. 0. 2. 0. 54. 0. 0. 0. 58. 0. 4.
      0. 32. 0. 0. 2. 24. 0. 2. 2. 0. 0. 0. 0. 0. 0. 0. 0. 2. 0. 0. 0.
      0. 0. 0. 0. 0. 0. 0. 0. 2. 0. 0. 0. 14. 0. 4. 2. 8. 0. 0. 0. 0. 0.
      0. 0. 0. 0. 0. 0. 22. 0. 0. 0. 6. 0. 0. 2. 94. 0. 4. 4. 88. 2. 4.
      0. 10. 20. 0. 14. 0. 0. 0. 102. 0. 2. 0. 2. 0. 0. 0. 8. 0. 2. 0.
      2. 0. 0. 0. 0. 0. 0. 0. 0. 0. 0. 0. 2. 2. 0. 0. 0. 0. 0. 0. 4. 0.
      0. 0. 0. 0. 0. 0. 0. 0. 0. 0. 0. 0. 2. 0. 2. 4. 0. 0. 2. 4. 2. 0.
      2. 8. 50. 0. 148. 2. 2. 4. 48. 0. 0. 0. 0. 0. 0. 0. 8. 0. 8. 0. 0.
      0. 0. 0. 0. 0. 0. 0. 0. 0. 0. 0. 4. 10. 74. 0. 80. 0. 4. 0. 30. 0.
      0. 0. 6. 0. 2. 0. 26. 52. 32. 2. 28. 0. 0. 0. 14. 14. 18. 0. 22.
      10. 10. 14. 50.</_>
    <_>
      62. 8. 12. 2. 12. 4. 6. 18. 8. 2. 0. 2. 8. 6. 12. 18. 20. 4. 0. 0.
      2. 4. 4. 2. 10. 4. 2. 0. 34. 6. 34. 10. 8. 4. 2. 0. 0. 0. 2. 2. 2.
      0. 0. 0. 2. 0. 4. 0. 20. 2. 2. 0. 4. 0. 2. 0. 22. 2. 0. 0. 56. 0.
      24. 14. 14. 0. 2. 10. 4. 2. 2. 2. 0. 0. 0. 0. 0. 0. 0. 0. 2. 0. 0.
      0. 0. 0. 2. 0. 0. 0. 0. 0. 2. 0. 4. 0. 22. 2. 4. 2. 4. 0. 2. 2. 0.
      0. 0. 0. 0. 0. 2. 2. 38. 2. 0. 2. 0. 0. 2. 2. 38. 0. 2. 2. 24. 4.
      12. 10. 8. 20. 0. 18. 2. 2. 0. 32. 4. 0. 0. 0. 2. 4. 0. 8. 6. 0.
      2. 2. 0. 0. 0. 2. 0. 2. 0. 2. 6. 0. 2. 4. 0. 2. 0. 4. 0. 0. 0. 4.
      0. 0. 0. 2. 0. 6. 0. 2. 0. 0. 0. 0. 0. 0. 0. 2. 2. 2. 0. 2. 2. 0.
      12. 14. 34. 48. 4. 52. 4. 0. 0. 8. 0. 2. 0. 2. 0. 0. 0. 2. 0. 6.
      0. 0. 0. 0. 0. 0. 8. 0. 0. 2. 0. 0. 0. 10. 28. 58. 2. 22. 2. 0. 8.
      20. 0. 4. 0. 2. 0. 6. 6. 24. 40. 26. 2. 26. 6. 0. 0. 24. 22. 24.
      2. 22. 18. 18. 14. 60.</_>
    <_>
      54. 6. 10. 2. 10. 6. 2. 8. 6. 2. 2. 2. 0. 4. 10. 22. 12. 4. 0. 2.
      2. 0. 2. 0. 2. 2. 0. 6. 6. 0. 16. 18. 10. 0. 0. 0. 4. 0. 2. 0. 2.
      0. 0. 2. 0. 0. 0. 4. 8. 2. 6. 0. 2. 2. 0. 0. 6. 0. 2. 0. 8. 2. 8.
      16. 24. 2. 6. 6. 10. 2. 2. 0. 2. 0. 2. 0. 0. 2. 2. 4. 4. 0. 0. 2.
      2. 0. 0. 0. 0. 2. 0. 0. 0. 0. 0. 4. 16. 6. 0. 0. 2. 0. 0. 0. 2. 2.
      0. 2. 6. 2. 2. 4. 14. 4. 0. 2. 4. 0. 2. 0. 12. 6. 0. 4. 6. 2. 2.
      22. 12. 12. 0. 6. 2. 8. 0. 16. 2. 0. 0. 2. 0. 2. 0. 6. 2. 2. 0. 0.
      2. 0. 2. 0. 2. 0. 4. 2. 0. 2. 6. 14. 0. 4. 0. 4. 2. 0. 0. 0. 0. 6.
      0. 0. 0. 0. 0. 4. 4. 8. 0. 4. 4. 0. 0. 2. 2. 4. 0. 2. 0. 2. 2. 24.
      36. 22. 6. 26. 4. 4. 2. 4. 0. 0. 0. 0. 0. 0. 0. 2. 2. 4. 2. 4. 2.
      0. 0. 6. 0. 2. 0. 0. 2. 4. 0. 26. 30. 24. 2. 12. 0. 4. 2. 16. 0.
      2. 0. 2. 4. 4. 2. 18. 44. 50. 0. 18. 2. 6. 6. 28. 16. 26. 4. 32.
      14. 22. 22. 306.</_>
    <_>
      50. 30. 6. 10. 18. 2. 6. 24. 2. 4. 0. 0. 10. 2. 34. 64. 48. 14. 2.
      2. 6. 0. 0. 2. 8. 4. 2. 0. 16. 2. 102. 36. 6. 2. 0. 0. 0. 0. 0. 2.
      0. 0. 0. 0. 0. 0. 0. 2. 16. 2. 0. 0. 0. 0. 2. 0. 22. 0. 0. 2. 20.
      0. 32. 8. 8. 4. 0. 0. 2. 0. 2. 0. 0. 0. 0. 0. 0. 0. 4. 0. 2. 0. 0.
      0. 0. 0. 2. 0. 2. 0. 0. 0. 0. 0. 0. 2. 18. 6. 0. 2. 0. 0. 2. 0. 0.
      0. 0. 0. 0. 0. 4. 4. 6. 6. 2. 2. 2. 0. 0. 0. 32. 4. 4. 0. 26. 0.
      20. 14. 10. 8. 0. 4. 0. 2. 0. 36. 0. 0. 0. 0. 0. 2. 2. 34. 0. 2.
      0. 0. 0. 0. 0. 0. 0. 0. 0. 0. 0. 0. 6. 16. 0. 0. 0. 4. 0. 0. 0. 4.
      0. 0. 0. 0. 0. 0. 0. 0. 2. 0. 0. 2. 0. 0. 0. 2. 0. 0. 0. 0. 6. 4.
      0. 12. 8. 6. 0. 18. 2. 4. 2. 8. 4. 0. 0. 2. 2. 0. 2. 16. 2. 4. 0.
      0. 0. 0. 2. 0. 0. 0. 0. 4. 0. 2. 0. 8. 20. 64. 2. 10. 0. 0. 4. 8.
      4. 4. 0. 4. 0. 4. 8. 26. 36. 50. 2. 4. 2. 2. 0. 12. 30. 6. 2. 16.
      12. 14. 36. 128.</_>
    <_>
      10. 12. 2. 2. 6. 4. 6. 12. 6. 0. 0. 0. 8. 0. 8. 14. 18. 2. 0. 0.
      2. 0. 2. 0. 2. 2. 0. 0. 8. 2. 8. 26. 14. 0. 0. 0. 0. 0. 0. 2. 0.
      0. 0. 0. 0. 0. 0. 2. 28. 0. 0. 0. 8. 0. 0. 0. 32. 0. 0. 2. 92. 0.
      12. 0. 0. 4. 0. 2. 0. 0. 0. 0. 0. 2. 0. 0. 0. 0. 0. 0. 6. 0. 0. 0.
      0. 0. 0. 0. 0. 0. 0. 0. 2. 0. 2. 0. 22. 4. 0. 2. 0. 0. 0. 0. 0. 0.
      0. 0. 0. 0. 4. 4. 82. 6. 2. 0. 4. 0. 0. 0. 124. 2. 2. 0. 64. 2. 6.
      8. 4. 16. 0. 0. 0. 2. 0. 14. 2. 0. 0. 0. 0. 0. 0. 8. 0. 0. 0. 0.
      0. 0. 0. 0. 0. 0. 0. 0. 0. 0. 2. 2. 0. 0. 0. 2. 0. 0. 0. 0. 0. 0.
      0. 0. 0. 0. 0. 0. 6. 2. 0. 0. 0. 0. 0. 2. 2. 2. 0. 2. 2. 0. 0. 2.
      6. 26. 0. 12. 2. 0. 0. 4. 2. 2. 2. 2. 2. 0. 0. 4. 2. 4. 0. 2. 0.
      0. 0. 2. 0. 0. 0. 0. 6. 0. 2. 6. 28. 130. 2. 24. 0. 0. 4. 10. 0.
      6. 0. 4. 4. 2. 2. 10. 88. 70. 4. 6. 0. 2. 2. 6. 60. 30. 0. 18. 44.
      26. 20. 96.</_>
    <_>
      48. 34. 6. 14. 8. 0. 8. 18. 8. 0. 0. 2. 4. 2. 8. 40. 32. 10. 2. 4.
      2. 0. 4. 2. 8. 0. 2. 2. 10. 2. 30. 14. 10. 2. 4. 2. 0. 0. 2. 2. 0.
      0. 2. 0. 0. 0. 0. 2. 10. 0. 0. 0. 2. 0. 2. 2. 2. 2. 2. 0. 20. 0.
      16. 6. 14. 8. 0. 0. 4. 0. 0. 0. 0. 0. 0. 0. 0. 0. 0. 2. 2. 0. 0.
      0. 0. 0. 0. 0. 0. 0. 0. 0. 2. 0. 0. 0. 8. 6. 0. 4. 0. 0. 4. 4. 2.
      0. 0. 0. 0. 2. 2. 0. 32. 0. 0. 2. 0. 0. 2. 0. 6. 0. 0. 0. 8. 2.
      12. 10. 10. 20. 0. 24. 0. 4. 0. 20. 2. 2. 0. 0. 0. 4. 2. 20. 8. 0.
      0. 2. 2. 0. 0. 2. 2. 0. 0. 0. 2. 0. 2. 14. 0. 0. 0. 2. 0. 2. 0. 2.
      0. 0. 0. 0. 0. 0. 0. 2. 0. 0. 0. 2. 0. 0. 0. 0. 0. 2. 0. 0. 0. 2.
      2. 20. 24. 34. 0. 36. 2. 4. 0. 30. 0. 0. 0. 4. 0. 2. 0. 26. 6. 4.
      0. 0. 0. 0. 0. 0. 4. 0. 0. 0. 0. 0. 0. 6. 32. 72. 2. 64. 2. 2. 2.
      18. 0. 2. 0. 0. 0. 6. 10. 32. 134. 60. 8. 14. 0. 2. 0. 20. 46. 20.
      0. 10. 18. 10. 30. 40.</_>
    <_>
      46. 40. 2. 6. 2. 0. 6. 22. 4. 2. 2. 0. 16. 2. 44. 134. 18. 12. 6.
      0. 2. 0. 4. 2. 14. 0. 0. 0. 16. 4. 102. 92. 6. 2. 0. 0. 0. 0. 0.
      0. 2. 0. 0. 0. 0. 0. 2. 12. 4. 2. 2. 2. 0. 0. 0. 2. 4. 0. 0. 2. 4.
      0. 26. 14. 8. 2. 0. 0. 0. 0. 0. 2. 0. 0. 0. 0. 2. 0. 0. 2. 4. 2.
      0. 0. 0. 0. 0. 0. 6. 0. 0. 0. 0. 0. 2. 0. 0. 2. 0. 6. 2. 0. 0. 4.
      2. 0. 0. 0. 0. 0. 2. 2. 28. 0. 4. 0. 2. 0. 4. 0. 24. 4. 0. 0. 6.
      0. 20. 10. 6. 8. 0. 12. 0. 2. 0. 32. 2. 2. 0. 0. 4. 0. 4. 28. 0.
      4. 0. 2. 0. 0. 0. 0. 2. 2. 0. 2. 0. 0. 2. 22. 0. 0. 0. 0. 0. 0. 0.
      6. 0. 0. 0. 0. 0. 0. 0. 0. 2. 0. 0. 0. 0. 0. 0. 0. 2. 0. 0. 0. 0.
      0. 0. 6. 14. 22. 4. 8. 0. 0. 0. 10. 0. 4. 0. 0. 0. 2. 2. 22. 0. 4.
      0. 0. 0. 0. 2. 0. 8. 0. 0. 0. 0. 0. 4. 4. 20. 48. 2. 32. 0. 2. 0.
      24. 2. 2. 0. 4. 2. 4. 2. 18. 60. 38. 4. 20. 4. 0. 4. 8. 32. 12. 2.
      10. 12. 4. 38. 58.</_>
    <_>
      32. 28. 4. 4. 4. 4. 0. 8. 6. 0. 4. 0. 2. 2. 14. 48. 28. 6. 0. 2.
      4. 0. 0. 2. 6. 0. 0. 0. 18. 0. 66. 26. 2. 6. 0. 0. 4. 0. 0. 2. 4.
      0. 2. 0. 2. 0. 2. 2. 4. 0. 0. 0. 0. 0. 0. 0. 8. 4. 0. 0. 34. 0.
      26. 8. 16. 2. 4. 4. 0. 0. 2. 0. 0. 2. 0. 0. 0. 0. 0. 0. 4. 0. 0.
      0. 0. 0. 2. 2. 4. 0. 0. 0. 0. 2. 0. 4. 12. 2. 2. 0. 4. 0. 0. 2. 0.
      2. 0. 0. 0. 2. 0. 2. 14. 2. 2. 0. 0. 0. 0. 2. 8. 0. 2. 0. 8. 0. 4.
      14. 8. 6. 0. 14. 0. 2. 2. 28. 2. 0. 2. 0. 2. 0. 2. 12. 0. 6. 0. 0.
      0. 0. 0. 4. 0. 0. 0. 0. 2. 0. 0. 8. 0. 0. 0. 0. 0. 0. 0. 0. 0. 0.
      0. 0. 2. 0. 0. 2. 0. 0. 0. 0. 0. 0. 0. 2. 0. 0. 0. 2. 2. 0. 0. 16.
      6. 22. 0. 44. 0. 0. 0. 12. 0. 2. 0. 2. 0. 0. 4. 4. 6. 4. 0. 2. 0.
      0. 0. 0. 0. 0. 0. 2. 2. 0. 0. 2. 56. 108. 0. 38. 2. 6. 2. 4. 0. 2.
      0. 2. 0. 2. 0. 12. 134. 164. 4. 24. 2. 4. 2. 14. 18. 30. 2. 12. 6.
      16. 20. 82.</_>
    <_>
      60. 18. 4. 8. 4. 0. 12. 14. 6. 2. 0. 2. 2. 2. 14. 50. 24. 24. 0.
      0. 0. 4. 0. 10. 8. 0. 6. 4. 14. 6. 12. 28. 6. 0. 2. 2. 0. 0. 0. 0.
      0. 0. 2. 0. 2. 0. 4. 0. 6. 0. 0. 2. 2. 0. 0. 0. 12. 0. 2. 0. 34.
      4. 20. 18. 0. 0. 0. 0. 2. 0. 0. 6. 0. 0. 2. 0. 0. 0. 2. 4. 2. 0.
      0. 0. 2. 0. 2. 0. 2. 4. 0. 0. 4. 0. 0. 8. 4. 2. 0. 4. 0. 0. 0. 0.
      2. 0. 0. 0. 2. 0. 0. 4. 4. 4. 0. 0. 0. 0. 2. 2. 2. 2. 4. 0. 10. 2.
      2. 20. 10. 12. 0. 10. 2. 0. 6. 26. 0. 0. 0. 4. 2. 0. 2. 20. 2. 2.
      0. 0. 0. 0. 0. 2. 0. 2. 0. 2. 0. 4. 2. 26. 2. 4. 2. 2. 0. 0. 0. 2.
      0. 0. 0. 0. 0. 0. 2. 0. 0. 0. 0. 0. 0. 0. 0. 0. 0. 0. 0. 0. 0. 4.
      2. 12. 12. 6. 2. 4. 0. 6. 0. 20. 0. 0. 0. 2. 2. 2. 2. 4. 2. 10. 0.
      2. 0. 0. 0. 4. 0. 2. 0. 8. 0. 0. 4. 26. 18. 8. 0. 4. 0. 4. 4. 14.
      0. 0. 0. 2. 2. 0. 2. 22. 40. 46. 2. 22. 0. 4. 2. 20. 10. 16. 0. 8.
      16. 18. 32. 396.</_>
    <_>
      50. 10. 8. 6. 30. 2. 4. 24. 10. 2. 4. 0. 8. 0. 12. 24. 22. 8. 4.
      2. 0. 2. 0. 4. 14. 2. 0. 0. 24. 2. 32. 18. 12. 4. 2. 0. 4. 0. 0.
      4. 0. 0. 0. 0. 6. 0. 2. 4. 10. 2. 0. 0. 2. 0. 2. 0. 16. 2. 0. 2.
      30. 4. 14. 10. 12. 4. 4. 0. 20. 2. 4. 4. 4. 0. 0. 2. 4. 0. 2. 0.
      0. 0. 0. 0. 0. 0. 0. 0. 2. 0. 2. 0. 0. 0. 6. 2. 4. 2. 2. 2. 0. 0.
      0. 0. 0. 0. 0. 0. 0. 0. 0. 6. 12. 2. 0. 2. 2. 0. 2. 0. 2. 4. 2. 2.
      36. 6. 30. 24. 4. 10. 0. 10. 0. 0. 2. 20. 2. 0. 0. 0. 0. 0. 2. 22.
      0. 4. 0. 0. 0. 0. 0. 2. 0. 2. 0. 0. 0. 0. 2. 12. 4. 2. 0. 2. 0. 0.
      0. 4. 0. 2. 0. 0. 0. 0. 0. 6. 0. 0. 0. 2. 0. 0. 0. 2. 2. 2. 0. 4.
      2. 0. 0. 22. 6. 6. 4. 20. 0. 2. 4. 20. 0. 2. 0. 0. 2. 2. 0. 22. 2.
      6. 0. 6. 0. 0. 4. 10. 2. 0. 2. 0. 0. 0. 2. 36. 6. 20. 0. 10. 2. 4.
      2. 12. 0. 6. 0. 0. 2. 2. 2. 24. 42. 20. 2. 18. 2. 0. 2. 18. 14.
      18. 2. 12. 20. 14. 18. 288.</_>
    <_>
      26. 4. 2. 4. 4. 2. 6. 2. 2. 0. 2. 2. 2. 2. 0. 18. 6. 4. 0. 0. 0.
      4. 0. 4. 0. 2. 2. 2. 4. 0. 6. 8. 2. 0. 0. 0. 0. 0. 0. 0. 0. 0. 0.
      0. 2. 0. 0. 4. 0. 2. 0. 0. 0. 0. 0. 0. 0. 0. 0. 0. 72. 0. 12. 6.
      2. 2. 2. 2. 0. 0. 0. 0. 2. 0. 0. 0. 0. 0. 0. 6. 0. 0. 2. 2. 0. 0.
      0. 0. 2. 0. 0. 0. 0. 0. 0. 0. 2. 0. 0. 0. 0. 0. 0. 0. 0. 0. 0. 0.
      0. 0. 0. 2. 4. 2. 0. 0. 0. 0. 0. 0. 22. 0. 2. 2. 10. 0. 28. 34. 0.
      2. 4. 2. 0. 0. 0. 66. 0. 0. 0. 0. 0. 0. 2. 12. 0. 4. 0. 0. 0. 0.
      0. 0. 2. 0. 0. 4. 2. 2. 0. 4. 0. 0. 0. 0. 0. 0. 4. 4. 0. 0. 0. 2.
      0. 0. 0. 2. 4. 0. 0. 0. 0. 0. 0. 4. 0. 0. 0. 0. 8. 2. 6. 20. 4. 4.
      0. 26. 0. 0. 0. 12. 0. 0. 0. 0. 0. 0. 2. 20. 0. 0. 0. 0. 2. 0. 0.
      0. 0. 2. 0. 2. 0. 0. 0. 30. 6. 12. 4. 6. 0. 2. 0. 14. 4. 6. 0. 0.
      4. 2. 6. 14. 28. 50. 2. 14. 2. 2. 2. 20. 6. 6. 0. 6. 6. 16. 6.
      706.</_>
    <_>
      34. 10. 2. 6. 18. 2. 6. 12. 8. 2. 2. 0. 4. 4. 14. 44. 22. 10. 2.
      2. 4. 0. 2. 0. 14. 0. 0. 0. 16. 0. 46. 26. 4. 2. 2. 0. 4. 0. 0. 0.
      2. 0. 0. 0. 0. 2. 0. 4. 6. 0. 0. 0. 2. 0. 0. 0. 18. 2. 0. 0. 34.
      4. 10. 12. 12. 0. 0. 6. 4. 0. 0. 0. 0. 0. 0. 0. 0. 0. 2. 0. 4. 0.
      0. 0. 0. 0. 0. 0. 2. 0. 0. 2. 0. 0. 0. 6. 20. 4. 4. 0. 0. 0. 2. 0.
      0. 0. 0. 0. 4. 0. 0. 6. 24. 0. 2. 0. 0. 0. 0. 2. 28. 0. 2. 4. 8.
      0. 8. 2. 6. 2. 0. 14. 2. 4. 0. 32. 6. 0. 2. 0. 0. 0. 0. 6. 4. 0.
      0. 2. 0. 0. 0. 2. 2. 0. 0. 0. 2. 4. 4. 2. 0. 0. 0. 0. 0. 0. 0. 6.
      0. 0. 0. 0. 0. 0. 0. 4. 2. 2. 0. 0. 0. 0. 0. 8. 0. 0. 0. 0. 4. 4.
      2. 8. 2. 14. 0. 26. 0. 2. 2. 10. 0. 0. 0. 0. 0. 0. 0. 6. 6. 2. 0.
      0. 0. 0. 0. 2. 0. 0. 0. 4. 0. 0. 4. 6. 52. 138. 4. 16. 0. 0. 0. 0.
      2. 2. 0. 6. 0. 0. 2. 18. 106. 178. 2. 24. 4. 0. 0. 14. 22. 40. 4.
      6. 6. 12. 24. 86.</_>
    <_>
      52. 28. 10. 6. 12. 10. 6. 6. 4. 2. 0. 0. 2. 2. 38. 44. 26. 4. 0.
      2. 8. 0. 4. 6. 14. 2. 2. 0. 12. 4. 32. 56. 20. 4. 4. 2. 0. 0. 6.
      0. 0. 0. 0. 0. 4. 0. 0. 0. 12. 0. 2. 0. 8. 0. 2. 0. 6. 2. 0. 6.
      18. 2. 24. 18. 22. 6. 0. 2. 6. 0. 0. 0. 2. 2. 0. 0. 2. 0. 0. 2. 2.
      0. 0. 0. 0. 0. 0. 0. 2. 0. 0. 0. 0. 0. 2. 2. 10. 2. 0. 0. 4. 0. 0.
      4. 0. 0. 0. 0. 0. 0. 0. 4. 20. 0. 4. 0. 0. 0. 0. 0. 20. 2. 0. 2.
      6. 0. 10. 14. 14. 2. 0. 10. 4. 0. 0. 10. 2. 0. 0. 0. 2. 2. 2. 20.
      4. 2. 2. 2. 2. 0. 0. 2. 4. 2. 0. 2. 0. 0. 4. 8. 0. 0. 0. 2. 0. 0.
      0. 8. 0. 0. 0. 0. 2. 0. 0. 2. 2. 2. 0. 0. 0. 0. 2. 2. 2. 0. 0. 4.
      2. 6. 2. 20. 6. 22. 0. 12. 0. 0. 4. 10. 0. 0. 0. 6. 0. 0. 0. 2. 6.
      2. 0. 0. 0. 2. 0. 2. 4. 2. 0. 0. 0. 4. 4. 8. 44. 92. 0. 16. 2. 0.
      4. 10. 2. 2. 0. 6. 0. 8. 2. 40. 88. 88. 4. 10. 4. 2. 2. 16. 12. 2.
      8. 10. 12. 10. 32. 96.</_>
    <_>
      34. 18. 12. 22. 4. 6. 6. 34. 12. 0. 0. 0. 6. 4. 32. 110. 22. 8. 0.
      2. 4. 0. 14. 2. 14. 0. 0. 2. 26. 2. 124. 108. 2. 6. 2. 0. 0. 0. 0.
      0. 2. 0. 0. 0. 0. 0. 0. 10. 8. 0. 2. 0. 0. 0. 8. 4. 6. 0. 0. 0. 8.
      0. 28. 6. 6. 0. 0. 0. 0. 0. 0. 0. 0. 0. 0. 0. 0. 0. 0. 2. 0. 0. 0.
      0. 0. 0. 0. 0. 6. 0. 0. 0. 0. 0. 0. 0. 2. 4. 0. 0. 0. 0. 0. 0. 0.
      0. 0. 0. 0. 0. 0. 4. 18. 0. 4. 0. 2. 0. 0. 0. 28. 0. 2. 2. 4. 0.
      18. 8. 2. 16. 0. 4. 0. 0. 0. 32. 2. 2. 0. 0. 0. 2. 0. 36. 2. 0. 2.
      0. 0. 0. 0. 0. 2. 2. 0. 0. 0. 0. 6. 12. 0. 2. 0. 0. 0. 0. 0. 0. 0.
      0. 0. 0. 0. 0. 0. 8. 0. 0. 0. 4. 0. 0. 0. 2. 0. 0. 0. 0. 0. 0. 0.
      8. 18. 30. 2. 48. 2. 0. 0. 8. 0. 4. 0. 4. 0. 2. 0. 16. 2. 2. 0. 0.
      0. 0. 0. 0. 0. 0. 2. 0. 2. 0. 6. 12. 14. 44. 0. 34. 0. 0. 0. 18.
      0. 0. 0. 2. 0. 2. 8. 54. 48. 44. 0. 2. 2. 0. 0. 10. 22. 12. 0. 2.
      10. 8. 46. 50.</_>
    <_>
      106. 16. 14. 8. 24. 6. 4. 14. 6. 2. 0. 2. 8. 2. 8. 6. 12. 2. 2. 0.
      2. 0. 8. 0. 8. 2. 4. 2. 14. 2. 16. 10. 8. 2. 2. 2. 0. 2. 2. 8. 0.
      0. 0. 0. 0. 0. 0. 12. 8. 0. 0. 0. 0. 0. 10. 2. 10. 0. 2. 0. 10. 4.
      22. 10. 24. 2. 0. 2. 0. 0. 2. 6. 4. 0. 0. 0. 4. 0. 0. 0. 0. 0. 0.
      0. 2. 0. 0. 0. 4. 0. 0. 0. 4. 0. 4. 2. 14. 6. 4. 12. 2. 0. 4. 4.
      4. 2. 0. 0. 2. 0. 2. 0. 20. 2. 8. 8. 2. 0. 4. 8. 10. 4. 2. 2. 12.
      2. 14. 12. 12. 24. 0. 4. 6. 6. 4. 20. 4. 0. 0. 2. 6. 8. 2. 20. 0.
      2. 0. 0. 2. 0. 0. 2. 2. 6. 0. 4. 4. 4. 6. 14. 2. 4. 0. 4. 0. 0. 0.
      4. 0. 0. 0. 0. 0. 4. 0. 12. 4. 4. 0. 2. 0. 0. 0. 4. 2. 2. 0. 0. 2.
      0. 14. 32. 12. 30. 0. 12. 2. 2. 0. 10. 2. 4. 2. 4. 4. 4. 4. 12. 6.
      6. 4. 4. 0. 2. 0. 0. 6. 2. 2. 4. 2. 14. 0. 8. 8. 24. 8. 32. 4. 2.
      2. 14. 4. 8. 2. 8. 4. 0. 0. 30. 14. 14. 6. 8. 4. 8. 2. 32. 26. 20.
      2. 20. 8. 24. 16. 138.</_>
    <_>
      52. 30. 2. 10. 8. 2. 8. 46. 0. 4. 0. 2. 8. 0. 20. 50. 28. 2. 4. 0.
      0. 0. 0. 2. 8. 4. 0. 4. 24. 0. 26. 22. 8. 0. 0. 2. 0. 0. 0. 0. 0.
      0. 0. 0. 0. 0. 2. 4. 24. 0. 2. 2. 4. 0. 0. 2. 28. 4. 2. 0. 26. 2.
      22. 12. 20. 2. 4. 2. 8. 0. 0. 0. 0. 0. 0. 0. 0. 0. 0. 0. 0. 0. 0.
      0. 0. 0. 0. 0. 0. 0. 0. 0. 0. 0. 0. 0. 16. 8. 0. 0. 0. 0. 0. 2. 6.
      2. 0. 0. 0. 0. 0. 6. 28. 4. 0. 0. 0. 0. 2. 0. 58. 4. 2. 0. 46. 0.
      18. 8. 6. 14. 0. 42. 0. 0. 2. 58. 0. 2. 0. 0. 4. 2. 4. 24. 0. 2.
      0. 0. 0. 0. 0. 2. 0. 0. 0. 4. 0. 0. 6. 8. 0. 2. 0. 2. 0. 0. 2. 0.
      0. 0. 0. 0. 0. 0. 0. 0. 2. 2. 0. 0. 0. 0. 0. 0. 2. 0. 0. 2. 6. 0.
      8. 8. 12. 22. 0. 56. 2. 4. 2. 52. 0. 4. 0. 4. 0. 0. 0. 12. 0. 0.
      0. 2. 0. 0. 0. 2. 2. 0. 0. 0. 4. 0. 0. 12. 18. 26. 0. 24. 4. 0. 2.
      16. 2. 2. 0. 8. 0. 4. 2. 34. 18. 10. 4. 16. 2. 2. 2. 6. 22. 22. 2.
      14. 12. 18. 20. 90.</_>
    <_>
      32. 10. 2. 8. 14. 2. 6. 14. 14. 2. 0. 0. 2. 0. 8. 18. 12. 6. 0. 2.
      0. 0. 2. 4. 4. 2. 0. 2. 6. 2. 16. 8. 4. 0. 0. 2. 2. 0. 0. 0. 2. 0.
      0. 0. 0. 0. 0. 2. 4. 0. 0. 0. 4. 2. 2. 0. 6. 2. 2. 0. 24. 2. 8. 8.
      10. 0. 0. 4. 12. 2. 0. 2. 2. 0. 0. 0. 4. 0. 2. 0. 4. 0. 0. 2. 0.
      0. 0. 0. 4. 0. 4. 0. 4. 0. 0. 4. 8. 0. 0. 0. 2. 0. 0. 4. 0. 4. 0.
      0. 4. 0. 2. 0. 20. 4. 2. 2. 6. 0. 0. 2. 22. 2. 0. 2. 30. 2. 12.
      18. 10. 2. 0. 6. 2. 0. 0. 12. 4. 2. 0. 0. 0. 2. 0. 14. 2. 2. 0. 2.
      0. 0. 0. 0. 0. 0. 0. 0. 2. 4. 2. 16. 0. 0. 0. 0. 0. 2. 0. 4. 4. 0.
      0. 0. 0. 0. 0. 0. 8. 0. 0. 2. 0. 0. 0. 2. 0. 2. 0. 0. 4. 4. 0. 14.
      4. 18. 2. 12. 0. 0. 2. 16. 2. 2. 0. 0. 0. 0. 0. 14. 0. 0. 0. 0. 0.
      0. 2. 2. 2. 2. 4. 0. 0. 0. 0. 28. 14. 18. 0. 2. 2. 2. 4. 20. 0. 0.
      0. 2. 0. 4. 6. 20. 20. 16. 4. 16. 2. 4. 2. 28. 18. 14. 2. 30. 24.
      32. 18. 520.</_>
    <_>
      66. 14. 8. 8. 4. 0. 6. 14. 12. 2. 6. 4. 0. 2. 6. 16. 10. 20. 2. 0.
      0. 6. 0. 2. 4. 2. 0. 2. 10. 2. 10. 18. 18. 0. 4. 0. 2. 0. 0. 0. 0.
      4. 0. 0. 0. 0. 0. 0. 8. 4. 0. 2. 2. 0. 0. 2. 8. 0. 2. 4. 4. 6. 6.
      10. 6. 4. 2. 4. 16. 6. 2. 2. 2. 2. 0. 0. 6. 0. 2. 4. 2. 4. 2. 0.
      0. 0. 0. 0. 2. 0. 0. 0. 4. 2. 0. 4. 4. 0. 0. 0. 2. 2. 0. 0. 0. 0.
      2. 0. 0. 0. 0. 0. 14. 0. 4. 0. 2. 0. 2. 4. 10. 6. 2. 2. 32. 4. 16.
      22. 10. 8. 2. 6. 4. 0. 4. 10. 0. 0. 0. 2. 2. 2. 0. 12. 4. 2. 0. 0.
      2. 0. 0. 0. 2. 0. 2. 6. 6. 0. 0. 8. 2. 4. 0. 4. 0. 0. 0. 0. 4. 0.
      0. 2. 0. 0. 2. 0. 0. 2. 0. 4. 0. 2. 0. 0. 0. 0. 0. 14. 6. 0. 4.
      26. 10. 12. 2. 4. 4. 4. 0. 26. 0. 0. 0. 0. 0. 0. 6. 16. 0. 4. 0.
      0. 0. 2. 0. 12. 0. 4. 2. 2. 0. 4. 8. 14. 16. 18. 2. 14. 4. 6. 2.
      14. 0. 0. 0. 4. 0. 2. 10. 28. 10. 12. 0. 20. 2. 6. 2. 28. 8. 10.
      0. 34. 6. 16. 32. 406.</_>
    <_>
      22. 10. 8. 6. 6. 2. 6. 6. 4. 2. 0. 0. 6. 0. 0. 6. 8. 2. 2. 0. 4.
      0. 2. 0. 2. 0. 0. 0. 12. 2. 6. 6. 6. 4. 0. 0. 2. 0. 0. 0. 0. 0. 0.
      0. 0. 0. 0. 0. 4. 0. 0. 0. 8. 2. 0. 0. 8. 0. 2. 0. 36. 0. 34. 12.
      4. 0. 2. 2. 4. 0. 0. 2. 4. 0. 0. 0. 0. 0. 2. 6. 4. 0. 2. 2. 0. 2.
      2. 0. 0. 2. 0. 0. 2. 2. 2. 0. 4. 2. 0. 0. 0. 0. 2. 6. 0. 0. 0. 0.
      2. 0. 2. 2. 6. 2. 2. 4. 0. 0. 8. 0. 2. 4. 0. 6. 8. 2. 16. 24. 2.
      12. 0. 2. 2. 6. 2. 48. 0. 0. 0. 6. 0. 0. 0. 2. 2. 0. 0. 0. 0. 0.
      0. 0. 0. 4. 0. 2. 0. 2. 0. 10. 2. 4. 0. 2. 0. 0. 0. 2. 0. 0. 0. 0.
      0. 2. 0. 4. 4. 2. 0. 0. 0. 0. 0. 2. 0. 2. 0. 0. 2. 4. 4. 12. 4.
      10. 2. 4. 4. 0. 2. 18. 0. 2. 0. 2. 0. 0. 2. 16. 2. 0. 0. 8. 0. 0.
      0. 6. 2. 4. 2. 4. 0. 4. 2. 14. 12. 10. 2. 2. 0. 4. 2. 12. 2. 0. 0.
      6. 2. 4. 0. 18. 38. 36. 6. 12. 2. 10. 0. 34. 4. 16. 2. 26. 8. 26.
      14. 596.</_>
    <_>
      70. 52. 8. 16. 12. 0. 14. 30. 2. 4. 0. 2. 8. 8. 24. 48. 22. 0. 0.
      0. 2. 0. 6. 0. 14. 0. 4. 0. 30. 0. 54. 16. 8. 4. 0. 0. 0. 0. 0. 2.
      0. 0. 0. 0. 0. 0. 4. 6. 8. 2. 4. 2. 2. 0. 0. 2. 16. 2. 0. 2. 22.
      0. 14. 16. 18. 0. 0. 0. 2. 0. 2. 2. 0. 0. 0. 0. 0. 0. 4. 4. 0. 0.
      0. 0. 0. 0. 2. 0. 0. 0. 0. 0. 2. 0. 0. 0. 22. 6. 2. 2. 0. 0. 2. 0.
      2. 0. 0. 2. 4. 0. 0. 2. 24. 2. 2. 4. 2. 0. 6. 2. 18. 0. 0. 0. 24.
      0. 16. 16. 4. 6. 0. 32. 0. 4. 0. 48. 0. 0. 0. 2. 6. 0. 2. 16. 0.
      2. 0. 0. 0. 0. 0. 0. 2. 10. 0. 0. 2. 2. 4. 14. 0. 0. 0. 2. 0. 0.
      0. 2. 0. 0. 0. 0. 4. 0. 0. 2. 0. 0. 0. 4. 0. 0. 0. 2. 0. 4. 0. 0.
      0. 2. 4. 14. 12. 28. 0. 32. 0. 2. 0. 40. 2. 0. 0. 2. 0. 2. 4. 24.
      0. 2. 0. 0. 0. 0. 0. 0. 4. 0. 0. 0. 4. 0. 2. 10. 20. 42. 6. 26. 2.
      0. 0. 16. 0. 10. 0. 2. 2. 4. 4. 20. 40. 24. 2. 12. 2. 4. 4. 8. 22.
      22. 2. 16. 12. 8. 30. 82.</_>
    <_>
      96. 34. 20. 4. 10. 14. 8. 18. 6. 4. 0. 0. 12. 2. 10. 20. 16. 10.
      2. 0. 6. 0. 8. 6. 2. 2. 0. 4. 4. 2. 12. 10. 14. 6. 8. 2. 4. 0. 2.
      4. 0. 0. 0. 0. 6. 2. 4. 2. 8. 2. 2. 2. 0. 0. 2. 0. 4. 0. 0. 2. 28.
      0. 4. 4. 10. 8. 4. 10. 6. 0. 2. 4. 0. 4. 0. 0. 2. 2. 0. 4. 2. 0.
      0. 0. 0. 0. 0. 4. 6. 0. 0. 0. 4. 2. 2. 0. 8. 4. 2. 2. 4. 2. 2. 0.
      0. 4. 0. 2. 4. 0. 0. 6. 10. 2. 2. 6. 8. 0. 2. 4. 16. 0. 0. 2. 8.
      2. 6. 6. 14. 20. 2. 20. 2. 8. 2. 26. 10. 0. 0. 0. 6. 4. 6. 2. 6.
      0. 0. 0. 0. 0. 0. 4. 0. 2. 0. 8. 4. 4. 6. 10. 2. 0. 0. 2. 0. 0. 0.
      0. 0. 0. 0. 0. 2. 0. 0. 6. 2. 0. 0. 2. 0. 0. 2. 4. 0. 6. 0. 16. 4.
      0. 2. 12. 12. 8. 4. 30. 2. 6. 2. 12. 0. 6. 0. 0. 2. 2. 2. 10. 2.
      8. 0. 4. 0. 0. 2. 2. 10. 4. 2. 2. 4. 4. 6. 12. 22. 24. 6. 20. 0.
      6. 0. 10. 0. 2. 0. 6. 4. 2. 10. 44. 22. 16. 2. 14. 2. 8. 4. 30.
      16. 8. 8. 14. 2. 18. 16. 200.</_>
    <_>
      26. 6. 4. 4. 10. 0. 8. 18. 10. 0. 0. 0. 8. 0. 8. 16. 6. 10. 2. 2.
      0. 2. 2. 0. 6. 4. 0. 0. 20. 4. 34. 30. 2. 0. 0. 2. 0. 0. 0. 0. 0.
      0. 0. 0. 2. 0. 0. 4. 2. 0. 0. 0. 2. 0. 0. 2. 26. 0. 0. 0. 46. 0.
      16. 4. 20. 2. 0. 2. 6. 0. 0. 0. 2. 0. 0. 0. 2. 0. 2. 0. 6. 0. 0.
      0. 0. 0. 0. 0. 0. 0. 0. 0. 2. 0. 2. 0. 10. 2. 0. 0. 4. 0. 2. 0. 0.
      0. 0. 0. 0. 0. 0. 2. 44. 2. 0. 0. 0. 0. 2. 0. 62. 0. 2. 2. 62. 2.
      24. 6. 0. 4. 2. 30. 2. 0. 2. 82. 0. 0. 0. 2. 0. 2. 2. 26. 0. 0. 0.
      0. 0. 0. 0. 0. 2. 0. 0. 0. 0. 2. 0. 12. 0. 0. 0. 0. 0. 0. 0. 0. 0.
      0. 0. 0. 0. 0. 0. 2. 0. 0. 0. 0. 0. 0. 0. 2. 0. 0. 0. 6. 2. 2. 0.
      22. 8. 60. 0. 78. 4. 0. 0. 64. 0. 0. 0. 0. 0. 0. 0. 6. 2. 2. 0. 0.
      0. 0. 0. 0. 2. 0. 0. 0. 0. 2. 2. 0. 22. 34. 0. 44. 4. 0. 0. 16. 2.
      0. 0. 0. 2. 0. 2. 14. 100. 30. 0. 24. 2. 2. 2. 2. 54. 16. 0. 24.
      20. 8. 12. 74.</_>
    <_>
      34. 14. 4. 8. 20. 0. 8. 18. 4. 2. 0. 0. 8. 2. 20. 60. 16. 4. 2. 2.
      0. 0. 0. 0. 10. 0. 0. 0. 32. 2. 66. 76. 6. 4. 2. 0. 2. 0. 0. 0. 0.
      0. 0. 0. 0. 0. 2. 4. 26. 2. 2. 0. 6. 0. 4. 0. 14. 2. 0. 0. 26. 0.
      26. 6. 22. 0. 4. 2. 2. 0. 0. 0. 0. 0. 0. 2. 0. 0. 2. 2. 2. 0. 0.
      0. 0. 0. 0. 0. 2. 0. 0. 2. 0. 0. 0. 0. 4. 4. 0. 2. 2. 0. 0. 2. 0.
      0. 0. 0. 0. 0. 0. 2. 26. 0. 2. 0. 2. 0. 0. 2. 18. 0. 4. 2. 10. 0.
      2. 6. 0. 12. 2. 6. 0. 12. 0. 10. 2. 4. 2. 0. 4. 0. 0. 14. 2. 8. 0.
      0. 0. 0. 2. 2. 0. 0. 0. 0. 2. 4. 0. 10. 0. 0. 0. 0. 0. 0. 0. 2. 0.
      0. 0. 0. 0. 0. 0. 2. 2. 0. 0. 2. 0. 0. 2. 2. 0. 2. 0. 8. 0. 0. 0.
      10. 10. 16. 2. 24. 0. 2. 0. 8. 0. 2. 0. 0. 0. 0. 0. 4. 4. 2. 0. 0.
      0. 0. 0. 2. 0. 0. 0. 0. 0. 2. 4. 6. 40. 106. 4. 28. 0. 2. 0. 18.
      0. 2. 0. 0. 0. 4. 8. 36. 96. 86. 6. 18. 2. 4. 2. 12. 24. 18. 0.
      10. 22. 8. 32. 84.</_>
    <_>
      104. 22. 6. 2. 18. 4. 14. 6. 24. 2. 0. 8. 6. 4. 4. 2. 22. 4. 2. 0.
      0. 2. 2. 0. 8. 2. 2. 12. 2. 0. 8. 0. 20. 0. 2. 2. 8. 4. 0. 0. 2.
      0. 4. 0. 0. 0. 2. 4. 6. 4. 2. 6. 4. 0. 2. 0. 6. 2. 2. 6. 24. 4.
      12. 4. 18. 2. 10. 6. 6. 0. 0. 2. 4. 2. 4. 0. 4. 0. 4. 4. 4. 2. 4.
      0. 2. 0. 0. 2. 4. 2. 2. 0. 0. 2. 2. 4. 4. 4. 0. 2. 0. 4. 8. 4. 0.
      0. 0. 0. 0. 0. 0. 8. 12. 4. 2. 4. 8. 0. 0. 2. 4. 6. 2. 12. 12. 4.
      12. 22. 22. 10. 8. 14. 8. 6. 2. 26. 2. 2. 4. 0. 2. 0. 0. 8. 2. 4.
      2. 6. 0. 0. 0. 6. 6. 0. 2. 0. 2. 0. 0. 4. 2. 2. 4. 0. 2. 0. 0. 4.
      2. 2. 0. 8. 0. 0. 4. 8. 2. 4. 0. 2. 2. 0. 0. 2. 0. 2. 2. 2. 2. 8.
      8. 14. 4. 16. 10. 12. 4. 0. 0. 4. 2. 0. 2. 4. 4. 6. 0. 8. 0. 4. 2.
      2. 0. 0. 2. 10. 2. 0. 4. 4. 6. 12. 0. 32. 8. 28. 0. 20. 4. 8. 4.
      16. 6. 4. 2. 8. 2. 0. 0. 20. 12. 6. 2. 6. 2. 6. 8. 28. 6. 4. 4.
      28. 16. 26. 18. 214.</_>
    <_>
      34. 20. 6. 12. 2. 0. 6. 10. 4. 0. 2. 2. 8. 4. 12. 26. 16. 6. 4. 4.
      2. 0. 2. 6. 8. 2. 2. 0. 8. 8. 44. 50. 4. 0. 0. 2. 6. 0. 2. 0. 0.
      0. 0. 0. 2. 0. 2. 0. 18. 4. 0. 0. 2. 0. 2. 0. 4. 0. 0. 0. 22. 2.
      6. 12. 4. 4. 4. 2. 4. 0. 2. 2. 2. 0. 0. 0. 2. 0. 0. 2. 2. 0. 2. 0.
      0. 0. 0. 0. 2. 0. 2. 0. 0. 0. 0. 4. 8. 0. 0. 2. 0. 0. 0. 4. 0. 0.
      0. 0. 0. 0. 0. 0. 16. 6. 0. 0. 0. 0. 0. 0. 8. 0. 6. 0. 0. 2. 6.
      20. 4. 6. 0. 2. 6. 6. 0. 34. 0. 2. 0. 0. 2. 2. 0. 6. 0. 2. 0. 0.
      0. 0. 0. 0. 0. 0. 0. 2. 0. 2. 2. 16. 0. 0. 0. 4. 0. 0. 0. 2. 0. 0.
      0. 0. 0. 0. 0. 6. 2. 0. 0. 0. 0. 0. 0. 0. 2. 0. 0. 0. 10. 4. 4. 6.
      6. 18. 0. 12. 2. 0. 0. 4. 0. 0. 0. 4. 2. 0. 0. 8. 2. 2. 0. 0. 0.
      0. 0. 2. 4. 4. 0. 6. 0. 0. 4. 14. 60. 124. 0. 8. 0. 0. 2. 6. 2. 4.
      0. 4. 0. 0. 10. 30. 86. 162. 0. 16. 4. 0. 2. 16. 8. 20. 0. 14. 4.
      8. 26. 206.</_>
    <_>
      86. 22. 10. 4. 14. 6. 0. 6. 0. 0. 0. 0. 4. 0. 0. 4. 4. 2. 4. 2. 2.
      0. 2. 2. 6. 0. 0. 0. 6. 0. 4. 0. 10. 2. 2. 0. 4. 0. 0. 0. 2. 0. 0.
      0. 0. 0. 2. 0. 10. 4. 0. 0. 4. 0. 0. 0. 4. 0. 0. 0. 24. 2. 8. 0.
      34. 0. 6. 2. 4. 2. 0. 2. 14. 4. 2. 4. 2. 0. 2. 0. 2. 0. 0. 2. 0.
      0. 2. 0. 4. 2. 0. 0. 0. 0. 0. 6. 0. 2. 2. 8. 2. 0. 0. 0. 2. 2. 0.
      2. 0. 0. 4. 4. 6. 4. 2. 6. 0. 0. 2. 6. 14. 2. 0. 4. 10. 0. 10. 12.
      6. 10. 0. 8. 4. 14. 0. 38. 2. 6. 0. 4. 0. 0. 4. 6. 0. 2. 0. 0. 0.
      0. 0. 0. 0. 2. 0. 2. 0. 0. 0. 10. 0. 4. 0. 2. 4. 0. 2. 2. 0. 0. 0.
      0. 0. 0. 2. 6. 4. 2. 0. 2. 2. 0. 2. 8. 4. 0. 0. 4. 4. 0. 0. 22.
      20. 8. 2. 16. 2. 8. 0. 20. 0. 2. 0. 0. 0. 2. 0. 12. 4. 0. 0. 2. 0.
      4. 0. 2. 4. 2. 0. 0. 0. 4. 4. 28. 8. 10. 0. 22. 4. 4. 2. 16. 2. 6.
      2. 2. 0. 4. 0. 24. 16. 18. 2. 22. 2. 10. 4. 38. 12. 16. 4. 38. 12.
      16. 14. 428.</_>
    <_>
      18. 6. 14. 4. 2. 0. 18. 24. 26. 2. 14. 10. 12. 2. 50. 80. 0. 0. 6.
      2. 6. 0. 10. 8. 4. 2. 4. 6. 12. 12. 48. 56. 4. 0. 0. 2. 2. 0. 2.
      6. 2. 0. 12. 0. 2. 0. 8. 10. 0. 0. 0. 2. 0. 6. 4. 0. 2. 2. 4. 4.
      12. 4. 46. 22. 2. 0. 0. 0. 0. 2. 0. 2. 2. 0. 2. 2. 0. 2. 4. 18. 0.
      0. 0. 2. 0. 0. 0. 6. 0. 0. 2. 0. 2. 8. 6. 42. 0. 0. 0. 0. 2. 0. 0.
      0. 2. 0. 0. 0. 2. 0. 0. 6. 10. 0. 0. 2. 2. 0. 0. 2. 8. 0. 0. 4.
      12. 12. 2. 86. 2. 0. 14. 0. 0. 2. 4. 14. 0. 0. 4. 2. 2. 2. 12. 54.
      0. 2. 0. 4. 0. 0. 0. 6. 2. 0. 2. 0. 0. 2. 10. 24. 6. 0. 4. 0. 0.
      0. 0. 0. 0. 0. 2. 0. 4. 2. 0. 18. 0. 0. 0. 0. 0. 2. 0. 4. 4. 0. 0.
      2. 2. 4. 8. 26. 0. 0. 2. 4. 2. 0. 0. 4. 0. 0. 0. 0. 0. 0. 0. 8. 0.
      0. 0. 0. 2. 0. 2. 4. 0. 0. 0. 2. 0. 36. 2. 66. 2. 4. 0. 26. 0. 0.
      0. 2. 0. 2. 2. 0. 0. 0. 2. 14. 12. 0. 0. 2. 0. 0. 0. 46. 44. 2. 0.
      8. 0. 22. 8. 112.</_>
    <_>
      60. 18. 12. 10. 32. 2. 22. 18. 2. 2. 0. 6. 12. 0. 10. 12. 14. 6.
      0. 2. 2. 2. 4. 0. 6. 4. 4. 4. 14. 4. 18. 24. 8. 2. 0. 2. 2. 0. 2.
      2. 0. 0. 0. 0. 0. 0. 2. 4. 12. 0. 0. 0. 2. 0. 4. 0. 16. 0. 2. 0.
      52. 0. 8. 12. 12. 4. 4. 6. 2. 0. 0. 6. 0. 2. 2. 0. 2. 0. 4. 4. 0.
      0. 0. 0. 0. 0. 0. 0. 0. 0. 0. 0. 0. 0. 4. 2. 10. 4. 2. 2. 0. 0. 4.
      4. 0. 0. 0. 2. 2. 0. 0. 2. 32. 2. 6. 2. 0. 0. 0. 2. 24. 4. 2. 2.
      6. 0. 16. 12. 18. 14. 0. 22. 0. 6. 2. 54. 2. 0. 0. 2. 2. 6. 0. 34.
      0. 0. 2. 2. 0. 0. 0. 0. 2. 0. 0. 0. 6. 0. 2. 22. 0. 2. 0. 0. 0. 0.
      0. 4. 0. 0. 0. 0. 0. 4. 0. 0. 0. 4. 0. 2. 0. 0. 0. 8. 0. 2. 0. 2.
      8. 0. 6. 12. 28. 22. 2. 24. 2. 0. 8. 18. 2. 2. 0. 0. 0. 6. 4. 20.
      0. 2. 0. 0. 0. 0. 0. 4. 2. 2. 0. 6. 0. 2. 2. 14. 28. 16. 2. 30. 2.
      4. 0. 32. 2. 0. 0. 0. 4. 0. 2. 18. 40. 30. 6. 18. 4. 0. 4. 16. 24.
      18. 6. 26. 14. 10. 12. 122.</_>
    <_>
      8. 0. 0. 4. 4. 2. 0. 10. 0. 0. 0. 0. 8. 0. 4. 2. 2. 0. 0. 0. 0. 2.
      0. 0. 6. 2. 0. 2. 8. 0. 2. 8. 0. 0. 0. 0. 2. 0. 0. 0. 0. 0. 0. 0.
      0. 0. 0. 0. 2. 0. 0. 0. 2. 0. 2. 0. 16. 0. 0. 2. 22. 2. 10. 2. 4.
      0. 0. 0. 2. 2. 4. 0. 0. 0. 0. 0. 2. 0. 0. 0. 0. 0. 0. 0. 0. 0. 0.
      0. 0. 0. 0. 0. 0. 0. 0. 0. 2. 2. 0. 0. 0. 0. 0. 0. 0. 0. 0. 0. 0.
      0. 2. 0. 12. 0. 0. 0. 2. 0. 0. 0. 98. 0. 0. 0. 50. 2. 4. 4. 0. 0.
      0. 8. 2. 2. 0. 16. 0. 0. 0. 0. 0. 0. 0. 10. 0. 0. 0. 0. 0. 0. 0.
      2. 0. 0. 0. 0. 0. 0. 0. 4. 2. 0. 0. 0. 2. 0. 2. 2. 0. 0. 0. 0. 2.
      0. 0. 2. 0. 0. 0. 0. 0. 2. 0. 2. 2. 2. 0. 4. 4. 0. 2. 16. 6. 12.
      0. 68. 0. 2. 0. 52. 0. 0. 0. 0. 0. 0. 0. 6. 0. 0. 0. 0. 0. 0. 0.
      0. 0. 0. 0. 2. 0. 0. 0. 10. 2. 4. 0. 16. 0. 0. 0. 14. 0. 0. 0. 0.
      0. 0. 0. 0. 12. 2. 0. 6. 0. 0. 2. 16. 12. 4. 0. 20. 20. 22. 12.
      828.</_>
    <_>
      86. 34. 8. 8. 22. 0. 34. 22. 8. 4. 2. 0. 4. 0. 12. 16. 32. 6. 6.
      0. 6. 0. 6. 0. 16. 4. 2. 4. 20. 2. 40. 14. 22. 4. 0. 4. 2. 2. 0.
      0. 0. 2. 0. 0. 2. 0. 2. 0. 20. 0. 2. 0. 6. 0. 2. 2. 0. 2. 0. 0.
      42. 4. 20. 20. 12. 4. 2. 12. 2. 0. 0. 0. 2. 2. 2. 2. 4. 0. 0. 2.
      0. 0. 2. 0. 0. 0. 0. 0. 2. 0. 4. 2. 0. 0. 0. 8. 14. 6. 0. 0. 4. 0.
      0. 2. 2. 2. 2. 2. 0. 0. 4. 0. 14. 4. 6. 2. 0. 0. 2. 4. 2. 2. 6. 2.
      4. 0. 8. 20. 4. 16. 0. 20. 4. 0. 0. 44. 0. 0. 0. 0. 0. 4. 6. 18.
      0. 2. 2. 0. 0. 0. 0. 2. 0. 2. 0. 2. 2. 4. 10. 20. 2. 0. 2. 0. 0.
      0. 0. 4. 0. 0. 0. 0. 2. 2. 0. 4. 0. 0. 0. 2. 0. 2. 2. 4. 2. 0. 0.
      4. 8. 2. 4. 20. 20. 20. 2. 6. 2. 4. 0. 8. 2. 4. 0. 8. 2. 2. 0. 12.
      2. 2. 0. 2. 0. 0. 0. 0. 2. 2. 0. 2. 6. 8. 4. 14. 8. 26. 4. 30. 0.
      0. 0. 22. 6. 2. 2. 4. 0. 0. 6. 22. 26. 20. 6. 8. 0. 4. 0. 8. 22.
      14. 4. 14. 24. 24. 32. 110.</_>
    <_>
      22. 10. 4. 6. 16. 2. 4. 10. 4. 0. 2. 0. 0. 6. 32. 48. 18. 16. 2.
      0. 0. 0. 2. 4. 12. 2. 0. 0. 12. 2. 46. 52. 0. 2. 2. 0. 0. 0. 0. 0.
      4. 0. 0. 2. 2. 0. 0. 0. 2. 2. 0. 0. 4. 0. 0. 0. 10. 4. 0. 0. 28.
      2. 8. 4. 16. 2. 0. 0. 10. 0. 0. 0. 0. 0. 0. 0. 0. 0. 0. 0. 2. 0.
      0. 0. 0. 0. 0. 2. 6. 0. 2. 0. 0. 0. 2. 0. 8. 2. 0. 0. 2. 0. 0. 2.
      0. 4. 0. 0. 0. 0. 2. 2. 22. 4. 0. 0. 0. 0. 2. 0. 18. 0. 4. 2. 6.
      0. 12. 10. 8. 0. 2. 10. 4. 2. 0. 32. 0. 0. 2. 0. 2. 0. 0. 14. 2.
      2. 0. 2. 0. 2. 0. 0. 0. 0. 0. 0. 0. 0. 0. 6. 2. 0. 0. 0. 0. 0. 0.
      2. 0. 0. 0. 0. 0. 0. 0. 0. 0. 0. 0. 0. 0. 0. 0. 2. 2. 2. 0. 2. 0.
      0. 0. 6. 6. 30. 2. 48. 0. 0. 0. 6. 0. 0. 0. 2. 0. 0. 0. 6. 6. 0.
      0. 2. 0. 0. 0. 0. 2. 0. 0. 0. 0. 0. 0. 4. 34. 126. 0. 50. 2. 2. 0.
      16. 0. 2. 0. 0. 0. 0. 2. 12. 102. 154. 0. 36. 2. 2. 2. 16. 36. 36.
      2. 12. 20. 20. 16. 90.</_>
    <_>
      68. 22. 10. 4. 8. 0. 2. 20. 12. 4. 0. 2. 6. 0. 4. 18. 20. 6. 0. 4.
      0. 0. 4. 2. 4. 2. 2. 4. 16. 2. 6. 14. 8. 4. 0. 8. 0. 0. 0. 0. 0.
      2. 4. 0. 2. 4. 4. 0. 4. 2. 0. 0. 0. 2. 2. 4. 10. 0. 2. 4. 28. 2.
      36. 10. 4. 0. 0. 0. 4. 0. 0. 6. 2. 0. 0. 0. 4. 0. 0. 6. 4. 2. 2.
      2. 0. 0. 0. 2. 4. 4. 6. 0. 4. 0. 4. 6. 8. 0. 4. 0. 2. 0. 0. 0. 2.
      0. 0. 2. 0. 0. 0. 2. 24. 4. 2. 2. 0. 0. 4. 2. 12. 4. 0. 6. 12. 6.
      10. 42. 6. 12. 6. 10. 2. 0. 2. 16. 4. 0. 0. 2. 2. 2. 4. 42. 4. 2.
      2. 4. 0. 0. 4. 8. 2. 0. 0. 0. 0. 0. 2. 12. 6. 2. 2. 2. 2. 0. 2. 2.
      0. 0. 0. 0. 2. 2. 2. 2. 0. 0. 0. 0. 0. 2. 0. 2. 0. 4. 0. 0. 2. 0.
      2. 10. 8. 16. 2. 14. 0. 4. 2. 22. 0. 0. 0. 2. 2. 2. 2. 12. 0. 6.
      0. 2. 2. 0. 2. 4. 0. 2. 0. 0. 2. 2. 8. 40. 8. 24. 4. 44. 4. 2. 2.
      16. 4. 10. 2. 2. 0. 8. 6. 26. 10. 12. 4. 20. 4. 6. 6. 50. 42. 20.
      10. 14. 18. 42. 26. 142.</_>
    <_>
      20. 8. 0. 0. 12. 0. 0. 0. 0. 0. 0. 2. 0. 2. 0. 0. 8. 4. 4. 2. 0.
      0. 2. 0. 6. 2. 0. 0. 12. 2. 42. 4. 4. 0. 0. 0. 2. 0. 0. 0. 0. 0.
      0. 0. 0. 0. 0. 0. 20. 2. 2. 0. 2. 0. 0. 0. 14. 0. 0. 0. 32. 2. 6.
      0. 2. 0. 0. 4. 0. 0. 2. 0. 4. 0. 0. 0. 2. 0. 0. 0. 0. 0. 0. 0. 0.
      0. 0. 0. 0. 0. 0. 0. 0. 0. 0. 0. 0. 0. 0. 2. 0. 0. 0. 0. 4. 0. 0.
      0. 0. 2. 0. 2. 4. 4. 0. 0. 0. 0. 0. 2. 68. 6. 6. 4. 6. 10. 12. 12.
      0. 6. 0. 0. 0. 0. 2. 24. 0. 0. 0. 0. 0. 2. 0. 2. 0. 0. 0. 2. 0. 0.
      0. 0. 0. 0. 0. 0. 2. 0. 0. 2. 0. 0. 0. 0. 0. 0. 0. 0. 0. 0. 0. 0.
      0. 0. 0. 0. 0. 4. 0. 0. 0. 0. 0. 0. 0. 0. 0. 0. 6. 6. 2. 10. 0. 6.
      0. 80. 0. 0. 0. 14. 0. 0. 0. 8. 2. 0. 0. 4. 2. 0. 0. 0. 0. 0. 0.
      0. 0. 0. 0. 8. 0. 2. 2. 4. 6. 30. 0. 4. 0. 0. 0. 20. 0. 0. 0. 0.
      0. 0. 2. 2. 10. 18. 0. 8. 0. 2. 4. 22. 12. 8. 0. 12. 20. 36. 20.
      754.</_>
    <_>
      8. 10. 0. 6. 4. 2. 6. 14. 4. 0. 0. 0. 0. 0. 4. 42. 8. 0. 0. 0. 0.
      0. 0. 0. 4. 0. 0. 0. 10. 2. 32. 6. 0. 0. 0. 0. 2. 0. 0. 4. 0. 0.
      0. 0. 0. 0. 0. 4. 10. 0. 0. 0. 0. 0. 0. 0. 6. 0. 2. 2. 32. 0. 10.
      2. 18. 0. 0. 0. 2. 0. 0. 0. 0. 0. 0. 0. 0. 0. 0. 0. 0. 0. 0. 0. 0.
      0. 0. 0. 0. 0. 0. 0. 0. 0. 0. 0. 0. 0. 0. 2. 0. 0. 0. 0. 2. 0. 0.
      0. 0. 0. 4. 2. 12. 2. 0. 0. 0. 0. 2. 0. 44. 0. 4. 4. 24. 0. 10.
      18. 2. 4. 0. 4. 0. 0. 0. 44. 0. 2. 0. 0. 2. 0. 0. 14. 0. 0. 0. 0.
      0. 0. 0. 0. 0. 0. 0. 0. 0. 0. 0. 8. 0. 0. 0. 0. 0. 0. 0. 2. 0. 0.
      0. 0. 0. 0. 0. 4. 0. 2. 0. 0. 0. 0. 0. 6. 0. 2. 0. 4. 6. 6. 0. 14.
      4. 4. 2. 34. 0. 0. 0. 14. 0. 2. 0. 2. 0. 2. 0. 6. 0. 4. 0. 0. 0.
      0. 0. 0. 0. 0. 2. 0. 0. 0. 0. 14. 6. 26. 0. 16. 0. 0. 0. 12. 0. 6.
      0. 2. 0. 0. 0. 4. 20. 14. 2. 6. 0. 0. 4. 16. 14. 12. 2. 6. 14. 18.
      18. 748.</_>
    <_>
      86. 20. 10. 8. 26. 2. 4. 10. 10. 2. 4. 4. 0. 6. 6. 20. 20. 8. 4.
      4. 2. 0. 4. 4. 6. 0. 2. 0. 4. 0. 36. 28. 12. 2. 2. 2. 0. 0. 2. 2.
      8. 0. 0. 0. 4. 0. 0. 0. 16. 2. 0. 0. 6. 0. 6. 2. 8. 2. 0. 2. 16.
      0. 10. 6. 16. 4. 10. 0. 8. 2. 2. 0. 2. 0. 2. 0. 2. 0. 2. 0. 2. 2.
      2. 0. 2. 0. 0. 2. 0. 0. 0. 0. 2. 0. 0. 4. 14. 4. 2. 2. 8. 2. 2. 0.
      4. 0. 0. 0. 0. 2. 0. 2. 8. 0. 0. 2. 2. 0. 2. 10. 26. 6. 4. 4. 14.
      0. 4. 8. 22. 8. 4. 8. 2. 10. 0. 30. 2. 0. 2. 0. 0. 4. 0. 2. 2. 8.
      0. 0. 0. 0. 0. 2. 0. 0. 0. 0. 2. 2. 8. 10. 6. 4. 2. 8. 2. 0. 0. 2.
      0. 0. 0. 2. 0. 0. 0. 2. 4. 0. 2. 6. 2. 0. 0. 2. 2. 4. 0. 4. 6. 2.
      6. 18. 16. 12. 2. 40. 2. 6. 4. 16. 0. 0. 0. 2. 4. 2. 0. 8. 2. 4.
      0. 10. 2. 2. 0. 0. 6. 2. 0. 4. 0. 0. 2. 10. 4. 32. 0. 22. 6. 4. 4.
      10. 0. 2. 0. 0. 2. 4. 4. 24. 36. 12. 0. 10. 0. 6. 2. 10. 6. 18. 6.
      24. 16. 24. 24. 236.</_>
    <_>
      54. 10. 12. 12. 2. 2. 12. 24. 8. 2. 0. 2. 6. 2. 8. 20. 18. 12. 0.
      2. 4. 0. 4. 2. 16. 0. 0. 0. 16. 0. 26. 18. 10. 2. 2. 2. 0. 2. 0.
      4. 0. 4. 0. 2. 0. 0. 2. 0. 16. 2. 2. 0. 2. 0. 0. 2. 20. 0. 0. 2.
      38. 0. 24. 4. 14. 0. 0. 0. 2. 2. 2. 6. 0. 2. 0. 2. 2. 0. 0. 4. 6.
      2. 0. 0. 0. 0. 0. 0. 0. 0. 0. 0. 4. 0. 4. 2. 10. 4. 2. 0. 0. 0. 0.
      2. 4. 2. 0. 0. 4. 0. 2. 2. 22. 0. 4. 0. 2. 0. 0. 2. 12. 4. 2. 4.
      16. 4. 8. 4. 8. 14. 6. 14. 2. 8. 0. 98. 0. 4. 0. 2. 2. 0. 0. 16.
      4. 2. 0. 2. 0. 0. 2. 2. 0. 0. 0. 2. 4. 2. 2. 14. 0. 0. 2. 2. 0. 0.
      0. 2. 0. 0. 0. 2. 0. 0. 0. 4. 0. 0. 0. 2. 0. 0. 0. 0. 0. 0. 0. 0.
      6. 2. 6. 20. 14. 42. 4. 14. 0. 4. 2. 26. 0. 6. 0. 0. 0. 2. 2. 20.
      0. 0. 0. 6. 0. 0. 0. 2. 2. 0. 0. 0. 4. 0. 2. 16. 10. 46. 2. 20. 0.
      4. 0. 34. 2. 2. 0. 0. 0. 4. 6. 30. 30. 24. 0. 20. 4. 4. 4. 28. 8.
      20. 4. 16. 14. 20. 36. 144.</_>
    <_>
      68. 8. 4. 4. 10. 0. 6. 4. 4. 4. 2. 0. 2. 0. 4. 16. 6. 4. 2. 0. 2.
      6. 2. 0. 6. 2. 2. 4. 6. 2. 20. 32. 6. 4. 6. 2. 2. 0. 0. 2. 8. 0.
      0. 0. 4. 0. 0. 0. 8. 2. 0. 4. 12. 0. 2. 0. 6. 0. 2. 0. 22. 6. 12.
      22. 24. 0. 8. 8. 16. 0. 0. 0. 14. 0. 0. 0. 0. 0. 0. 2. 0. 0. 2. 0.
      2. 0. 4. 0. 4. 0. 0. 2. 0. 0. 4. 8. 4. 4. 4. 0. 2. 0. 0. 0. 2. 0.
      0. 2. 0. 0. 2. 6. 2. 6. 4. 4. 2. 0. 0. 0. 20. 2. 2. 0. 26. 2. 16.
      26. 14. 2. 4. 10. 8. 6. 2. 12. 0. 2. 2. 2. 2. 4. 2. 24. 2. 2. 2.
      2. 4. 2. 0. 2. 0. 0. 0. 0. 2. 0. 2. 18. 0. 4. 2. 0. 0. 2. 0. 0. 0.
      0. 2. 0. 0. 0. 0. 6. 0. 2. 0. 0. 0. 0. 0. 2. 2. 2. 0. 2. 2. 6. 2.
      20. 10. 4. 2. 18. 2. 0. 0. 10. 4. 0. 0. 2. 0. 0. 2. 12. 0. 2. 0.
      4. 0. 2. 2. 2. 0. 6. 0. 2. 0. 4. 2. 22. 6. 16. 0. 14. 0. 8. 0. 10.
      0. 6. 2. 0. 2. 2. 6. 18. 30. 18. 6. 10. 2. 4. 2. 24. 20. 6. 2. 22.
      6. 20. 22. 380.</_>
    <_>
      38. 6. 0. 6. 2. 0. 2. 14. 4. 2. 0. 0. 6. 2. 10. 18. 16. 10. 0. 0.
      4. 2. 2. 2. 2. 4. 0. 0. 6. 2. 12. 12. 0. 2. 0. 0. 0. 0. 0. 2. 0.
      0. 0. 0. 4. 2. 2. 4. 14. 0. 2. 2. 0. 0. 0. 2. 6. 0. 0. 0. 14. 0.
      2. 10. 8. 2. 0. 0. 6. 0. 0. 2. 2. 0. 0. 0. 2. 0. 0. 0. 10. 2. 0.
      0. 0. 0. 0. 0. 0. 0. 0. 0. 2. 2. 0. 0. 26. 6. 0. 0. 4. 0. 0. 4. 0.
      0. 0. 0. 0. 0. 0. 2. 34. 4. 2. 0. 0. 0. 2. 2. 32. 0. 0. 2. 14. 2.
      4. 10. 6. 14. 0. 10. 0. 0. 0. 6. 0. 0. 0. 0. 0. 2. 0. 2. 0. 0. 0.
      0. 0. 0. 0. 2. 2. 0. 0. 0. 0. 0. 2. 8. 0. 2. 0. 2. 0. 0. 0. 4. 0.
      0. 0. 0. 0. 0. 0. 4. 6. 6. 0. 0. 2. 0. 0. 2. 2. 2. 0. 0. 0. 2. 4.
      8. 6. 42. 0. 40. 2. 4. 0. 26. 0. 4. 0. 4. 0. 2. 2. 4. 10. 0. 0. 0.
      0. 0. 0. 0. 0. 0. 0. 0. 2. 0. 0. 6. 32. 162. 4. 44. 4. 6. 2. 22.
      4. 4. 0. 4. 0. 2. 4. 14. 84. 100. 0. 18. 8. 8. 8. 16. 50. 26. 6.
      32. 18. 32. 24. 136.</_>
    <_>
      22. 26. 0. 6. 6. 0. 2. 32. 0. 0. 0. 0. 4. 2. 24. 42. 10. 8. 4. 4.
      2. 0. 2. 4. 4. 2. 0. 0. 22. 0. 90. 38. 4. 2. 0. 0. 0. 0. 0. 2. 0.
      0. 0. 0. 2. 0. 0. 2. 18. 6. 0. 4. 2. 0. 0. 0. 10. 0. 0. 0. 30. 0.
      10. 4. 16. 0. 0. 2. 0. 0. 0. 2. 0. 0. 0. 0. 0. 0. 2. 0. 0. 0. 0.
      0. 0. 0. 0. 0. 0. 0. 0. 0. 2. 0. 0. 0. 4. 6. 0. 2. 0. 0. 0. 2. 0.
      0. 0. 0. 0. 0. 2. 4. 20. 2. 2. 0. 0. 0. 2. 0. 16. 0. 2. 2. 10. 0.
      4. 6. 6. 30. 0. 22. 0. 2. 0. 38. 0. 0. 0. 2. 0. 0. 2. 28. 4. 0. 0.
      0. 0. 0. 0. 0. 0. 2. 0. 0. 4. 0. 4. 14. 0. 0. 0. 0. 0. 0. 0. 2. 0.
      0. 0. 0. 0. 0. 0. 6. 2. 0. 0. 2. 0. 0. 0. 0. 0. 0. 0. 4. 4. 0. 2.
      12. 16. 32. 2. 42. 2. 0. 0. 38. 2. 0. 0. 2. 0. 0. 2. 16. 0. 12. 0.
      0. 0. 0. 0. 2. 2. 0. 0. 2. 0. 2. 4. 12. 20. 136. 2. 36. 2. 2. 0.
      16. 2. 4. 0. 4. 0. 6. 4. 40. 48. 92. 4. 20. 0. 0. 4. 10. 12. 10.
      2. 12. 8. 6. 26. 96.</_>
    <_>
      66. 8. 12. 10. 24. 2. 16. 18. 2. 2. 4. 0. 4. 0. 2. 2. 12. 0. 0. 2.
      2. 0. 0. 0. 10. 0. 0. 2. 12. 0. 18. 0. 14. 0. 6. 2. 0. 0. 4. 4. 2.
      2. 2. 0. 0. 0. 0. 2. 12. 0. 6. 4. 4. 0. 4. 2. 18. 0. 0. 0. 4. 0.
      4. 10. 30. 2. 0. 2. 8. 2. 2. 4. 0. 0. 2. 0. 2. 0. 0. 0. 8. 2. 0.
      2. 0. 0. 0. 0. 6. 0. 0. 2. 2. 0. 2. 0. 18. 2. 2. 2. 6. 0. 2. 0. 2.
      0. 0. 0. 0. 0. 0. 4. 24. 8. 0. 4. 2. 0. 0. 4. 42. 4. 8. 6. 20. 2.
      10. 16. 18. 16. 4. 28. 2. 10. 2. 76. 0. 4. 0. 4. 0. 4. 0. 26. 0.
      0. 0. 2. 2. 0. 2. 4. 2. 4. 0. 0. 2. 0. 4. 12. 8. 2. 2. 6. 0. 2. 0.
      12. 0. 2. 0. 2. 0. 0. 0. 8. 0. 2. 0. 0. 2. 0. 0. 0. 0. 2. 0. 4. 4.
      10. 4. 16. 26. 16. 2. 22. 10. 2. 4. 32. 0. 10. 0. 0. 2. 4. 2. 18.
      4. 0. 0. 6. 4. 0. 2. 6. 2. 2. 2. 8. 4. 0. 6. 14. 10. 12. 0. 26. 0.
      0. 2. 10. 4. 4. 0. 2. 2. 4. 0. 20. 14. 6. 8. 16. 4. 8. 2. 38. 34.
      18. 10. 26. 12. 14. 18. 116.</_>
    <_>
      12. 6. 2. 6. 6. 0. 8. 12. 4. 2. 0. 0. 2. 2. 2. 18. 6. 0. 0. 0. 0.
      0. 0. 0. 4. 0. 0. 2. 10. 0. 18. 10. 0. 0. 0. 0. 0. 0. 2. 0. 0. 0.
      0. 0. 0. 0. 0. 0. 0. 0. 0. 0. 0. 0. 2. 0. 12. 0. 2. 0. 22. 2. 6.
      4. 2. 2. 0. 0. 0. 0. 0. 2. 2. 0. 0. 0. 2. 0. 0. 0. 0. 0. 0. 0. 0.
      0. 0. 0. 0. 0. 0. 0. 2. 0. 0. 0. 2. 0. 0. 0. 0. 0. 0. 2. 0. 0. 0.
      0. 0. 0. 0. 2. 16. 2. 0. 0. 0. 0. 0. 0. 60. 0. 6. 4. 42. 0. 6. 10.
      0. 2. 0. 14. 0. 2. 0. 14. 0. 0. 0. 2. 2. 2. 0. 8. 0. 0. 0. 0. 0.
      0. 0. 0. 0. 0. 0. 0. 2. 0. 0. 4. 0. 0. 0. 0. 0. 0. 0. 4. 0. 0. 0.
      0. 0. 0. 0. 2. 0. 2. 0. 0. 2. 0. 0. 4. 0. 0. 0. 2. 4. 6. 0. 12. 0.
      24. 0. 64. 0. 0. 0. 32. 0. 0. 0. 6. 0. 0. 0. 6. 2. 0. 0. 2. 0. 0.
      0. 0. 0. 0. 0. 0. 0. 0. 0. 8. 2. 14. 0. 26. 0. 0. 0. 18. 2. 0. 0.
      2. 0. 0. 2. 10. 20. 2. 0. 12. 0. 0. 2. 20. 22. 8. 0. 4. 14. 28. 6.
      772.</_>
    <_>
      20. 14. 0. 10. 6. 0. 6. 30. 8. 0. 0. 4. 10. 2. 14. 42. 14. 0. 0.
      0. 0. 2. 2. 0. 8. 0. 2. 0. 18. 0. 22. 32. 2. 0. 0. 0. 0. 0. 0. 0.
      0. 0. 0. 2. 0. 2. 0. 6. 10. 2. 2. 0. 6. 0. 0. 0. 22. 0. 0. 0. 32.
      0. 18. 16. 4. 0. 2. 0. 8. 6. 2. 4. 0. 0. 0. 0. 0. 0. 2. 2. 2. 0.
      0. 0. 2. 0. 0. 0. 4. 0. 0. 0. 8. 0. 2. 0. 6. 0. 0. 0. 2. 0. 0. 0.
      0. 0. 0. 0. 4. 0. 0. 4. 10. 0. 2. 2. 2. 0. 2. 0. 34. 0. 0. 0. 98.
      2. 16. 20. 4. 6. 0. 24. 0. 6. 2. 56. 0. 0. 0. 0. 6. 0. 0. 34. 0.
      0. 0. 0. 0. 0. 0. 4. 0. 2. 0. 2. 2. 0. 0. 16. 2. 0. 0. 2. 0. 0. 0.
      0. 0. 0. 0. 0. 0. 0. 0. 0. 0. 0. 0. 0. 0. 0. 0. 0. 0. 0. 0. 0. 2.
      0. 0. 20. 4. 14. 0. 58. 4. 0. 4. 184. 0. 0. 0. 0. 0. 0. 2. 26. 0.
      2. 0. 4. 0. 0. 0. 2. 2. 2. 0. 2. 4. 0. 0. 20. 6. 6. 0. 6. 0. 2. 0.
      18. 0. 0. 0. 4. 4. 4. 0. 24. 12. 4. 2. 4. 2. 0. 0. 18. 4. 8. 2.
      14. 2. 10. 8. 242.</_>
    <_>
      28. 20. 2. 4. 6. 0. 12. 28. 0. 0. 0. 0. 4. 0. 42. 92. 36. 6. 0. 8.
      2. 0. 2. 2. 2. 0. 2. 0. 18. 0. 90. 86. 2. 0. 0. 0. 0. 0. 0. 2. 0.
      0. 0. 0. 2. 0. 0. 0. 6. 0. 0. 0. 0. 0. 0. 0. 6. 0. 0. 0. 12. 0.
      18. 6. 10. 4. 2. 0. 4. 0. 0. 0. 0. 0. 0. 0. 4. 0. 0. 6. 6. 0. 0.
      0. 0. 0. 0. 0. 0. 0. 0. 0. 0. 0. 0. 2. 10. 2. 0. 0. 2. 0. 0. 0. 2.
      0. 0. 0. 0. 0. 0. 2. 16. 2. 0. 0. 0. 0. 0. 0. 8. 0. 4. 0. 12. 0.
      8. 12. 4. 16. 0. 12. 0. 0. 0. 18. 0. 0. 0. 0. 0. 2. 0. 28. 0. 2.
      0. 0. 0. 0. 0. 0. 0. 2. 0. 0. 0. 0. 2. 18. 2. 0. 0. 0. 0. 0. 0. 2.
      0. 0. 0. 0. 0. 0. 0. 0. 0. 0. 0. 0. 2. 0. 0. 2. 0. 2. 0. 0. 0. 4.
      2. 8. 10. 16. 0. 38. 4. 2. 2. 40. 0. 4. 0. 6. 0. 0. 0. 12. 0. 2.
      0. 0. 0. 0. 0. 0. 0. 2. 0. 2. 0. 0. 2. 8. 26. 86. 4. 32. 0. 0. 0.
      12. 0. 2. 0. 0. 0. 0. 6. 22. 58. 92. 2. 24. 0. 0. 2. 18. 20. 20.
      2. 18. 16. 12. 14. 138.</_>
    <_>
      58. 10. 14. 6. 8. 2. 4. 16. 8. 2. 2. 0. 6. 2. 4. 16. 4. 4. 0. 6.
      0. 0. 0. 4. 6. 2. 0. 0. 12. 2. 16. 4. 14. 0. 6. 0. 4. 2. 0. 0. 0.
      0. 0. 2. 0. 0. 2. 0. 6. 6. 0. 0. 2. 0. 0. 0. 12. 2. 2. 4. 10. 2.
      10. 8. 16. 4. 4. 2. 10. 4. 2. 2. 2. 4. 0. 0. 2. 0. 2. 0. 2. 2. 0.
      0. 2. 4. 0. 0. 2. 2. 0. 0. 6. 2. 6. 0. 4. 4. 0. 0. 2. 0. 0. 0. 2.
      0. 0. 0. 2. 2. 6. 4. 20. 2. 0. 2. 6. 2. 4. 0. 8. 2. 2. 2. 34. 4.
      20. 30. 10. 12. 2. 18. 2. 4. 0. 6. 0. 0. 2. 2. 0. 0. 0. 4. 2. 0.
      0. 2. 2. 2. 4. 4. 2. 0. 0. 0. 2. 2. 0. 2. 0. 0. 2. 0. 0. 0. 0. 8.
      0. 0. 0. 2. 0. 0. 2. 0. 4. 2. 0. 6. 0. 0. 0. 6. 0. 0. 0. 6. 0. 0.
      2. 32. 4. 10. 4. 10. 4. 2. 2. 38. 0. 0. 0. 2. 6. 4. 0. 16. 4. 4.
      0. 2. 0. 2. 0. 14. 2. 0. 0. 0. 4. 2. 2. 20. 12. 18. 2. 8. 2. 2. 2.
      24. 0. 0. 0. 6. 2. 2. 0. 34. 4. 20. 4. 12. 4. 4. 0. 10. 12. 14. 0.
      26. 16. 16. 26. 412.</_>
    <_>
      82. 14. 14. 6. 18. 4. 6. 8. 12. 4. 8. 0. 4. 2. 0. 2. 10. 0. 0. 0.
      2. 0. 8. 0. 10. 0. 2. 2. 4. 2. 0. 6. 24. 4. 2. 2. 6. 2. 2. 0. 12.
      2. 8. 2. 4. 0. 2. 0. 10. 0. 4. 0. 10. 4. 2. 0. 14. 2. 4. 0. 6. 2.
      6. 2. 16. 6. 4. 4. 2. 2. 4. 0. 4. 0. 0. 0. 0. 0. 0. 0. 2. 0. 0. 0.
      0. 4. 2. 2. 0. 0. 0. 0. 0. 10. 0. 4. 12. 4. 2. 4. 4. 2. 4. 8. 2.
      0. 2. 2. 4. 2. 0. 0. 10. 8. 6. 0. 6. 0. 8. 16. 10. 2. 2. 4. 14.
      10. 2. 28. 26. 14. 12. 18. 0. 6. 6. 22. 4. 4. 6. 4. 2. 2. 2. 10.
      2. 2. 2. 0. 0. 0. 0. 2. 4. 0. 2. 4. 2. 2. 2. 12. 6. 0. 6. 8. 4. 2.
      0. 10. 4. 6. 2. 2. 0. 2. 0. 4. 6. 6. 6. 0. 0. 0. 2. 2. 6. 0. 4. 2.
      0. 2. 4. 14. 10. 20. 4. 14. 2. 6. 0. 18. 2. 4. 2. 2. 2. 2. 0. 12.
      4. 4. 4. 6. 2. 4. 2. 28. 6. 0. 0. 4. 2. 14. 0. 24. 8. 20. 2. 28.
      4. 2. 2. 16. 4. 4. 8. 2. 2. 6. 2. 26. 16. 6. 10. 14. 0. 6. 2. 34.
      22. 14. 4. 18. 8. 38. 10. 130.</_>
    <_>
      48. 18. 4. 2. 8. 6. 10. 4. 4. 6. 4. 0. 6. 0. 2. 6. 12. 8. 0. 2. 2.
      0. 6. 0. 2. 0. 4. 2. 10. 2. 4. 2. 6. 0. 2. 0. 2. 0. 2. 0. 2. 0. 0.
      0. 4. 0. 2. 6. 12. 8. 0. 0. 2. 0. 0. 2. 4. 0. 2. 0. 40. 2. 20. 8.
      16. 0. 2. 2. 6. 0. 2. 4. 6. 4. 6. 4. 2. 0. 0. 4. 2. 0. 0. 0. 0. 0.
      0. 0. 2. 4. 4. 2. 2. 2. 4. 6. 2. 4. 0. 0. 2. 0. 2. 2. 0. 0. 0. 0.
      0. 0. 0. 2. 10. 2. 0. 2. 0. 0. 4. 8. 6. 4. 4. 0. 8. 4. 6. 22. 6.
      6. 4. 0. 12. 6. 2. 58. 0. 0. 0. 2. 0. 0. 0. 6. 8. 2. 2. 0. 0. 0.
      0. 0. 0. 0. 0. 2. 4. 0. 0. 6. 0. 2. 0. 0. 0. 0. 0. 4. 0. 0. 0. 0.
      0. 0. 0. 6. 0. 0. 0. 2. 0. 0. 0. 2. 0. 2. 0. 0. 2. 12. 4. 20. 8.
      14. 0. 2. 2. 0. 0. 4. 0. 0. 0. 2. 0. 0. 0. 14. 0. 6. 0. 0. 0. 2.
      0. 4. 0. 0. 2. 0. 2. 2. 2. 20. 8. 0. 0. 8. 4. 0. 4. 8. 0. 4. 0. 0.
      0. 2. 2. 12. 44. 12. 2. 10. 4. 4. 0. 22. 0. 10. 4. 18. 14. 22. 16.
      576.</_>
    <_>
      42. 18. 6. 20. 34. 2. 18. 36. 12. 0. 2. 0. 14. 8. 16. 54. 8. 0. 4.
      0. 2. 0. 2. 2. 6. 0. 6. 0. 26. 0. 26. 4. 4. 6. 0. 0. 4. 0. 0. 2.
      2. 0. 0. 0. 4. 0. 0. 0. 14. 0. 0. 2. 0. 0. 2. 2. 24. 0. 2. 0. 58.
      0. 18. 20. 6. 0. 2. 2. 8. 2. 4. 4. 0. 0. 0. 0. 4. 0. 0. 0. 0. 0.
      2. 0. 4. 0. 0. 2. 6. 0. 0. 0. 2. 0. 6. 4. 4. 2. 0. 0. 2. 0. 0. 2.
      0. 2. 0. 0. 0. 0. 0. 4. 4. 0. 0. 2. 0. 0. 0. 2. 30. 2. 4. 2. 68.
      6. 8. 20. 4. 12. 4. 26. 2. 2. 0. 84. 8. 2. 4. 0. 0. 2. 0. 64. 0.
      2. 0. 0. 0. 0. 4. 0. 0. 0. 0. 0. 0. 2. 6. 8. 0. 4. 0. 0. 0. 0. 0.
      2. 0. 0. 0. 0. 0. 0. 0. 2. 0. 2. 0. 0. 0. 0. 0. 2. 4. 0. 2. 4. 4.
      2. 0. 22. 6. 10. 6. 70. 2. 2. 0. 92. 2. 2. 0. 4. 0. 0. 0. 10. 0.
      2. 0. 2. 0. 0. 2. 6. 2. 0. 2. 0. 0. 0. 0. 12. 0. 42. 0. 24. 0. 0.
      0. 12. 0. 4. 0. 2. 0. 2. 6. 18. 0. 2. 2. 2. 0. 0. 0. 12. 16. 2. 4.
      14. 18. 12. 14. 86.</_>
    <_>
      90. 64. 8. 14. 12. 2. 16. 22. 6. 4. 2. 0. 6. 0. 10. 8. 32. 2. 6.
      0. 8. 0. 2. 4. 12. 4. 0. 2. 16. 0. 30. 6. 20. 0. 2. 0. 2. 2. 2. 0.
      4. 0. 0. 0. 0. 2. 2. 4. 6. 2. 2. 0. 4. 2. 4. 4. 10. 2. 2. 0. 30.
      0. 16. 12. 4. 4. 2. 12. 0. 0. 2. 4. 2. 0. 0. 2. 4. 0. 2. 0. 4. 0.
      4. 0. 0. 0. 0. 0. 2. 0. 0. 0. 0. 2. 2. 2. 12. 2. 0. 4. 0. 2. 2. 2.
      2. 2. 0. 2. 0. 0. 6. 2. 14. 2. 2. 4. 4. 0. 0. 2. 2. 0. 0. 2. 10.
      2. 14. 10. 12. 8. 6. 34. 0. 2. 8. 52. 0. 2. 0. 0. 0. 2. 4. 18. 4.
      0. 0. 4. 4. 0. 2. 2. 2. 2. 0. 0. 0. 0. 6. 14. 0. 2. 4. 2. 0. 0. 0.
      8. 0. 0. 0. 0. 0. 0. 0. 6. 2. 4. 0. 0. 2. 0. 0. 2. 4. 2. 0. 0. 4.
      8. 4. 14. 10. 20. 4. 44. 0. 2. 2. 40. 0. 0. 0. 10. 0. 8. 2. 30. 0.
      4. 0. 6. 0. 0. 4. 4. 4. 0. 0. 0. 0. 2. 6. 14. 12. 22. 4. 18. 2. 4.
      2. 22. 2. 6. 0. 6. 2. 10. 2. 34. 14. 10. 4. 16. 0. 8. 2. 8. 10.
      12. 2. 14. 30. 12. 30. 92.</_>
    <_>
      30. 44. 4. 10. 2. 0. 2. 18. 6. 4. 0. 0. 4. 6. 20. 112. 48. 12. 0.
      0. 2. 0. 4. 0. 16. 0. 0. 2. 12. 4. 36. 34. 4. 2. 2. 0. 0. 0. 0. 0.
      0. 0. 0. 0. 0. 0. 2. 2. 6. 4. 0. 0. 0. 0. 0. 0. 8. 0. 0. 0. 4. 0.
      20. 8. 2. 2. 0. 0. 6. 0. 0. 0. 4. 0. 0. 0. 0. 0. 0. 2. 4. 0. 0. 0.
      0. 0. 0. 0. 0. 0. 0. 0. 0. 0. 0. 0. 10. 0. 0. 0. 2. 0. 0. 0. 0. 0.
      0. 0. 2. 0. 0. 2. 22. 2. 4. 0. 2. 0. 2. 0. 30. 2. 2. 0. 10. 0. 14.
      4. 6. 10. 0. 22. 0. 4. 0. 58. 4. 0. 0. 0. 0. 2. 0. 36. 0. 0. 0. 0.
      0. 0. 0. 0. 4. 0. 0. 0. 0. 0. 0. 6. 0. 2. 0. 0. 0. 0. 0. 0. 0. 0.
      0. 0. 0. 0. 0. 0. 2. 0. 0. 0. 0. 0. 0. 0. 0. 0. 0. 2. 0. 0. 0. 6.
      8. 12. 0. 10. 0. 0. 2. 24. 0. 0. 0. 0. 0. 0. 0. 8. 12. 2. 0. 0. 0.
      0. 0. 0. 0. 0. 0. 0. 0. 0. 2. 0. 30. 66. 2. 24. 0. 0. 4. 32. 0. 2.
      0. 0. 0. 2. 8. 26. 158. 96. 4. 16. 2. 0. 0. 18. 46. 16. 4. 6. 16.
      14. 40. 68.</_>
    <_>
      34. 16. 0. 2. 2. 0. 2. 4. 4. 0. 0. 0. 0. 0. 0. 0. 4. 16. 2. 2. 2.
      0. 0. 2. 2. 0. 0. 2. 2. 4. 8. 4. 6. 4. 0. 0. 2. 0. 0. 0. 2. 0. 0.
      0. 0. 0. 0. 2. 10. 2. 0. 0. 2. 0. 0. 4. 8. 0. 0. 0. 8. 0. 22. 4.
      8. 0. 2. 2. 2. 0. 0. 0. 0. 0. 2. 0. 0. 0. 0. 0. 2. 0. 0. 2. 0. 0.
      0. 0. 0. 0. 0. 0. 2. 0. 0. 0. 2. 2. 0. 0. 0. 0. 2. 0. 0. 0. 2. 0.
      0. 2. 2. 2. 10. 6. 2. 2. 2. 0. 0. 2. 18. 2. 4. 0. 14. 2. 4. 36. 8.
      2. 4. 10. 0. 0. 2. 4. 0. 0. 0. 0. 2. 2. 0. 16. 4. 12. 0. 2. 2. 0.
      0. 2. 0. 0. 0. 0. 2. 0. 0. 2. 0. 2. 0. 4. 0. 0. 0. 0. 0. 0. 0. 0.
      0. 0. 0. 2. 0. 0. 0. 0. 0. 0. 0. 0. 2. 2. 0. 0. 4. 2. 20. 4. 4.
      12. 4. 24. 0. 2. 0. 22. 0. 0. 0. 4. 2. 0. 0. 8. 0. 2. 0. 6. 0. 0.
      0. 6. 0. 6. 0. 0. 0. 4. 0. 22. 4. 14. 4. 36. 0. 2. 0. 18. 2. 0. 0.
      20. 0. 0. 12. 20. 10. 10. 2. 14. 6. 2. 2. 58. 54. 16. 4. 6. 12.
      54. 24. 586.</_>
    <_>
      34. 18. 0. 6. 22. 2. 16. 36. 0. 4. 0. 0. 14. 0. 10. 24. 24. 8. 0.
      0. 2. 0. 0. 0. 12. 2. 0. 0. 56. 0. 14. 18. 0. 0. 2. 0. 0. 0. 4. 0.
      0. 0. 0. 0. 2. 0. 4. 4. 18. 2. 0. 0. 2. 0. 2. 0. 54. 4. 0. 2. 172.
      0. 30. 10. 16. 2. 0. 2. 10. 0. 0. 0. 0. 0. 0. 0. 0. 0. 2. 0. 0. 0.
      0. 0. 0. 0. 0. 0. 2. 0. 0. 0. 2. 2. 2. 0. 12. 0. 0. 2. 0. 0. 0. 0.
      2. 0. 0. 0. 2. 0. 2. 4. 30. 0. 0. 0. 0. 2. 0. 0. 52. 0. 0. 0. 54.
      0. 16. 2. 0. 8. 0. 32. 0. 4. 0. 84. 0. 2. 0. 0. 0. 0. 2. 34. 0. 2.
      0. 4. 0. 0. 0. 0. 0. 0. 0. 2. 0. 0. 0. 16. 0. 0. 0. 0. 0. 0. 0. 6.
      0. 0. 0. 0. 2. 0. 0. 0. 0. 0. 0. 0. 0. 0. 0. 2. 0. 0. 0. 4. 2. 2.
      4. 28. 10. 20. 0. 48. 0. 0. 0. 40. 0. 2. 0. 0. 2. 2. 0. 6. 4. 0.
      0. 0. 0. 0. 0. 2. 0. 0. 0. 2. 0. 0. 2. 8. 2. 12. 2. 20. 2. 2. 0.
      16. 2. 2. 0. 2. 0. 0. 6. 30. 42. 20. 0. 6. 0. 2. 0. 10. 18. 10. 6.
      20. 12. 6. 20. 56.</_>
    <_>
      48. 16. 4. 12. 12. 0. 12. 18. 2. 0. 0. 0. 4. 0. 14. 42. 10. 4. 10.
      0. 2. 0. 6. 0. 8. 0. 0. 0. 18. 0. 40. 20. 4. 8. 0. 0. 0. 0. 0. 0.
      0. 0. 0. 0. 0. 0. 0. 2. 12. 2. 0. 0. 0. 0. 0. 2. 26. 0. 0. 2. 100.
      6. 8. 2. 2. 4. 0. 2. 0. 0. 0. 6. 0. 0. 0. 0. 0. 0. 0. 4. 0. 0. 0.
      0. 0. 0. 0. 0. 0. 0. 0. 0. 0. 0. 0. 0. 2. 4. 0. 0. 0. 2. 0. 0. 0.
      0. 0. 0. 2. 0. 0. 2. 4. 0. 0. 0. 2. 0. 2. 0. 36. 2. 0. 0. 50. 6.
      16. 20. 0. 18. 0. 38. 0. 0. 0. 74. 0. 0. 0. 0. 0. 0. 0. 76. 0. 0.
      0. 2. 0. 0. 0. 4. 0. 0. 0. 2. 0. 0. 0. 16. 0. 0. 0. 2. 0. 0. 0. 2.
      0. 0. 0. 0. 0. 0. 0. 0. 0. 0. 0. 0. 0. 0. 0. 0. 4. 0. 0. 10. 0. 0.
      2. 14. 8. 6. 0. 22. 0. 2. 2. 126. 0. 0. 0. 0. 0. 0. 0. 36. 0. 2.
      0. 4. 0. 2. 0. 24. 0. 0. 0. 0. 2. 0. 2. 28. 4. 38. 0. 14. 0. 0. 0.
      12. 0. 2. 0. 6. 0. 0. 2. 26. 2. 6. 2. 10. 0. 2. 0. 10. 10. 8. 0.
      8. 34. 16. 22. 160.</_>
    <_>
      52. 6. 0. 4. 4. 2. 8. 10. 2. 0. 2. 2. 6. 0. 6. 8. 22. 8. 0. 2. 6.
      0. 0. 4. 6. 2. 2. 4. 2. 0. 24. 10. 10. 4. 2. 2. 2. 0. 2. 0. 0. 0.
      0. 0. 0. 0. 0. 6. 4. 0. 0. 4. 4. 0. 2. 0. 22. 2. 0. 2. 32. 0. 20.
      6. 22. 2. 0. 0. 0. 0. 0. 6. 2. 0. 0. 0. 0. 0. 0. 2. 2. 0. 0. 0. 0.
      0. 0. 2. 2. 0. 0. 0. 4. 0. 0. 4. 10. 4. 2. 2. 2. 2. 2. 2. 8. 0. 0.
      0. 0. 2. 4. 4. 10. 6. 2. 2. 12. 0. 2. 2. 22. 4. 0. 2. 34. 8. 26.
      18. 6. 6. 0. 8. 4. 2. 0. 2. 0. 2. 0. 2. 0. 0. 2. 2. 4. 0. 0. 0. 0.
      0. 0. 2. 0. 0. 0. 0. 2. 2. 2. 8. 0. 0. 2. 0. 0. 0. 0. 2. 0. 0. 0.
      0. 2. 0. 2. 0. 2. 4. 0. 2. 0. 0. 0. 2. 2. 2. 0. 2. 0. 2. 4. 22. 8.
      8. 0. 10. 2. 6. 0. 10. 4. 0. 0. 0. 2. 4. 0. 10. 2. 4. 0. 0. 0. 0.
      0. 2. 4. 0. 0. 0. 0. 4. 4. 16. 12. 16. 0. 8. 0. 2. 0. 14. 4. 4. 2.
      0. 0. 2. 6. 20. 24. 22. 2. 22. 6. 8. 8. 34. 10. 24. 4. 44. 32. 46.
      32. 380.</_>
    <_>
      112. 16. 10. 8. 20. 4. 6. 10. 12. 4. 0. 2. 14. 0. 4. 4. 20. 2. 4.
      6. 0. 0. 0. 2. 8. 2. 0. 4. 6. 0. 4. 2. 8. 4. 0. 4. 2. 0. 2. 6. 10.
      0. 0. 4. 2. 0. 2. 0. 6. 2. 0. 4. 2. 0. 2. 2. 4. 2. 4. 2. 28. 8. 6.
      10. 26. 4. 12. 0. 4. 2. 2. 8. 12. 0. 2. 0. 0. 2. 4. 2. 4. 2. 2. 0.
      2. 2. 0. 2. 4. 4. 2. 2. 2. 0. 2. 2. 4. 10. 2. 6. 8. 2. 2. 2. 2. 0.
      2. 0. 0. 2. 2. 0. 8. 4. 4. 4. 2. 0. 2. 2. 0. 2. 0. 8. 4. 4. 14.
      16. 10. 16. 4. 12. 10. 8. 4. 32. 0. 0. 0. 2. 4. 2. 0. 8. 2. 2. 0.
      2. 0. 0. 0. 0. 2. 4. 0. 2. 2. 2. 2. 8. 2. 2. 0. 4. 2. 2. 2. 6. 8.
      4. 0. 0. 0. 0. 0. 6. 4. 2. 0. 6. 2. 2. 2. 4. 4. 2. 2. 4. 2. 0. 4.
      18. 10. 14. 0. 14. 0. 0. 2. 18. 2. 6. 0. 6. 0. 2. 0. 8. 2. 8. 2.
      2. 0. 2. 0. 8. 2. 4. 4. 8. 0. 2. 8. 38. 22. 28. 2. 22. 2. 4. 4.
      12. 0. 0. 0. 10. 4. 4. 6. 28. 10. 16. 0. 18. 2. 2. 0. 34. 4. 16.
      8. 28. 12. 14. 14. 192.</_>
    <_>
      52. 20. 0. 10. 10. 4. 10. 36. 4. 2. 0. 0. 4. 2. 18. 20. 20. 2. 0.
      2. 4. 0. 2. 0. 6. 0. 0. 0. 24. 0. 18. 22. 8. 2. 0. 2. 0. 0. 0. 6.
      4. 0. 0. 0. 0. 0. 0. 6. 16. 0. 0. 0. 2. 2. 4. 0. 22. 0. 0. 0. 24.
      0. 20. 18. 16. 0. 0. 4. 6. 0. 2. 2. 2. 0. 0. 0. 0. 0. 2. 0. 2. 0.
      0. 0. 2. 0. 0. 0. 2. 0. 0. 0. 0. 0. 2. 0. 22. 6. 0. 2. 2. 0. 0. 2.
      2. 0. 0. 0. 2. 0. 0. 0. 44. 2. 2. 0. 0. 0. 0. 0. 42. 0. 4. 0. 40.
      4. 10. 8. 8. 18. 0. 36. 2. 0. 0. 60. 0. 0. 0. 0. 2. 4. 2. 26. 0.
      0. 0. 0. 0. 0. 0. 0. 4. 0. 0. 2. 0. 2. 8. 10. 0. 2. 0. 2. 0. 0. 0.
      4. 0. 0. 0. 2. 0. 0. 0. 2. 2. 2. 0. 0. 0. 0. 0. 2. 2. 6. 0. 4. 2.
      0. 2. 6. 10. 44. 0. 52. 4. 2. 4. 62. 4. 2. 0. 4. 0. 4. 0. 24. 6.
      2. 0. 4. 0. 0. 0. 0. 4. 2. 0. 2. 0. 0. 2. 12. 20. 20. 6. 40. 0. 6.
      0. 22. 2. 0. 0. 2. 0. 2. 4. 22. 26. 10. 2. 22. 2. 0. 4. 12. 22.
      24. 4. 26. 20. 6. 10. 94.</_>
    <_>
      66. 12. 2. 2. 10. 0. 12. 18. 2. 0. 0. 2. 12. 0. 6. 14. 28. 2. 6.
      2. 0. 0. 4. 2. 16. 4. 0. 0. 14. 0. 30. 6. 2. 2. 2. 0. 2. 0. 4. 2.
      0. 0. 0. 0. 2. 2. 0. 0. 12. 2. 2. 0. 0. 0. 0. 0. 20. 0. 0. 0. 28.
      2. 14. 2. 32. 2. 4. 2. 14. 2. 0. 2. 4. 0. 0. 0. 2. 0. 0. 0. 0. 0.
      2. 0. 0. 0. 0. 0. 0. 0. 2. 0. 6. 0. 0. 0. 22. 0. 0. 6. 0. 0. 0. 2.
      0. 4. 0. 0. 0. 2. 0. 2. 28. 0. 0. 2. 6. 0. 0. 0. 54. 6. 0. 0. 18.
      0. 8. 4. 8. 18. 2. 20. 0. 8. 2. 48. 0. 2. 0. 2. 0. 0. 2. 12. 0. 2.
      0. 0. 0. 0. 0. 2. 0. 2. 0. 0. 0. 0. 2. 2. 4. 10. 2. 0. 0. 0. 0. 2.
      0. 0. 0. 0. 0. 0. 0. 4. 2. 4. 0. 0. 0. 0. 0. 6. 2. 0. 0. 4. 2. 2.
      0. 8. 18. 22. 2. 26. 2. 2. 0. 20. 2. 0. 2. 4. 0. 2. 0. 10. 4. 2.
      0. 2. 0. 0. 0. 0. 0. 2. 0. 2. 2. 2. 0. 8. 28. 44. 4. 16. 4. 4. 0.
      20. 2. 0. 0. 2. 2. 4. 2. 12. 68. 54. 8. 38. 4. 8. 12. 32. 48. 28.
      2. 26. 18. 24. 14. 108.</_>
    <_>
      22. 6. 0. 10. 0. 2. 6. 2. 2. 0. 0. 0. 2. 0. 6. 14. 8. 0. 0. 0. 0.
      2. 0. 0. 2. 0. 0. 4. 6. 0. 4. 20. 0. 0. 0. 0. 0. 0. 0. 0. 0. 0. 0.
      0. 0. 0. 0. 4. 0. 2. 0. 0. 0. 0. 0. 2. 0. 0. 0. 2. 80. 0. 6. 6. 0.
      2. 0. 2. 2. 0. 0. 0. 2. 0. 0. 0. 0. 0. 0. 4. 0. 0. 0. 0. 0. 0. 0.
      0. 0. 0. 0. 0. 0. 0. 0. 2. 2. 0. 0. 0. 0. 0. 0. 0. 2. 0. 0. 0. 0.
      0. 2. 0. 4. 2. 0. 0. 0. 0. 0. 0. 26. 0. 0. 2. 8. 2. 22. 28. 2. 2.
      0. 4. 2. 0. 2. 70. 0. 0. 0. 2. 0. 0. 0. 10. 2. 0. 0. 0. 0. 0. 0.
      0. 0. 0. 0. 0. 0. 0. 0. 8. 0. 2. 0. 0. 0. 0. 0. 4. 0. 0. 0. 0. 0.
      0. 0. 2. 2. 0. 0. 6. 0. 0. 0. 2. 0. 4. 0. 2. 2. 2. 2. 14. 8. 4. 0.
      22. 0. 0. 0. 18. 2. 2. 0. 4. 0. 0. 0. 24. 0. 4. 0. 0. 2. 0. 0. 0.
      0. 2. 0. 0. 0. 0. 0. 34. 8. 6. 2. 8. 2. 0. 2. 16. 0. 4. 0. 2. 2.
      0. 4. 14. 32. 70. 2. 14. 2. 0. 2. 16. 4. 8. 0. 6. 2. 10. 4. 718.</_>
    <_>
      68. 20. 4. 6. 4. 6. 6. 22. 10. 0. 2. 2. 10. 6. 14. 52. 24. 10. 0.
      0. 0. 0. 2. 6. 10. 0. 2. 0. 20. 2. 24. 8. 2. 2. 4. 2. 0. 0. 4. 0.
      0. 0. 0. 0. 2. 0. 0. 6. 8. 2. 2. 0. 4. 0. 0. 0. 14. 2. 0. 0. 18.
      2. 14. 12. 18. 2. 0. 4. 4. 0. 2. 0. 0. 0. 0. 0. 2. 0. 0. 0. 6. 0.
      0. 0. 0. 0. 0. 0. 0. 0. 0. 0. 0. 0. 0. 0. 10. 2. 0. 4. 4. 0. 0. 0.
      0. 0. 0. 0. 2. 0. 0. 0. 34. 0. 2. 0. 0. 0. 2. 2. 44. 0. 6. 6. 14.
      0. 10. 18. 26. 14. 2. 14. 2. 6. 0. 30. 0. 2. 0. 0. 0. 0. 0. 20. 4.
      2. 0. 0. 0. 0. 0. 0. 2. 2. 0. 2. 4. 0. 2. 6. 4. 2. 0. 0. 0. 0. 0.
      2. 0. 0. 0. 0. 2. 0. 2. 4. 2. 2. 0. 4. 0. 0. 0. 2. 0. 2. 0. 4. 2.
      0. 0. 8. 26. 22. 2. 20. 2. 0. 4. 18. 2. 0. 0. 0. 0. 4. 2. 12. 16.
      4. 0. 0. 0. 0. 0. 0. 2. 0. 0. 0. 0. 2. 0. 10. 20. 32. 0. 34. 2. 4.
      0. 18. 2. 4. 0. 0. 4. 6. 0. 20. 158. 34. 6. 30. 0. 4. 2. 24. 32.
      20. 10. 18. 12. 6. 30. 68.</_>
    <_>
      28. 14. 4. 2. 12. 2. 2. 18. 8. 2. 2. 0. 8. 0. 4. 12. 2. 6. 0. 2.
      2. 0. 0. 0. 8. 0. 0. 0. 4. 0. 8. 10. 4. 0. 0. 0. 2. 0. 2. 0. 0. 0.
      0. 0. 2. 0. 2. 0. 12. 2. 0. 2. 4. 0. 0. 2. 10. 2. 0. 0. 46. 2. 14.
      0. 2. 6. 2. 4. 4. 2. 0. 2. 4. 0. 0. 0. 0. 0. 8. 0. 2. 2. 2. 2. 2.
      0. 0. 4. 2. 0. 0. 2. 0. 2. 0. 4. 10. 4. 0. 2. 4. 0. 4. 0. 0. 0. 0.
      0. 0. 0. 0. 0. 12. 0. 2. 2. 2. 0. 2. 2. 12. 0. 0. 0. 24. 4. 12.
      12. 14. 14. 0. 8. 4. 4. 2. 50. 2. 4. 0. 2. 0. 0. 0. 24. 0. 6. 0.
      2. 0. 0. 0. 4. 0. 0. 0. 0. 0. 0. 0. 6. 0. 2. 0. 0. 0. 0. 0. 2. 2.
      0. 0. 0. 2. 0. 0. 4. 0. 0. 0. 0. 0. 0. 0. 6. 0. 0. 0. 2. 0. 6. 2.
      22. 12. 16. 2. 20. 0. 8. 2. 36. 2. 0. 0. 0. 0. 0. 2. 20. 0. 4. 0.
      8. 0. 0. 0. 6. 0. 4. 0. 0. 0. 0. 0. 24. 4. 14. 0. 16. 0. 8. 4. 34.
      0. 0. 0. 6. 2. 2. 6. 24. 10. 16. 0. 22. 4. 10. 0. 36. 8. 18. 0.
      28. 10. 12. 18. 458.</_>
    <_>
      18. 6. 2. 6. 2. 2. 2. 10. 2. 2. 2. 0. 2. 2. 8. 24. 6. 8. 0. 2. 2.
      0. 0. 2. 4. 0. 0. 2. 4. 0. 6. 18. 2. 0. 0. 0. 0. 0. 0. 0. 0. 0. 0.
      0. 0. 0. 0. 0. 0. 0. 0. 2. 0. 0. 0. 2. 4. 0. 0. 0. 74. 0. 16. 4.
      4. 0. 0. 0. 0. 0. 0. 0. 2. 0. 0. 0. 0. 0. 0. 2. 0. 0. 0. 0. 0. 0.
      0. 0. 0. 2. 0. 0. 2. 0. 2. 0. 0. 0. 2. 0. 0. 0. 0. 2. 2. 0. 0. 0.
      0. 0. 0. 0. 2. 2. 0. 0. 0. 0. 2. 2. 22. 0. 0. 0. 60. 2. 22. 30. 4.
      2. 0. 2. 0. 0. 0. 66. 0. 0. 0. 2. 0. 0. 2. 8. 0. 0. 0. 0. 0. 0. 0.
      2. 0. 0. 0. 2. 0. 0. 0. 4. 0. 0. 2. 2. 0. 0. 2. 2. 0. 0. 0. 2. 0.
      0. 0. 2. 0. 2. 0. 2. 0. 0. 0. 2. 0. 0. 0. 2. 8. 4. 2. 10. 4. 2. 2.
      22. 0. 0. 0. 12. 0. 0. 0. 0. 0. 0. 0. 26. 2. 2. 0. 0. 0. 0. 2. 0.
      0. 0. 0. 2. 2. 2. 0. 28. 10. 14. 0. 6. 0. 0. 0. 4. 0. 0. 0. 2. 2.
      0. 4. 16. 42. 56. 2. 10. 0. 0. 0. 14. 4. 4. 0. 8. 10. 16. 10. 676.</_>
    <_>
      68. 30. 4. 4. 16. 0. 8. 30. 4. 2. 0. 0. 16. 4. 20. 26. 22. 12. 8.
      0. 2. 0. 6. 0. 18. 4. 4. 4. 30. 2. 56. 14. 8. 4. 2. 4. 2. 0. 6. 2.
      0. 0. 0. 0. 2. 0. 2. 8. 22. 4. 0. 0. 4. 0. 6. 0. 20. 2. 0. 2. 38.
      4. 26. 8. 10. 0. 4. 4. 2. 0. 2. 2. 2. 0. 0. 0. 0. 0. 0. 4. 2. 0.
      0. 2. 2. 0. 0. 0. 2. 0. 0. 0. 0. 0. 4. 2. 26. 8. 0. 4. 0. 0. 0. 2.
      4. 2. 0. 0. 0. 0. 0. 0. 14. 4. 0. 0. 0. 0. 0. 0. 30. 0. 0. 0. 24.
      6. 18. 6. 2. 24. 0. 10. 0. 0. 2. 38. 2. 4. 0. 2. 0. 2. 4. 20. 8.
      2. 0. 0. 0. 0. 0. 0. 4. 4. 0. 2. 2. 0. 2. 22. 0. 0. 0. 4. 0. 0. 0.
      0. 0. 0. 0. 0. 0. 0. 0. 0. 0. 2. 0. 2. 0. 0. 0. 0. 0. 0. 0. 2. 4.
      0. 10. 10. 4. 12. 0. 18. 2. 6. 4. 18. 0. 2. 0. 2. 0. 2. 2. 18. 2.
      6. 0. 2. 0. 0. 0. 4. 0. 2. 0. 0. 2. 0. 6. 12. 6. 46. 4. 22. 0. 0.
      0. 18. 2. 8. 0. 4. 0. 4. 8. 30. 22. 18. 4. 12. 2. 2. 4. 4. 24. 12.
      8. 8. 34. 26. 42. 96.</_>
    <_>
      38. 18. 6. 6. 8. 0. 8. 30. 2. 0. 0. 2. 16. 4. 8. 22. 10. 0. 10. 4.
      2. 0. 4. 0. 6. 0. 0. 0. 20. 0. 30. 22. 2. 4. 0. 0. 0. 0. 0. 4. 0.
      0. 0. 0. 2. 0. 0. 0. 14. 2. 2. 0. 0. 0. 0. 2. 22. 0. 0. 0. 90. 4.
      20. 2. 4. 4. 0. 6. 4. 0. 2. 2. 2. 0. 0. 0. 2. 0. 0. 2. 0. 0. 0. 0.
      2. 0. 0. 0. 2. 0. 0. 0. 0. 0. 2. 0. 10. 2. 0. 0. 0. 0. 0. 0. 2. 0.
      0. 0. 2. 0. 0. 2. 8. 0. 2. 0. 4. 0. 2. 2. 16. 2. 0. 4. 42. 2. 14.
      10. 4. 14. 0. 34. 2. 4. 4. 142. 0. 0. 0. 0. 0. 2. 0. 76. 0. 0. 0.
      0. 0. 0. 0. 4. 0. 0. 2. 2. 0. 0. 0. 2. 0. 0. 0. 0. 0. 0. 0. 2. 0.
      0. 0. 0. 0. 0. 0. 0. 0. 0. 0. 0. 0. 0. 2. 6. 2. 0. 0. 2. 8. 0. 0.
      18. 2. 2. 0. 40. 0. 2. 4. 110. 0. 0. 0. 2. 4. 2. 2. 32. 0. 0. 0.
      0. 0. 0. 0. 12. 0. 0. 0. 4. 0. 0. 0. 24. 4. 32. 0. 14. 0. 4. 2.
      26. 0. 8. 0. 2. 0. 2. 0. 20. 4. 4. 0. 2. 2. 2. 0. 18. 16. 14. 0.
      8. 16. 14. 16. 158.</_>
    <_>
      4. 4. 6. 2. 4. 0. 4. 10. 4. 0. 0. 0. 6. 0. 2. 14. 4. 0. 0. 0. 0.
      0. 0. 0. 4. 0. 0. 0. 4. 0. 10. 14. 0. 0. 0. 0. 2. 0. 0. 0. 0. 0.
      0. 0. 0. 0. 2. 0. 6. 2. 0. 0. 0. 0. 0. 0. 12. 0. 0. 0. 30. 0. 4.
      0. 0. 0. 0. 2. 0. 0. 0. 2. 2. 0. 0. 0. 0. 2. 0. 2. 4. 2. 0. 0. 0.
      0. 0. 0. 0. 0. 0. 0. 0. 0. 0. 0. 2. 0. 0. 0. 0. 0. 0. 0. 0. 0. 0.
      0. 0. 0. 0. 0. 12. 0. 0. 0. 0. 0. 0. 0. 80. 2. 0. 2. 68. 4. 12. 8.
      6. 8. 0. 8. 2. 0. 0. 22. 0. 0. 0. 2. 0. 0. 0. 12. 0. 0. 0. 2. 0.
      0. 0. 0. 2. 0. 0. 0. 0. 2. 0. 2. 0. 0. 0. 0. 0. 0. 2. 6. 0. 0. 0.
      0. 0. 0. 0. 0. 0. 0. 0. 0. 0. 0. 0. 2. 0. 0. 0. 4. 2. 4. 4. 18. 2.
      12. 0. 98. 2. 0. 0. 48. 0. 0. 0. 2. 0. 0. 0. 10. 0. 2. 0. 2. 0. 0.
      0. 0. 2. 0. 0. 0. 0. 0. 0. 8. 8. 0. 0. 16. 0. 0. 2. 24. 0. 0. 0.
      0. 0. 0. 0. 4. 6. 6. 0. 8. 0. 4. 0. 18. 22. 4. 0. 14. 12. 14. 10.
      738.</_>
    <_>
      116. 42. 14. 18. 6. 2. 14. 24. 14. 2. 2. 2. 4. 2. 12. 6. 40. 8. 6.
      6. 4. 0. 2. 2. 14. 6. 2. 4. 10. 6. 32. 4. 8. 6. 0. 2. 2. 2. 10. 2.
      0. 2. 0. 0. 2. 0. 0. 2. 14. 2. 2. 2. 10. 0. 0. 6. 10. 0. 4. 0. 26.
      4. 14. 6. 20. 6. 8. 12. 4. 0. 0. 0. 2. 0. 0. 0. 2. 0. 10. 0. 2. 0.
      0. 0. 2. 0. 2. 0. 0. 0. 0. 2. 2. 0. 4. 0. 18. 2. 2. 4. 2. 0. 0. 0.
      4. 0. 0. 0. 2. 2. 2. 6. 20. 4. 0. 2. 6. 0. 2. 0. 4. 0. 10. 10. 8.
      4. 14. 14. 8. 10. 2. 14. 2. 2. 0. 32. 0. 4. 0. 0. 2. 0. 2. 24. 4.
      0. 0. 0. 0. 2. 0. 0. 0. 0. 0. 0. 2. 4. 6. 16. 4. 0. 0. 0. 0. 0. 0.
      2. 2. 0. 0. 0. 2. 2. 0. 0. 4. 2. 0. 2. 2. 0. 2. 10. 2. 0. 2. 0. 6.
      6. 4. 20. 16. 6. 0. 18. 2. 2. 4. 8. 0. 4. 0. 8. 4. 6. 0. 26. 8. 2.
      0. 0. 0. 0. 0. 0. 0. 4. 0. 4. 2. 2. 6. 20. 12. 26. 4. 14. 0. 0. 0.
      12. 2. 8. 0. 4. 2. 2. 4. 42. 22. 12. 0. 6. 2. 4. 6. 6. 22. 20. 4.
      16. 22. 16. 26. 106.</_>
    <_>
      12. 2. 2. 2. 6. 0. 4. 10. 0. 2. 0. 0. 2. 2. 8. 20. 2. 0. 0. 0. 0.
      0. 0. 0. 4. 0. 0. 0. 10. 2. 14. 18. 4. 0. 0. 0. 0. 0. 2. 0. 0. 0.
      0. 0. 0. 0. 0. 0. 6. 0. 0. 0. 2. 0. 0. 0. 24. 0. 0. 0. 32. 0. 8.
      4. 6. 2. 0. 0. 0. 0. 0. 2. 2. 0. 0. 0. 0. 0. 0. 0. 0. 0. 0. 0. 0.
      0. 0. 0. 0. 0. 0. 0. 0. 0. 0. 0. 2. 0. 0. 0. 0. 0. 0. 0. 0. 0. 0.
      0. 0. 0. 0. 2. 14. 4. 0. 2. 0. 0. 0. 0. 68. 0. 6. 6. 48. 0. 14. 6.
      0. 6. 0. 4. 4. 2. 0. 20. 0. 0. 0. 2. 0. 2. 0. 8. 0. 2. 0. 0. 0. 0.
      0. 0. 0. 0. 0. 0. 2. 0. 0. 2. 0. 0. 0. 0. 0. 0. 0. 6. 0. 0. 0. 0.
      0. 0. 0. 0. 0. 0. 0. 0. 0. 0. 0. 2. 0. 0. 0. 6. 8. 8. 0. 16. 4.
      14. 0. 76. 0. 0. 0. 42. 0. 0. 0. 6. 2. 0. 0. 4. 0. 0. 0. 0. 0. 0.
      0. 0. 0. 0. 0. 4. 2. 0. 0. 4. 6. 0. 0. 24. 0. 2. 0. 12. 0. 2. 0.
      0. 0. 0. 0. 12. 6. 6. 0. 6. 0. 0. 2. 20. 18. 4. 0. 4. 12. 26. 14.
      746.</_>
    <_>
      74. 8. 12. 6. 10. 8. 2. 10. 8. 0. 0. 2. 0. 2. 2. 22. 12. 4. 8. 0.
      8. 0. 2. 4. 18. 0. 2. 2. 16. 2. 12. 34. 10. 4. 16. 0. 2. 0. 2. 4.
      2. 0. 0. 0. 4. 4. 0. 6. 10. 2. 0. 0. 6. 2. 0. 4. 12. 0. 2. 0. 2.
      0. 18. 8. 18. 4. 6. 0. 4. 0. 2. 2. 2. 0. 0. 0. 0. 0. 0. 0. 8. 2.
      2. 2. 0. 0. 2. 2. 0. 0. 0. 0. 6. 0. 2. 4. 14. 10. 4. 4. 0. 0. 0.
      4. 2. 4. 0. 2. 2. 2. 0. 4. 8. 4. 2. 0. 0. 2. 2. 16. 4. 4. 0. 4.
      18. 2. 8. 20. 20. 16. 4. 14. 4. 4. 2. 10. 10. 4. 0. 4. 0. 6. 2.
      14. 6. 2. 0. 0. 0. 0. 0. 2. 2. 2. 0. 2. 0. 2. 8. 14. 6. 6. 0. 4.
      2. 0. 0. 8. 4. 0. 2. 0. 0. 2. 4. 4. 2. 2. 0. 0. 2. 0. 0. 8. 0. 2.
      2. 8. 0. 0. 10. 12. 12. 22. 2. 20. 0. 4. 0. 16. 0. 4. 0. 6. 0. 8.
      2. 8. 8. 2. 0. 0. 2. 6. 0. 4. 6. 4. 2. 6. 6. 4. 2. 28. 16. 12. 4.
      26. 0. 0. 2. 16. 2. 4. 2. 8. 0. 0. 6. 20. 26. 34. 6. 8. 2. 6. 6.
      34. 14. 12. 12. 20. 6. 26. 20. 166.</_>
    <_>
      54. 44. 0. 8. 0. 2. 2. 22. 2. 2. 0. 0. 0. 0. 6. 30. 48. 82. 4. 16.
      2. 0. 4. 12. 12. 4. 0. 2. 20. 4. 36. 36. 0. 0. 0. 2. 0. 0. 2. 2.
      0. 0. 0. 2. 0. 0. 0. 2. 8. 16. 2. 4. 0. 0. 0. 0. 10. 10. 0. 2. 10.
      0. 0. 4. 4. 2. 0. 0. 0. 0. 0. 0. 2. 0. 0. 0. 0. 0. 0. 0. 4. 0. 0.
      2. 0. 0. 0. 0. 2. 2. 0. 0. 0. 0. 2. 2. 6. 4. 0. 0. 2. 0. 2. 0. 0.
      2. 0. 0. 0. 2. 6. 4. 12. 12. 2. 2. 2. 0. 0. 0. 18. 8. 0. 0. 10. 6.
      16. 2. 2. 8. 0. 8. 0. 6. 2. 30. 0. 0. 0. 0. 0. 4. 4. 2. 2. 8. 0.
      2. 0. 0. 2. 6. 0. 2. 0. 0. 0. 4. 4. 18. 0. 2. 0. 2. 0. 0. 0. 0. 0.
      2. 0. 0. 2. 0. 0. 0. 0. 2. 0. 0. 0. 0. 0. 0. 0. 2. 0. 0. 0. 0. 2.
      6. 6. 8. 4. 8. 0. 0. 4. 10. 0. 4. 0. 2. 0. 0. 2. 10. 0. 2. 0. 0.
      0. 0. 0. 4. 2. 0. 0. 4. 0. 6. 4. 8. 4. 22. 0. 10. 0. 0. 0. 16. 0.
      8. 0. 0. 4. 2. 8. 76. 20. 30. 4. 0. 0. 2. 0. 14. 12. 4. 4. 6. 10.
      12. 64. 344.</_>
    <_>
      24. 10. 4. 10. 8. 0. 0. 12. 0. 0. 0. 0. 2. 4. 12. 30. 12. 10. 0.
      0. 6. 0. 4. 0. 10. 2. 0. 0. 8. 2. 40. 24. 4. 2. 2. 2. 0. 0. 0. 0.
      2. 0. 0. 0. 0. 0. 2. 0. 6. 0. 0. 0. 0. 0. 4. 0. 26. 0. 0. 0. 16.
      0. 4. 2. 14. 0. 0. 0. 0. 0. 0. 2. 0. 0. 0. 0. 2. 0. 0. 0. 0. 0. 0.
      0. 0. 0. 0. 0. 2. 0. 0. 0. 0. 0. 0. 0. 16. 2. 2. 0. 4. 0. 0. 6. 0.
      0. 0. 0. 0. 0. 2. 4. 56. 4. 0. 0. 2. 0. 6. 2. 36. 0. 2. 2. 26. 0.
      6. 0. 10. 12. 0. 8. 0. 2. 0. 20. 0. 0. 0. 0. 0. 2. 2. 2. 0. 4. 0.
      0. 0. 0. 0. 0. 0. 2. 0. 0. 0. 4. 2. 8. 0. 2. 0. 0. 2. 0. 0. 4. 0.
      0. 0. 0. 0. 0. 0. 2. 2. 2. 0. 0. 0. 0. 0. 4. 2. 2. 0. 2. 2. 0. 0.
      10. 38. 64. 2. 60. 0. 2. 0. 32. 2. 2. 0. 2. 0. 0. 0. 4. 0. 4. 0.
      4. 0. 0. 0. 0. 2. 0. 0. 0. 0. 2. 4. 0. 26. 128. 6. 52. 0. 4. 2.
      22. 0. 6. 0. 2. 0. 0. 2. 24. 116. 50. 6. 26. 0. 0. 4. 18. 38. 24.
      8. 24. 20. 8. 16. 94.</_>
    <_>
      6. 0. 4. 0. 4. 2. 2. 18. 4. 0. 2. 0. 0. 0. 4. 26. 2. 0. 2. 0. 0.
      0. 0. 2. 0. 0. 2. 0. 22. 0. 46. 18. 2. 0. 0. 0. 0. 0. 0. 4. 2. 0.
      0. 0. 2. 0. 4. 0. 0. 0. 0. 0. 0. 0. 0. 0. 10. 0. 0. 0. 32. 2. 46.
      6. 2. 0. 0. 0. 0. 0. 0. 0. 0. 0. 0. 0. 2. 2. 0. 2. 2. 0. 0. 0. 0.
      0. 0. 4. 0. 0. 0. 0. 0. 0. 0. 0. 0. 0. 0. 0. 0. 0. 0. 0. 0. 0. 0.
      0. 0. 2. 0. 0. 14. 0. 0. 0. 0. 2. 2. 4. 16. 0. 0. 0. 10. 2. 12.
      36. 8. 2. 0. 16. 0. 0. 0. 22. 0. 2. 0. 0. 0. 4. 0. 48. 0. 0. 0. 2.
      0. 0. 0. 0. 2. 0. 0. 0. 0. 6. 0. 8. 4. 2. 0. 2. 0. 0. 2. 4. 2. 2.
      2. 0. 0. 2. 0. 6. 0. 0. 0. 0. 0. 0. 0. 0. 2. 0. 0. 2. 0. 0. 2. 4.
      2. 18. 2. 44. 0. 4. 0. 26. 2. 0. 0. 0. 0. 0. 0. 6. 2. 0. 2. 0. 0.
      0. 0. 4. 6. 0. 0. 4. 0. 0. 2. 36. 2. 22. 0. 60. 0. 0. 2. 14. 2. 2.
      0. 0. 0. 0. 0. 4. 28. 10. 0. 8. 0. 2. 0. 36. 36. 8. 0. 0. 2. 24.
      10. 588.</_>
    <_>
      92. 30. 10. 12. 8. 2. 18. 26. 6. 8. 2. 8. 6. 2. 26. 20. 28. 4. 0.
      2. 10. 0. 4. 0. 16. 2. 0. 0. 18. 0. 38. 26. 18. 0. 2. 0. 6. 0. 4.
      6. 2. 0. 0. 0. 0. 0. 2. 2. 12. 2. 2. 6. 4. 0. 6. 2. 4. 0. 4. 0.
      28. 4. 16. 14. 18. 2. 2. 6. 2. 2. 0. 2. 8. 0. 2. 2. 2. 0. 2. 2. 2.
      2. 0. 0. 0. 0. 0. 2. 0. 0. 2. 0. 2. 0. 2. 0. 8. 4. 2. 10. 0. 0. 0.
      2. 2. 0. 0. 2. 2. 0. 2. 2. 18. 4. 0. 6. 2. 0. 2. 0. 4. 0. 4. 2. 6.
      2. 20. 10. 10. 16. 0. 12. 4. 6. 2. 40. 0. 0. 0. 2. 2. 4. 2. 22. 4.
      2. 0. 0. 2. 0. 0. 4. 0. 2. 0. 0. 2. 2. 6. 18. 2. 0. 0. 2. 4. 0. 2.
      4. 0. 0. 0. 0. 0. 0. 0. 2. 2. 2. 2. 0. 0. 0. 0. 6. 0. 2. 0. 0. 6.
